solver_type L2R_L2LOSS_SVC
nr_class 10
label 0 1 2 3 4 5 6 7 8 9
nr_feature 780
bias 1
w
0 0 0 0 0 0 0 0 0 0 
0 0 0 0 0 0 0 0 0 0 
0 0 0 0 0 0 0 0 0 0 
0 0 0 0 0 0 0 0 0 0 
0 0 0 0 0 0 0 0 0 0 
0 0 0 0 0 0 0 0 0 0 
0 0 0 0 0 0 0 0 0 0 
0 0 0 0 0 0 0 0 0 0 
0 0 0 0 0 0 0 0 0 0 
0 0 0 0 0 0 0 0 0 0 
0 0 0 0 0 0 0 0 0 0 
0 0 0 0 0 0 0 0 0 0 
0 0 0 0 0 0 0 0 0 0 
0 0 0 0 0 0 0 0 0 0 
0 0 0 0 0 0 0 0 0 0 
0 0 0 0 0 0 0 0 0 0 
0 0 0 0 0 0 0 0 0 0 
0 0 0 0 0 0 0 0 0 0 
0 0 0 0 0 0 0 0 0 0 
0 0 0 0 0 0 0 0 0 0 
0 0 0 0 0 0 0 0 0 0 
0 0 0 0 0 0 0 0 0 0 
0 0 0 0 0 0 0 0 0 0 
0 0 0 0 0 0 0 0 0 0 
0 0 0 0 0 0 0 0 0 0 
0 0 0 0 0 0 0 0 0 0 
0 0 0 0 0 0 0 0 0 0 
0 0 0 0 0 0 0 0 0 0 
0 0 0 0 0 0 0 0 0 0 
0 0 0 0 0 0 0 0 0 0 
0 0 0 0 0 0 0 0 0 0 
0 0 0 0 0 0 0 0 0 0 
0 0 0 0 0 0 0 0 0 0 
0 0 0 0 0 0 0 0 0 0 
2.173963111654732e-08 -2.256369743990898e-08 -0.0001282778732180955 -2.172027647499014e-08 -0.001608237376464501 -3.844199364483463e-08 3.00804140876705e-05 -3.174852159725373e-07 -3.744624670852132e-08 -2.294886821005684e-07 
-3.241313533188585e-08 -4.80200544468932e-08 -0.0004750128742423722 -3.319143599017898e-08 -0.002302137407224177 -6.887085315764083e-08 0.0002268267277104121 -6.167825545723795e-07 -7.258410847157252e-08 -3.690667921678499e-07 
-5.037418113952796e-07 -7.198647352476743e-08 -0.0008378524715926372 3.553110683775096e-08 -1.872883479060594e-05 -6.251313527612917e-08 0.0006155887045963278 -2.594941900059716e-06 -9.026531334949378e-08 -2.221307662407735e-07 
-2.209741693250924e-06 5.342608875133311e-09 -0.001847246981678963 -1.967280276949158e-08 -1.305380291467638e-05 -9.516720131115909e-06 0.001314363386761519 -4.879799114616495e-06 -1.846505689814923e-07 -3.046157034970028e-07 
-2.31160269400305e-05 2.928711445506277e-07 -0.001452579895001791 1.425644436317528e-07 -3.24862202003595e-05 -4.602359925299703e-05 0.001080509735562838 -1.203227629561611e-05 -3.239787023600002e-07 -1.786206198980026e-06 
-3.6187287288102e-06 -6.418371987879908e-07 -0.001158735205331312 -8.852623547452548e-09 -0.0006065183177585256 -4.272058258589786e-05 0.0003489529407998823 -0.0001109550997439202 -6.64865479255317e-07 -5.115134691567196e-05 
4.250667289339773e-07 1.236574157439131e-06 -0.00168789254731724 -1.730091785070829e-06 -0.001877695168035632 -5.19927398752845e-05 0.0006278922713969218 -0.0001198397393033186 -2.260356991697145e-07 -0.0002384876596447352 
4.399370345063215e-07 9.438731210501537e-07 -0.0008362474671059371 -9.875370081348621e-07 -0.0005648407249320691 -3.12927403967433e-05 0.0002219119382455852 -9.858973241773304e-06 -9.769828660316867e-07 -3.393583034962197e-05 
7.499982054802367e-07 1.044892776408711e-06 -0.0002731388328073442 -4.137181634542421e-08 -7.377509053673516e-05 -7.919889985074184e-07 0.0001621084329604081 -1.171179548093837e-07 -4.38968511117671e-06 -2.107507716384818e-05 
1.774580727784754e-06 -4.518078909537677e-05 7.724026501383484e-05 -1.29554055547922e-07 -0.000102090032760414 -5.055195142266099e-07 0.00048403704878296 -3.295605988523512e-06 -1.543590676797195e-05 -0.0001373310874848311 
1.149770329034317e-06 -0.0001494246332465571 0.0008785546123956663 -4.052112793205756e-07 -0.000625587991929455 -6.095862072097778e-07 -0.001113792529967926 -2.572423158460282e-06 -4.794709054328679e-05 -0.000954174771431014 
7.588497407855268e-07 -1.918953684015831e-05 7.59444360813297e-05 -9.778184767898039e-08 -0.0001753272810695485 -2.60120413897992e-07 -5.223824092803568e-05 2.245157506148977e-07 -8.279630565761822e-06 -9.624344986712148e-05 
6.350886658135695e-07 4.170860296774716e-07 -3.999693475606112e-05 -6.841355600358872e-08 -3.267140216749058e-06 -1.948048939284453e-07 1.200884808891361e-05 1.883679202766195e-07 -3.019672931421082e-06 -1.744850629401111e-06 
-2.981881553113217e-06 -4.446338907829704e-07 -4.209783803324212e-06 5.079822405258857e-08 -6.872328557684479e-05 6.758202106331631e-08 2.435290587966006e-05 -7.087983100922723e-08 -1.418318524353872e-07 -0.000186433146239646 
-7.434743539772426e-06 -6.010460317635253e-07 -9.129834994020746e-06 1.181244246784422e-07 -0.0007761663029659139 -1.667394650862319e-07 0.0001020894872449059 -1.275435644824356e-07 -2.36773100748728e-07 -0.001394117815824962 
-1.474987829961565e-06 -4.090271208044926e-08 -1.53362606951151e-06 2.267414058275239e-08 -5.754519984641314e-05 -8.383757481216579e-08 1.93478521631973e-05 -1.89549849923188e-08 -2.888063580032358e-08 -0.0001554717170784718 
0 0 0 0 0 0 0 0 0 0 
0 0 0 0 0 0 0 0 0 0 
0 0 0 0 0 0 0 0 0 0 
0 0 0 0 0 0 0 0 0 0 
0 0 0 0 0 0 0 0 0 0 
0 0 0 0 0 0 0 0 0 0 
0 0 0 0 0 0 0 0 0 0 
0 0 0 0 0 0 0 0 0 0 
2.60175342008224e-08 -1.569003311772805e-09 1.709452377067246e-08 -4.240071781344012e-09 1.009281905086746e-07 -2.358923527401791e-09 1.115176262951612e-07 -1.759538691419073e-09 -4.313647800948841e-09 2.992498384041181e-06 
0 0 0 0 0 0 0 0 0 0 
0 0 0 0 0 0 0 0 0 0 
-1.068589277508167e-05 -6.082619519185372e-09 -3.561994272040775e-07 1.325924991009487e-08 2.113917492477455e-07 -7.668521402407066e-09 4.526762131308295e-06 -3.811124620381302e-08 -1.078978130705733e-08 -3.153045159526011e-08 
-8.816641016092851e-05 4.600410765132141e-09 -6.818356600986479e-05 5.231380972862341e-07 -0.0007036151988583275 -9.720398270745717e-08 4.798726759556797e-05 -7.506510113578863e-07 -1.337216372864911e-07 -3.607676245775582e-07 
-0.0002571400742297657 1.508525327088312e-07 -0.0003454463779516907 -0.0001183801698262549 -0.003710754741474781 -5.148729725856647e-07 0.0005536051638704098 -2.658477074633839e-06 -9.74278332426786e-05 -1.497303806189682e-06 
-0.0003888781111509819 3.683997020465509e-07 -8.040413645680047e-05 -0.0003894835454910627 -0.001085319603170668 -0.0005013663779380567 0.0005725213316039057 -7.022472423416493e-06 -0.0003167650654268724 -1.802497319280371e-06 
-0.0003397089046811646 2.895683547005042e-06 0.0006349354857427619 -0.0003871467174397919 -0.002947528631819273 -0.001820927905126542 0.0001509624486458053 -7.438928298990121e-06 -0.0002964427639536686 -3.040932243796927e-06 
-0.0008448124885965266 3.154970406518029e-06 -0.002332965704607178 -0.0003375905590610598 -0.003104678624838818 -0.0009933048997316164 -0.0005072439373558034 -9.195132668923219e-05 -0.0001015415136775473 -0.0003173339493946153 
-0.001513067919722419 -0.0001446112332843678 -0.0005459506070523473 -0.001034649673913902 -0.007202845083636987 -0.0001138684498099011 0.001866939100176422 -0.0001281159372881003 -0.0001152206360600171 -0.0007608945060362524 
-0.004030628327854905 -0.0002439756734652944 -3.57634955768971e-05 -0.0008877708723811409 -0.004819505962220171 -0.0009037464998538223 -0.0002075403792878301 -9.62227797552467e-05 -7.453980072169987e-05 -0.0004005826338370295 
-0.003658174334129858 -0.0002801178864338547 -0.00140934511543022 -0.002015519026445154 -0.001668399293541168 -0.001612495253411381 0.001040435384981165 2.372005673956191e-06 -0.0001606536297336532 -0.0004881391585257853 
-0.001400246033727457 -0.0001898063390607948 0.001276241877054117 -0.00240192008875264 -0.003588843589045122 -0.002132716191307345 -0.0002502203968303121 1.243152033105885e-05 -0.001047482288330707 -0.002067122703142936 
-0.002672925062563261 -0.0001310973121276309 -0.001504952235526374 -0.003098485960653988 -0.00579521737672176 -0.001497653462961621 -0.0009032875488523761 2.053797565840741e-05 -0.001879136504331629 -0.001478098465647957 
-0.004909196112698407 -0.0002870156923725912 -0.0006330585628034763 -0.004024896444230141 -0.005472915702646427 -0.001790287208241165 0.00155520796523137 2.219786610105633e-05 -0.00150196783691232 -0.001100753428315861 
-0.00258396757702269 -0.0001366979898395431 -0.0009623755634374758 -0.003347853598255048 -0.002054018229311953 -0.0001673551745843818 0.0003804981436246215 1.204865248477533e-05 -0.001532002028485399 -0.0005382700564079925 
-0.0008448227495135965 0.0008114869923312291 -0.002969556008395368 -0.002366334191548018 -0.002782057818960807 0.002682630561025096 -0.0002227917282601586 1.11349024040217e-05 -0.0007971127377700181 -0.0009931733244929819 
-0.0001422350017320568 0.001865253884191606 -0.004048326241431007 -0.001010129375581116 -0.001000734100535084 -0.002540065833427333 0.001400972980653046 8.716008383929873e-06 -0.0004205821001330668 -0.000696621755690477 
-8.830193188296213e-05 0.0004623131680571094 -0.002342176829456801 -0.0006442443121972752 -0.001368850103561435 -0.001468296836845647 0.001323797021166681 6.66617238748881e-06 -0.0004503422767463906 -0.001408967957045333 
-4.085536353898922e-05 -2.54453207738665e-06 -0.0009881969671223215 -0.0002470251060342134 -0.001970603034777084 -0.001052421801018183 0.0019272292369587 3.757854971537937e-06 -0.0003767230676298257 -0.000710935760149153 
-3.945726709921368e-05 -1.298906872970404e-05 -0.002680774712354911 -1.192500416375618e-07 -0.001792036076700328 -0.0003624727422884766 0.002168110613824639 6.223486596576673e-07 -0.0006429561140372346 -0.0003210449921466775 
-3.004326199477189e-05 -3.863705202506689e-06 -0.0007538450093657671 7.264136289068336e-08 -0.000711622548413621 -0.0001297776116089415 0.00116540045372193 6.508828618537418e-07 -0.000227359196428564 -0.0001075995889528565 
-3.466802497870219e-06 1.858521085035037e-08 3.546627727946805e-07 3.124072223172429e-08 -3.734539578359318e-05 -1.570590779710486e-05 -2.461958638379036e-05 2.816125679178768e-07 -1.576833599679028e-05 -4.210002807530883e-06 
0 0 0 0 0 0 0 0 0 0 
0 0 0 0 0 0 0 0 0 0 
0 0 0 0 0 0 0 0 0 0 
0 0 0 0 0 0 0 0 0 0 
0 0 0 0 0 0 0 0 0 0 
5.731988003618685e-08 -3.456710421249453e-09 3.766137268226275e-08 -9.341408143273525e-09 2.223574197144238e-07 -5.197003396307072e-09 2.45687270431527e-07 -3.87648367953265e-09 -9.503505311465416e-09 6.59284800234073e-06 
4.659611207063134e-10 6.281350356172666e-08 7.052246222229633e-08 -6.334235063254652e-09 1.704262805802518e-06 -4.674226172464025e-07 5.412852766178666e-06 -5.593039792592877e-09 -5.920239107286627e-09 3.217133852245919e-07 
-1.903765346007005e-09 5.038809063916143e-08 5.492219894790321e-08 -4.696381769736122e-09 1.354579027972505e-06 -3.737316879884746e-07 4.320524420642106e-06 -4.320472198575136e-09 -4.358747103246279e-09 -4.472900423929835e-09 
-6.019084737498954e-05 -3.51305101095157e-08 -0.0001860111688618262 -7.609928669401237e-05 1.001197087823553e-06 -2.59139826913061e-05 0.000678535497874009 -2.564748370187795e-07 -1.376483917004319e-07 -1.872063133664579e-07 
-0.0002735655140315066 -6.893674500117614e-07 -0.0006242062918099428 -0.0008495160763911773 -0.0007938470703411044 -0.0001005731512577881 0.001248928045002934 -2.530208139292662e-06 -7.874187972754707e-05 -9.67949518819599e-07 
-0.0004953795780990548 -1.959655786920632e-05 -0.001796541951648109 -0.002788664238339345 -0.003906974957427024 -9.701452142748283e-05 0.0007205210125567996 -1.168459092813227e-05 -0.0005258166308077404 -2.195784054114126e-06 
-0.0003658391969486283 -0.0001484765212014617 -0.002746800472963287 0.002882516134800749 -0.001651707932594954 0.002050000756800771 -0.00130118689875153 -1.449744264196311e-05 -0.001001812282587526 -4.150243354458098e-05 
-0.002853241522881909 -0.000431616422797051 0.0003702976680008343 0.001742393827940798 -0.002945010413599712 0.001043007774472612 0.000990735118658076 -7.011157829582615e-05 -0.001506362376612456 -0.0002213665476919144 
-0.003865201415542271 -0.0004525181125344456 0.003152426011295172 -0.005310596826107451 -0.0008197168039458572 -0.001776351165766041 -0.0001224369131245342 -0.0001301680948059001 -0.0009034200911654555 -0.001018560941158249 
0.001734222509401216 -0.001234006211326645 -0.0008144214664725461 0.002238894326726032 -0.001186828813605796 -0.002216562932491055 -0.0005750195809563503 -8.937004804129183e-05 -0.001189909183659253 -0.002234929929356825 
-0.002179465498904056 -0.0004155556291201412 7.240984874315283e-05 -0.0003136718428984851 -0.004539038601517734 -0.001798783561484948 -0.0001607360572797913 -1.690849634325657e-05 -0.001032472590812734 -0.00297981136319632 
0.003538110737381537 -0.001155729888962151 0.001355279368938078 0.003946609147783693 -0.009719369655123027 -0.002831976954242968 0.0009463196259885548 -5.527624982057488e-05 -0.001128319954957375 -0.003385219177941545 
-0.0005331121415369837 -0.001566047305948927 -0.002361947228831189 -0.003612760870957201 -0.006175413849792815 0.0009242190912521499 0.0007776793144529832 -4.684405957433886e-05 -0.002741798125869236 -0.005019047694953615 
-0.001995083458393191 -0.001434932120895688 0.001168149542821357 0.001705843149835227 3.243500874302492e-05 -0.001744607639325088 -0.001084204907315727 -6.19585788589507e-05 -0.0004334482676837533 -0.005369348776335875 
-0.001528648011853942 -0.001150107153354225 -0.002879019016947689 0.00283400247133022 0.0008428202876939456 -0.001279656805387018 0.0006286845828935845 -3.922799426736282e-06 -0.0003572786322244997 -0.003916007865928489 
6.757570131348144e-05 -0.0004677733906698122 2.312115767802856e-06 -0.002472849942542935 -0.00119930103967875 0.0002884942924295155 -0.0002899178111716958 4.59085363329677e-06 -0.002602117373330037 -0.003769114940804486 
-0.003777683503700099 -0.0002696766177207127 0.0001778974364031254 0.0007962607191235162 -0.005630226297131191 0.0005030942354413366 -4.888401734670953e-05 -2.483340104746797e-06 -0.001582682963923744 -0.001729841513773793 
-0.002487290526580878 -5.499829430362968e-05 -0.001785511868640188 0.003895087780336998 -0.002034328778795744 -0.001888197188071356 0.001814519560787172 -7.491092462006604e-06 -0.001780959455064102 -0.001201518193451931 
0.0008052958580243949 -0.0007001621557589867 0.001039476257578205 0.0001334928527626768 0.0003825426432761246 0.001614840276178202 -0.0004291517998960927 4.309558827890679e-06 -0.000764346714954874 -0.001721302826983289 
-0.001321462958490753 -0.0008584823291136332 -0.0009636833307547373 -0.001053322008666094 -0.002270782562698102 0.001773721866966103 -0.0004984789917574304 1.232556692492164e-06 -0.0009694434060636586 -0.002290819443248079 
-0.001503245897429926 -0.0002318542185960692 0.0003533528060559022 -0.001303266890940487 0.001461396015403729 -0.004124593302354117 -0.001107083378000054 -2.003637520964667e-06 -0.0006951438868224145 -0.0002238111594240743 
-0.00073098561521153 -0.0005767621466725737 -0.0003591344248421146 -0.001605861586967484 -0.0006007576754296601 -0.004317893866633555 0.002629139935190911 -3.535249066595213e-06 0.0005010484425189251 -6.921472393353492e-05 
-3.514982106914657e-05 -0.0002345326735684188 -3.405438898977394e-05 -8.933485644304227e-07 -0.002957859183779271 -0.001343041303556256 0.002428714819202566 -2.917627827575841e-07 5.485156555015763e-06 -2.89050759578258e-06 
-8.494856340342979e-08 -2.555477811174581e-06 -4.054239922940056e-06 -3.830837536418971e-07 -0.000192686888082662 -0.0002873830905108027 0.0002329638684543211 2.971178270589068e-08 -1.073082085580004e-07 -5.386512183945678e-08 
0 0 0 0 0 0 0 0 0 0 
0 0 0 0 0 0 0 0 0 0 
0 0 0 0 0 0 0 0 0 0 
0 0 0 0 0 0 0 0 0 0 
3.894625962072694e-08 8.305748826314235e-11 1.706237323897019e-09 -3.483288133446271e-10 2.535896685240027e-09 -8.877987009559185e-10 2.003318575933808e-05 -1.468737915252943e-11 -8.940617466599468e-10 -4.389328517621056e-10 
-5.074977569752867e-06 -4.495708888683144e-07 2.04621043288076e-07 3.080475058156295e-06 8.281497209530906e-07 -0.0001674086411166959 5.550561653304309e-06 3.85070863912747e-07 -4.537163303319241e-07 -9.900653273508906e-08 
-0.0003814680683531813 -1.826326392689686e-06 -6.717635757371952e-05 0.0003209675150466839 -0.0009315412772097553 -0.0002880377657528483 -0.0001018650509301468 1.833247120222489e-07 -1.995909580563833e-06 -5.097202587677514e-07 
-0.0001496391402719754 -3.034945721152074e-06 -0.000520639223513499 0.0005275599576374121 0.0001665314189629704 -3.48774042287143e-05 0.001656908066969166 -2.346242114457121e-05 -0.0002016863804763071 -9.946626808193849e-07 
-0.0006644306720842123 -3.393066383023898e-05 0.001732925609154227 -0.001457438876212974 -0.00193020998922737 0.0003534871313179328 0.001139168148740312 -9.825304762290254e-05 3.459544957419385e-05 -7.969171612208388e-06 
-0.00144774317180459 -0.0002596192864381347 0.00198204789387896 0.001699899746900267 -0.005367097614007392 -0.002502739670231921 0.0003973788660022915 -0.0006608888544175547 0.000626348186504057 -0.001835770638705987 
-0.0005779929571422327 -0.0009730438293757287 0.001977243441235778 -0.002449970235161532 -0.001972055600344674 -0.0009965678708035361 -0.001743530650559168 -0.0006857627032001228 0.001358433321345595 -0.001917218900126512 
0.003381849330759035 -0.001090975621098895 -6.60179896748436e-05 0.0009835040498927276 -0.005023270868826977 -0.0003494913330575898 -0.002002694659027579 -0.0007071763241201338 0.0003029375615121209 -0.0006750856016392562 
-0.002326897426402701 -0.0003921164563542359 0.0002345391237377675 0.000220898674846074 -0.001548099782483331 0.001815319213518875 0.001092650397808054 -0.001538745330672801 -0.001127118739415768 -0.0001515839854240931 
0.00160534220459498 -0.001613381267741231 0.001572914700479844 -0.0004857743338271446 0.001287086304049779 -0.00262638362441415 -0.002406997495763885 -0.0006646018746932186 0.0008036908196369934 -0.0004203221689594056 
0.0006381224760234636 -0.0006366303508297071 -0.000924319379283008 0.001251711298818135 0.001551890767663358 0.0007311909276470374 -0.000985958923938059 -0.0009428209708231791 -0.001129613051356095 -0.001113995437349769 
-0.003454414982846984 6.183185472860545e-06 -0.001345323475648651 -0.0006662616022522172 -0.002262632315310108 0.0004113588650078967 0.0001399973031060637 -0.001091401175236574 -0.0005342042097777643 0.001484890667981585 
-0.001832228625561844 0.0003541152591594577 0.002051170047623875 -0.0001090428139373498 0.003188268887633617 -0.0005460277523562447 -0.001139361400371462 -0.001917414298143928 4.204316198929069e-05 -0.0003634322110954536 
0.003058505204821765 -0.001076226183309676 0.0003900445114619272 8.827004429952978e-05 -0.002965458862660807 0.0009344622005468061 -0.0001453580683352055 -0.00161895622641501 -0.0002716887092757415 -0.0006756437631067959 
-0.004647568398641457 -0.00012888957307728 0.0007732421973464811 0.00109793787874733 -0.002365311012229001 -0.0009722375186316376 0.0002454088425765499 -0.001276603875456923 -0.0002319201153556563 -0.0008755967954197934 
0.002861340912682093 -0.001501697575705814 -0.000372672934188548 -0.001304819211793172 -0.0001523169398891866 -0.0008624533093237081 0.0009592021625780383 -0.001500970369858502 6.633914841891812e-05 -0.001072360911111581 
0.0001102254867527108 -0.001565097611362511 -4.513180627559044e-05 -1.555109960587819e-05 0.001115169638432147 0.000221554478520758 -0.001261558210343094 -0.0005972163648092243 -0.001555167205955059 -0.0004510372073463998 
-0.0006920753681164008 -0.0005658016881276869 0.000245186674841094 -0.0001504642625002721 0.003256489048528972 0.000781110402651718 -0.0008702745644225419 -0.0004783739506248468 0.0002206843999153417 -0.001705042162328591 
-0.0008079676456044673 -0.001877436980501665 -0.0004948494506936459 0.0003665748030578882 -0.003306337441975817 -0.001404840332884678 -0.0003928910698705439 -0.000365656953190745 -0.001222823242018995 0.0001863546142112464 
0.0007017513000323694 -0.000736690341828634 1.901229974166047e-05 -0.001303549851179469 -0.0001753596977692219 0.00145016517499894 0.001208059660451427 -2.867966435810517e-05 0.0001874872733421287 -0.0005043490712954204 
-0.001582706781986743 0.0007405983833434492 -0.001243460045800241 0.002210734740142178 0.003000720356828936 -0.0006777745062203161 8.416482109064562e-05 -1.519368352864989e-05 -0.0003820374724015895 -0.0002858155764647797 
-0.001102127293644414 -0.0001877017195662043 -0.0006792018405070193 -0.004601243004146091 0.0009253546414378467 -0.0008029690059888691 -0.0003735367317689104 -6.172345232043621e-05 -0.0007080577812168942 -0.0001449124402103796 
0.0001755704133722736 1.837190285146779e-05 -0.002956263873407481 -6.896433962759418e-05 0.000956645488309693 0.005716083908025657 -0.003263730305615122 -0.0001506770267589853 0.001731258613728783 -6.691947462499804e-05 
-8.258402547837777e-05 -7.272931790938266e-05 -0.0001781491974304544 -3.916997446359835e-06 -0.002102989115448266 -0.003562725377911687 0.0002276625243440026 -2.288069256536648e-05 0.002020922475572598 -6.305631549785883e-06 
-3.391850117002187e-05 -8.308463760886117e-05 -0.0002445371452468579 -1.648312315046749e-07 -0.0002730356443550842 -0.001097093387309309 0.0005772061227649553 3.216489098123144e-07 -0.0002549989127334806 -4.892132863926012e-08 
-5.139196191227605e-06 -8.298754091367229e-05 -0.0002445943878303002 -8.405663009469307e-08 -6.496749062690647e-07 -0.001372076653443205 0.0005769730611843604 3.471078198499029e-09 -0.0002561234122031763 -3.05767949742722e-08 
0 0 0 0 0 0 0 0 0 0 
0 0 0 0 0 0 0 0 0 0 
-1.068971862983694e-06 -8.171131269306353e-07 1.52951557226389e-07 4.645830337906203e-06 -0.0001152946786059682 -7.574677895948835e-05 7.272750111157705e-05 4.537780903586756e-07 -6.549455902350439e-07 -4.839412396876688e-08 
-1.643107955000182e-05 -1.901096403673218e-06 7.556224772384853e-05 -2.41791834556569e-05 -0.0003175038954872292 -0.0002232234137645176 -1.770655728210403e-05 1.39055276517881e-06 -2.209543816886915e-06 -4.725939422592629e-07 
-1.687707788062479e-05 1.162358711724327e-06 0.0001073342902174425 -8.328956540810698e-05 0.000718005664807999 -0.003786053969972444 -0.001549423245299966 -0.0003991552047405203 -0.0002039786467512564 -9.246476975483442e-05 
-0.0002871404737383574 -2.191593704672043e-06 -0.0004592413308957752 0.003415754008569943 0.002573814987622967 -0.003148460595798628 -4.729058698134462e-05 -0.0004459036146356211 -0.001034576316204788 -0.00147620450856839 
-0.0007740104134045841 -0.0001490773825790217 0.0009059859222545142 0.0004757892302961257 0.001318800567121747 -0.000666833069957721 -0.0006826074933668497 -0.0004095524589574702 0.002912142114042521 -0.004505869733889435 
-0.002174862774982661 -0.000432401894679537 -0.0002268734915964241 -0.0001141290332941322 0.001588021127345418 0.000459094997204277 -0.001523737959438868 -0.001144930530699136 -0.001381573489448817 -0.00527090888224338 
-0.003235697218314473 -0.0003459397879540973 -0.001225726568640205 0.002055819319268026 -0.002963816510157148 -0.001126644078734406 0.001989146968623869 -0.001440252610145356 3.378850960490611e-05 -0.004087356083692671 
0.0003596154596534692 -0.0006528933070017251 -0.0002813192250075873 -0.0006302527362236665 -8.218042421166326e-05 -0.0004570345831435561 -0.003027556189175391 0.0003746002953597944 -0.001721525930808523 -0.002078896905779967 
-0.002669581437108152 -0.001227279214433752 -0.0003494067026778625 0.0009447973160732032 0.000129899518754116 0.0003309160443564349 0.001961515976286854 0.0009566128807055133 0.0003194895036882353 -0.001706892015887693 
5.42977534062893e-05 -0.0004751212152452977 -0.0002042351387267473 -0.00151358388237798 -0.002822686444403997 0.0006356800720714314 -0.003001800777672727 0.0005846797516950725 -0.0001031970583875689 0.001009793004450214 
-0.0005703641149884814 -0.000775107258845918 -0.000609250666083096 0.001758192083702406 0.001118669422385384 -0.0005243967371372736 0.001359374548372125 -0.001245873204036736 0.0006581372517980359 -0.001502737843785221 
0.00186172973625852 -0.001387040098732401 0.000739204782221621 -0.0007570692149846948 0.0008600592704545001 -0.0007168561671334854 -0.0006353176960807566 -0.0006008050915769379 -0.0002197439441623744 3.246719185855611e-05 
0.0009407871859193158 -0.000672492414493564 0.0003734510489187133 -0.000374411272226074 -0.004463577947783698 0.0005158793946390675 -0.0001182568383274749 0.001145586607168537 0.0004871826060090377 -0.001332599865821116 
0.001462731931359252 -0.0001432357441398171 -0.0007492170457938708 -0.0008969967952382717 0.0009121204280913179 -0.0009635061338591933 -0.000661273380728246 -0.001284321471620161 0.0007434702951928857 0.0003333802683523287 
0.001796259156290267 -0.0006287296172902168 0.0004531098675842679 0.000192353879719327 0.001741555191771345 7.298734927624757e-05 -0.0009316873648579169 -0.000506185224184777 -0.0005565184112460432 -0.001575545591422648 
-0.001323314462137022 -0.0006175934709187864 -0.001293728249018272 -0.001125222529685057 -0.002595944214387074 0.001158890152213925 -0.0006753816737132959 -0.002469781609420514 0.0003300729287723717 -0.000669890937692533 
0.0004331718826414049 -0.0005979461848582684 0.001065366154713115 0.0006308651799671579 -0.0006711225482274483 0.0005019226703713482 0.001511221127225603 -0.003163505764029355 0.000744416638053052 -0.0001250174056615228 
-0.00105389366081607 0.001166806758656289 -0.001842454098678745 -0.0002287445706655985 0.0008653662954470505 -0.000984894606469566 0.0002482037742461183 -0.00325645693683086 -0.0002848865800612117 -0.002362212590448214 
0.001027317612006224 0.0003689571857115983 -0.0007979535618379877 -0.001607099312404354 -0.0004943872030826992 0.00163793861793578 0.00148849041062395 -0.003178566507652046 0.0005368444304101027 -0.001979903753539858 
-0.001359132662203652 0.0007618316256659096 -0.0005276880107801484 -0.003839840246591274 -0.0006816834013656503 -0.0009772946398514185 0.001070230937084902 -0.002240389245656447 -0.001126622573744998 -0.002257633859918532 
0.001301795891363323 0.0004104147937171728 -0.001571320794298294 0.002187920245936088 0.002190605936779025 0.00105452700619074 -0.001446077110685677 -0.001778915092378761 0.001587834308613191 -0.00249450460337414 
-0.003456563837517925 0.0001633357670846062 -0.000809748269965491 -0.007516777789218531 0.0003272933888905754 0.001329679812122358 0.001443734731822505 -0.0009914636497999956 -0.00142040007155028 -0.0008792403321805951 
-0.003313952314131778 -7.863895436635839e-05 -0.002724075843353878 -0.0003073375660847613 -0.0007619613222080618 -0.001875895359509265 0.0005342983321282927 -0.0003537555455268233 -0.00087941416718937 -0.0003365391606112817 
-0.0004942857928873922 -0.0004643657079449944 -0.0009607133640992964 -3.782372723190993e-05 -0.0007557959871179117 0.002890757036803472 0.001086162708963938 -0.0001916393589305974 0.0006350643817842459 -7.433118700299241e-05 
-2.645900935020754e-05 -0.0003723788325450709 -0.0008471168430274617 -1.311649702269834e-06 0.001164904401667899 0.0003082725809485328 0.001739868506245506 -6.454784644983828e-05 -0.001020540750585902 -6.740044922101431e-06 
-7.586432472764556e-06 -0.0001225054175392305 -0.0003610679058447288 -1.240835968064517e-07 -9.590439092543337e-07 -0.002025446488416159 0.0008517221379388178 5.123972578736668e-09 -0.0003780869418237364 -4.513717353344943e-08 
0 0 0 0 0 0 0 0 0 0 
0 0 0 0 0 0 0 0 0 0 
3.933263926570701e-09 -8.822062000971367e-08 -6.682657269971534e-09 5.10073265516507e-07 -1.14499663149303e-07 -8.361653809602697e-06 6.629656601255675e-09 4.516820782141495e-08 -7.067172086640302e-08 -4.777695662598054e-09 
5.336392305609692e-07 1.778922808470264e-06 0.0003479800152690252 0.007540967471198782 -0.002182468800813925 -0.0004467339968153138 -0.0002911450754775737 0.000101365677382314 -2.04421923889252e-06 -4.0769600940921e-06 
-0.0003174606080657324 0.000279141022118674 -0.0003981502456843957 -0.002628883363713795 0.001774843142242953 0.001435845652880733 -0.001130598863955325 -0.0008130326700846282 -0.001798130021337998 -0.001663696477914275 
-0.0008632266168721898 -0.0001965197864577802 -0.00155860968743499 0.0002907148672489445 -0.001238224040505315 0.002352568965051432 0.0003129803741865453 0.0004457923788883827 -0.0001253516584495629 -0.001580089790873586 
-0.0005731527855042326 -0.0002687929984313406 0.002995415187363827 -9.568459283213767e-05 -0.002596521843960269 0.000171587810409717 -0.001817832945738388 -9.559728374387987e-05 -0.001145836294382683 -0.004624186584811454 
-0.0002643995537775182 -0.0003453123308780514 -0.002612171911864402 -0.0005533262788600344 0.0008798832748066656 4.494007089598942e-05 -0.0004971948910391783 -0.001080104047587003 -0.0009855818894386463 -0.009342644128649611 
0.003066954892489962 -0.0005084633725180443 0.0009710279165885524 -0.0007875480603769102 -0.0003475669217587792 -0.0004849917561532297 -0.0004158172534152512 0.000639509297969782 0.001264029114073589 0.001136254943594874 
0.00016132029493841 -0.001039778419822993 0.001177087962055682 0.000848155537303103 -0.001700123424782341 0.0007623861786258359 0.001227084763148824 -0.0008335438054179088 -0.0004150612324480805 -0.001304544639335309 
-0.0008060811949342964 -0.0001243234832500218 -0.000709738110461226 -0.000342543332649499 0.00141584827219423 -0.002017617223954998 -0.001504269253594329 1.950495618808896e-05 -0.0006138579926483743 0.001451546656077743 
0.0002861992457969077 0.0005176809064115517 0.001161283747829333 0.001418114561117535 -0.001568421125938174 0.0009490536728622868 -0.0009584854308234355 0.0007217894722275245 -0.0002940371410134483 -0.0002523177283089853 
-0.001419230930438226 -0.0003844794332123527 0.001150609603188322 -0.0009134277960804161 0.000360984645845252 -0.0007007804059679923 -0.0007392798344493081 0.0005549200173896388 -0.0003954288223545654 0.00109331187317766 
0.003542368678054528 -0.0004974225382966228 -0.0005496445803239232 0.001346337336369945 -0.002296523660038106 -0.0005292551368019043 -0.0005986013041860016 0.0001881370437672774 0.0004532094550727336 0.000596801325466366 
0.0004594302297222486 0.0002447128054699611 -0.0001146030653222272 -7.06534752969617e-05 -0.0006440173720443258 0.0009051505357441465 -0.00113676987830572 0.0006775071572295382 -0.001450303973612851 0.001245198014611097 
-0.002766317411240587 -0.0006736563182639999 0.0003931646695609792 0.0002605402634805778 -0.002872327165584537 0.0001492217335882448 0.0007330892446337294 -0.001003823844872955 0.0003537388676620936 -0.0002470145132660753 
0.002688853849177149 0.0006583060981122737 0.0007016012933509495 0.0003036294836696655 -0.001567766339355517 0.0001836640949937188 -0.002633767533337079 -0.0007176550364203751 0.0005263831653006924 0.002155873806345349 
-0.0009755116173150039 -0.001191766966324141 0.0009435899963165858 0.000143579059265261 0.002085541038824492 -0.00148377746868418 -0.0002879061967783849 -0.0001488808346825743 0.0002551401084781753 0.0004941781951484591 
-0.0007602377666476308 7.375095268683494e-05 0.0003389119137828031 0.0003265671627967711 -0.001713875418750635 -0.0001428392754688672 -0.0005335421442696865 -0.0001791321567988182 -0.0007837668230078677 0.001346280141873397 
0.002277420358240146 6.703927813753741e-05 0.001102522528204354 -0.0009160382223869457 -0.001352697607162044 0.0004109276098542875 -0.0006353834516433979 0.0002115032576739925 -0.0002848856923158686 -0.0001422295153674677 
-0.001035677148672406 -0.001037951988866908 0.00162439678114674 -6.049509038662881e-05 0.001329519096222248 0.0004482996273637463 -0.0009123323279907591 0.0006966315951731428 -0.0008260370735579568 0.001867222756032332 
0.001393400273817537 -0.0001490545590380173 -0.001044308713798751 0.001800791941895989 -0.002791907128811052 -0.0003129453818998346 -0.002111200112131355 -0.0009196869105026695 0.0004149259632129233 0.0002279396632042226 
0.0004067483621928019 -0.001226940578366413 -0.001174929125472219 0.0005216455838991515 -0.001788130866316303 0.001421620900338872 8.194626696688349e-06 -4.86356596979828e-05 -0.001699895249284402 -0.002226839221602992 
0.002476382617978379 -0.001304009255604182 0.001376629315831855 -0.002640865350857044 0.001525464214303782 0.0006302856875750114 0.0009866770619306486 -0.001792226527400092 -0.0003091051516871259 -0.007506406302100373 
-0.004533675725514695 -0.001177239662261523 -0.00286175843985236 -0.002786009838642664 -0.001109918585133632 0.003103565076704951 -0.0005330782361599444 -0.0008774778564599528 -0.0007582434293548794 -0.00185455459607619 
-0.001441714741189642 -0.0003567904437953514 -0.0009796673154359584 -8.011760549066407e-06 -0.0003573100482094021 -0.002961483974792683 -0.0005721152262904124 -0.0002916534080055379 -8.394093639071696e-05 -0.0004985380326270625 
-0.0002648701229993204 -0.0001104416605354097 -0.000240157857605057 -5.306191075914755e-07 -0.001659789993491493 0.002586962914192333 -0.001379593998008285 -0.0002462518385779848 -0.001191563556111405 -7.533305919018049e-05 
-1.463352887564472e-07 3.794427665196143e-08 -3.735435842445339e-09 -3.905992900240302e-09 -7.132250663490386e-09 1.370730963017157e-06 -3.652241820535221e-09 1.250453787682686e-08 -4.407751661099355e-05 -4.543119726017821e-10 
-7.694925879608238e-09 -7.650766859794021e-09 -1.077306956022658e-08 7.316117936732975e-09 -4.457316329462405e-08 -7.668116127217467e-09 -1.008744266027446e-08 8.597555317518322e-08 -1.522503987479554e-08 -1.514893537289207e-07 
-3.143531025656891e-08 -3.125826053451444e-08 -4.48029293866641e-08 -4.004982288958857e-08 -1.818278594368072e-07 -3.141583163150449e-08 -4.120961510200352e-08 3.524802260670902e-07 -6.226287018333393e-08 -6.258299457503041e-07 
3.264782732479669e-08 -2.001549766558048e-06 -0.0006217762600201096 -0.00150560298431861 4.35181598631774e-06 -1.071100858328602e-05 -7.288127407747889e-07 9.237762664196975e-05 -5.290916192171443e-05 -0.0001099031566630743 
-1.912739792742747e-05 6.767323109731995e-06 -0.001211606300901851 2.367341559557357e-05 -0.001774700808043935 -0.001207348221043002 -0.0002838491794645049 0.001698611452796985 0.0001711620438403861 -0.0001929692954887043 
-0.0007197490486803877 -2.463083799273122e-05 -0.001025357375419535 0.001230556338036418 -0.001281976337911213 -0.001779091316367244 -0.0004996394440117245 0.0004877893175750099 0.001093039720818574 -0.001166195346942652 
-0.001188743805732555 -0.0003664373574916598 -0.0002533939695253293 0.0003183292277632987 4.089442253884168e-05 0.001047795430702949 0.0003778027734362953 0.0004715085529634381 -0.002392486122772465 -0.002976945937574127 
-0.0003848227145920869 0.0001325288763125353 0.001837129846277594 -0.0001177985292002644 0.002019363810967257 -0.001590214491174123 -0.0003705730265236569 0.001620066563178215 0.001471797949478117 -0.006787275361490832 
-0.003204184679580173 -0.0006174810780680425 0.002289432893853927 -0.0006367000501739082 0.0009820070981296236 -0.0006807246842291895 -0.0008215459150755579 -0.0007885158616087581 -0.0008993650895891371 0.003138743411970342 
-0.0020311814392266 -0.002019146275604885 0.001251046184544803 0.002567851821118954 -0.0008987049831253847 0.001149004306626207 -0.0006417272056200424 0.0006999045901296477 -0.0003062834503111898 -0.001838361560216835 
0.001286026500256482 -0.001442618760133257 -0.001627437657037511 -0.0008097027371999113 0.0003965039458202708 -0.001094334195870664 0.0004382053303130391 0.001304919609474016 0.0007491217473841162 -0.001114961686116997 
-0.001339846379612245 -0.0003127145226802575 -0.0006970125527243455 -0.0001689629954801485 -0.0005681816945698224 0.0007082139644946915 0.001790119145231165 0.0007681360199513858 0.0001520947087203522 -0.0006160512723502107 
0.002437218757752381 1.035231429144361e-05 0.0002108425883515622 -2.806363296581902e-05 -0.0004843799333773601 0.0003122641799327993 0.000147051667476395 -0.0007315203264159016 0.0001004164012773522 4.215700479003681e-05 
-0.00103701553284486 0.001164935839133212 -0.001599383151140696 -0.000944756003515657 -0.002363087339005486 0.0004675199021619372 -0.002274214176881045 -2.626954543245551e-05 0.0005494668526284332 -2.220369842984807e-05 
-0.001065255045047352 -1.262953406601766e-05 0.002332168552788031 -0.0001593792726603827 0.0008155681152944745 -0.0002414081608160121 -0.001172001941988656 -0.0005786401623158511 -0.0005662202731381029 0.001119566277001385 
0.001202275101674086 -0.0003452941244920311 -0.0002092637495349794 0.0008790009619689687 -0.002612536533863966 0.0001288439594107556 0.0007732977980639046 0.0001145505902122894 0.001645831524866409 0.0005046107792590732 
0.002554494041473937 -0.0008204552294278962 0.0005947516009604583 -3.587806833439287e-05 0.001392235389465197 -0.001173633650730786 0.0001505630386020655 -0.001146797097411127 -0.0009926680184617663 0.001317612186655995 
-0.001029364365865111 -0.0009556009141177015 0.0008959457350699539 -0.0005591567124638091 -0.004008992811935708 -0.0003830120736798514 -0.0009289342865055247 0.001845369331417803 0.0002600077252605136 -0.0002750052075200578 
0.002249868150083351 -0.0009785234467746314 -0.001124722134324481 0.000358603408347052 -0.0005018241402969153 0.0005900170483156687 -0.0008395117900950692 -0.0004724334882247981 -0.0002287436792477751 2.104772098093701e-05 
0.0009899792523159886 0.001579045512334588 -0.0005709743594884758 -0.0007786409511423482 -0.003402867707948984 0.0009470511841274238 -0.0009151581833957403 0.0003344403110861163 0.000242795685792389 -0.000747167341384123 
0.001845547216485287 -0.0009335740267160371 -0.001568753455925628 0.0004172785906007411 0.000612091203776125 -0.0001612195842848184 -0.001610813369710765 -0.0002082532018323111 -6.796984939033137e-05 4.432311878643195e-05 
-0.003552673761640313 -0.0004153940121859698 -0.001561269610330396 -0.0001531277929994254 0.0007121522904120071 -7.046417335580194e-05 -0.001657452627064646 0.001076919132944248 0.0009593501180591045 -0.001306400149545097 
0.001964144521442059 0.001370321908049562 0.0001742113214265249 -1.419080275533437e-05 0.001823149123069035 -2.11434519006209e-05 0.001548563288772271 0.0004562967187508759 2.42046282478782e-06 -2.136554252665454e-05 
-0.002232402423099696 -0.0005461059371489349 0.003692293859917392 -0.003279040016672873 -0.0002214170828236928 -0.0001946891323331948 -0.0009068007592552027 0.0003623299045373321 0.000591080531141188 -0.0003015047696639985 
0.004358077581731544 -0.000311089707111271 -0.007700664731915024 0.0006605543701403046 0.001035948386519828 0.0007182221635327691 0.001210040602965681 -0.0009610402564489214 0.001041974482855654 0.001099072265958885 
-0.001624500154935798 -0.0009569372969457832 0.0009259351991900931 -0.005037425470344387 -0.004736060054280478 -0.0003042969554927642 0.00127932621209975 -0.002224143667459538 -0.0005628284629349372 -0.001770166041088199 
-0.003183732004907553 -0.0003483676181652944 0.003654552995199894 -0.000107448543473786 -0.002957554340750939 0.004073726285758124 -0.002544683805781538 -0.0005587929633239646 -0.00188534000588595 -0.005047290799856207 
-0.0007401993399594162 -8.680801161803996e-05 -0.001035921137009481 -1.585728378870161e-06 0.005805381461659574 -0.004539808826828274 0.0009024471335488246 -5.327390158949764e-05 9.490551826620263e-05 -0.0004817828296799243 
-9.081710478491818e-07 -0.0002160002968470123 -9.831218241075416e-08 -1.003155767682311e-07 -1.288844251768878e-05 0.0001494628892902757 -6.305000875310183e-06 4.16457965748138e-07 -0.0004043044113546105 -5.935224862719461e-08 
-3.127086900011008e-08 -3.1091414260014e-08 -4.377992097879317e-08 2.973145799821267e-08 -1.811377487079403e-07 -3.116191872975609e-08 -4.099364995983878e-08 3.493900139672339e-07 -6.187197055502015e-08 -6.156269481324225e-07 
8.273524334263422e-08 -5.011993808227286e-08 -7.998621335784661e-08 -1.233590583606665e-05 -2.825176180175363e-07 -6.259304321844536e-08 -6.655351517331249e-08 6.014855646188179e-07 -1.014058030355377e-07 -1.03582783858356e-06 
-2.861400633343945e-06 -1.047744676455716e-05 -0.002669312477963207 -0.003222994469063813 1.381735331353576e-05 -4.446484452270455e-05 -2.746790912241931e-06 -1.73200127094451e-05 -0.0004782501100030021 -0.0003732341239615808 
-1.761989042997857e-05 8.810926771701945e-06 -0.002408812530416132 0.000435862570061915 -0.0004791706074272601 -0.001744045731384246 -6.517285524802259e-05 0.001286622116230226 0.001569598989993658 -0.0008127994454331062 
-0.001285623454374603 -0.0004122852542343186 -0.001028551062901997 -0.00109453364252165 1.648353914891931e-05 0.0009435755541759229 -0.0004886455792029414 0.001273551665113297 -0.002381793690218865 0.001360837978222653 
-0.002478916903917709 -0.0007027331103940278 -0.0001723166291321598 -0.001120188866641954 0.001392168417499163 -0.0002301295825349033 -0.001089928125886031 -0.0004600533448290441 0.0003090605841519047 0.001827534739916592 
-9.416377908997434e-05 -0.000427122513827704 -0.002764116310240502 0.002704788939082207 -0.002659982205065702 -0.002345013778517932 -3.392245028518773e-05 0.00231012413458747 -0.0004076769365473367 0.001745207437898108 
0.0003841309804785775 2.65974227655442e-06 -0.002575507093776291 0.0002874452777176813 0.002856847982109987 -0.000159215860658042 -0.0008143973366148275 -0.0004958062683752075 0.00126513122441796 -0.002281534141075695 
0.0003145085328213879 -0.0009528846117585754 0.0007065772366322919 -0.00166261245542422 -0.0009574866123368804 0.0009575803144634117 -0.001806168149077245 0.0005624794472335528 -0.0004529328016632499 0.0006827951354519342 
0.001833214735857315 -0.001180028269628718 -0.0006839819432772744 0.0001805744325764419 -0.001148645725402451 -0.0001298379172309919 -0.001313518435436174 -0.001983843067073773 -0.0008733851279530901 0.0009186789789591191 
0.0001559288258951074 0.0001068996212351489 0.002482457601630606 -0.0003370686604552544 -0.00141340073417705 0.0002813472119477646 -0.001568720722776373 0.000841804442913179 0.000474486629576877 -0.002052456794125414 
-0.0017352045504938 -0.001702929659223413 -0.002735357547840979 -0.0005574329160349763 -0.0005247230391306976 -0.0002649720456262724 0.0007461504922833592 0.002444752918457708 -0.0003204668611719395 0.000727240070855083 
0.002748838497116922 -0.001551445097617579 0.0008383108370095299 0.002006168657158849 0.00145441489019395 -0.0008059429980942499 -8.188616901222123e-05 0.00107425439583341 -0.0002180116941825215 0.0001270204464526158 
0.0006135782269764071 0.0009417950790962342 -0.001561052347936796 -0.001232525295640374 1.016224667524578e-05 0.0002867364845158774 -0.0003042423514153663 0.001115089545179424 0.0003911547639197808 -0.0004518891146004482 
0.00200716675934422 0.0004663832057212498 0.0001313582890147837 0.0002928156847571885 -0.002458265757723827 -0.0003216915486629405 -0.001759556324520707 -0.000621302688114703 -0.001308644265375867 0.00058868671532829 
-0.001256399927894606 -0.00021314021566895 -0.0005968639139377428 0.0004983193491370229 -0.00138400555287049 -0.000179585628408137 -0.0005291215229168533 -0.0002239623977899353 0.0003591054305944478 0.000502868056306388 
0.0009555531875053517 -0.000370305292610047 -0.0004562878513158508 0.0006451114337965901 -0.0002146912240761263 0.0004212214728225416 0.0005260863608122152 0.0005125182798906592 -0.0001371527189687249 0.001513785292515119 
0.002443797226531526 0.0007859015187084422 0.0002560003737701716 0.0006846249717837134 -0.0005147282079829217 -0.000216673408862816 -0.00111739381566532 -0.001212304045034135 -0.0001066160610508404 0.000807352706331498 
-0.001511795042788472 -0.0006271676586045753 -0.0007261817278448895 -8.358987881307371e-05 0.001673223770104309 -0.0006455991064530625 -0.0007349966244530134 0.001700327085348168 -0.0007034544038633058 -0.0007369664896968816 
0.001689771039048979 -0.0007703551297987246 0.0006641670093127203 0.001697873766361962 -0.0008015275991934616 -0.0007652291999367439 0.0009264696541319891 0.0002599933031178785 0.0005039714969317812 0.0005135639895695452 
0.0003050909989954948 -0.001130026660995384 0.001605543995721112 -0.001812071098768317 -0.002647936344056151 0.001404540908900109 -0.001715085763149663 -0.0003423536074064099 -0.000177464250602063 0.0004100830255319041 
0.0004812577959371105 0.001196675892419742 0.002483825846887259 -7.284983833921401e-06 0.0001041006245439925 0.0004313787669415654 0.0001766250907715432 -0.0009801310110380413 -0.0008249046481909429 0.0002179017130883375 
0.0004956442410004123 0.0002632990934229227 -0.003533615212531903 0.003424639603878121 0.0006960428283221738 -0.0009114015474703489 -0.002085590338483632 0.001676828430388891 0.0003330846193437564 -0.002097446123375175 
-0.001678426000541258 -0.0001884834137478801 0.002120805712235681 -0.00400068477250881 -0.001983080890050668 0.002119816422657246 -0.003963810007332915 -0.0001268816233851937 0.000930093608076491 -0.002161396205847248 
-0.002719625109578991 -0.0001527658021684561 -0.002792185887484292 -0.0055494997692766 0.001359124917911725 0.0001633985335643171 -0.002098633957800628 -0.001434445546899041 -0.0001850541368492961 0.001626709500135119 
-0.005237657417783822 -0.0005753738392430994 -0.000453663213056395 -0.001842670476334568 -0.0005261610819261535 0.001555074227319693 -0.001040319859270375 -0.001299303776897026 -0.001108877029960275 -0.005006184957438352 
-0.000500737508542204 -0.0003881945037903197 -0.0003393484761269249 -0.000359211181122275 -0.002160330523528078 0.004023591694140241 0.0007418189980822707 -4.252740162186614e-06 0.001266263974309962 -0.0001329452154498634 
-4.612681163217541e-07 -0.000159904139259976 1.623401561011646e-07 -1.510867786549292e-07 -9.523307306898687e-06 -0.003236110401923438 -4.585988566365257e-06 3.698516601650566e-07 0.0003349163703164476 -2.451475112792587e-06 
7.829441468994059e-08 -0.0001370097856711659 1.941048264999289e-06 -3.278408902092784e-06 -0.0001984269143868067 -7.275848184709792e-07 -2.480737019692764e-07 0.0003148070568084657 -1.488390695039851e-06 -0.0004341504284061963 
8.191381032809856e-07 -8.063616295536474e-05 -0.001068255759706071 -0.000621429454511539 -0.0003085575281892808 -1.212896431550302e-06 -3.188164912397294e-07 0.0002725063282112696 -0.0003547358258309454 -0.0003757258346709463 
8.19434171186896e-06 -5.406963400755217e-06 0.0006025420797111831 -0.003413802398674721 -8.865765717529196e-06 -2.425647530922303e-05 -3.952636588359559e-06 -0.0001192913347748537 -0.0009134085231687766 -0.0001965442494469284 
-0.001165057592051296 -6.279926216482831e-06 0.001451614654782181 0.001862704498847767 -0.001092609874777942 -0.0006608128884001464 -0.0005921391096692946 0.0001773797995712529 0.0003611578602629312 0.0001252763033898607 
-0.002117619275911956 -0.0004353984493435025 0.003280322170009967 -0.002124310151484688 -0.001278292381377828 -0.0007681501343555296 -0.002064559818745294 -0.0004337755360834003 -0.002429594009734621 -0.004990883596445523 
0.002078107088390514 -0.0007568838083470043 0.0005890342991660494 0.001411124934070845 -0.001394644914714519 -0.003065098322731559 -0.002025617693736556 0.0009008606974554812 0.0007659341863475724 0.001520103342685492 
-0.001624240974976074 -0.001208153594144797 0.0009830470021694408 -0.002924055076181539 0.001557640617092873 0.001627020928443834 -7.908946057303792e-06 -0.0002290983224055764 0.002901476414465235 -0.001061609725894841 
0.003662622460097079 5.755943096531283e-05 0.0001552460906608222 0.0005389506368856093 -0.002001104652652641 -0.001384303728069106 -8.801641205398141e-05 0.001180690472463076 -0.0001929513626222976 0.000331157652015491 
-0.00408133171031588 -0.0009362375913186202 0.001406219975620251 -0.00107627895538042 0.000120087727063065 -0.0006501038248899523 0.002020650868056157 0.001881412282665909 0.001650818710050469 -0.001134764121794772 
-0.0001329620345246377 0.0003099771572194043 0.0004689813882083114 0.0003292675624991094 0.002265406334403458 -0.0005707882024563952 7.280344458014497e-05 0.0001270152699399956 0.0002935153952922116 0.0004166713343424732 
0.0002199003589567676 -0.0003400342594965598 0.001129853919785813 0.0007062016062182537 -0.000855446656708993 0.000499525160660961 -0.0007799795250612168 -0.001216996744176729 0.0009604663216041171 0.0006885147545917189 
-0.001105992699702425 -0.000163244612191171 0.001924716570208585 -0.001497190688072279 0.000136751725301817 0.0003276172894977509 0.001442218476881564 -0.0007549491515123153 -0.0001430882233038133 -0.002240145581461993 
-0.002759421255275705 -0.0002778978109421048 -0.001327436559625928 -9.42886060331998e-05 -0.002796276980794407 1.866862278427812e-05 -1.916771933686495e-05 0.001364594630819596 0.0002755837375579689 0.0006517653932241714 
-0.001655026368786912 -0.0005051649770144174 0.0008858835158759539 -0.0004108178766027164 0.0008140713801607521 -0.0004901385982842874 0.0001041552686862442 0.0002396097298499936 -0.0001930249169104299 0.0004131095020922526 
-0.0005220993557216414 -0.0003354161824727576 -0.0009545264955939883 0.0003815619660990525 -0.0005451064362734585 -0.0004685059916758564 0.000807593445450417 0.0004997641241797322 0.0005088919230065711 0.0003343212327667892 
0.005568438685781966 0.0001670614473810451 -0.0001279804224705439 -0.0006083577959106923 -0.0008200280661785517 -0.0002659057331153349 -0.001752976360968017 0.0001709163903992923 -0.0001503245217760552 0.0003712955851385053 
-0.002853810466306615 0.0002449646211723603 0.0003020831072281881 -0.0003388225023944723 0.0004369549144345999 -0.001378852800740837 -0.001531446213543128 7.305376262472938e-05 -0.0007657041484462238 -0.001739506021415915 
0.0002344328500003912 -0.001176036154483937 0.0009698320688737523 -0.0003901975415673583 -0.0008255990919215897 -0.0002976977800807192 -0.0008733248779539595 0.002455790717586325 -5.299367281241408e-05 -0.0005408085056655633 
0.002408631981897233 -0.0009527248439362317 0.0002137108794585875 0.0003088374658423941 -0.0001696122200414348 0.0005705095412011 -0.001598833129423738 -0.0004508121809753164 0.000500271362515628 0.0005260978669247905 
-0.0004690149096279741 0.0003124390877254615 -6.843701949688622e-05 0.0003180130839120501 0.0002774334109546031 0.0002376915388594919 -0.00227651639847529 0.0004487455579649358 -0.000280987973518825 -0.0009195744055690494 
0.0009020568024325063 0.0002702367017419806 -0.001881118103364901 0.001916761079733774 0.0002112026470875566 -0.0002734773029774738 -0.000687159715412167 -0.000339499652064749 8.042444217503614e-05 -0.0007709313543804584 
0.003102636750974425 -0.0005310885133946779 -0.002293073603544392 -0.000649374808398512 -0.001404694498960122 0.0001290068812802962 -0.0001012027970677128 0.0009872577543593157 0.001354226434823637 0.000444056945426535 
-0.001374856545674582 -0.000974636878949194 0.003259518197761791 -0.00231327060287239 0.0006609214869109476 0.001250907167572507 -0.0007926907878814219 -0.0005102287483381155 0.0006188450006235922 0.001623954081360425 
6.213111224193812e-05 -0.001123009653914179 -0.0006767648628044026 0.004981580133297072 -0.0006168337346358072 0.0006148342745194946 -0.0003163572770434582 8.336586876717636e-05 -0.001311239078465274 -0.00287316309157915 
-0.0008931049902264161 -0.0004799580260348539 -0.006143234077411559 -0.006945839552612965 -0.003826762978439308 0.001838693661189746 -0.002827388780129661 -0.001043603316883689 -0.0005765055181255819 0.00387914378448451 
-0.004595964454747567 -0.0005047532558303644 -0.001022841410088788 -0.001302298674516947 -0.002204461943218247 0.001418998078285626 -0.002841137881400314 -0.0003013831475510377 -0.0001270260185107288 -0.003030428854140791 
-0.001325789363927041 -0.000246392513134732 5.33129282763761e-06 -0.0002764816850467774 0.001017743996178093 -0.0003648725660041889 -0.001719096421640952 0.001119792657367102 -0.0004277593477761459 -0.001157875626359767 
2.620122339276185e-07 -0.00017264245397969 -0.0008013969765482284 -9.705253227787131e-08 -4.218540045744002e-07 -0.005273662280470516 -9.593303007685551e-05 0.002783491816127075 -0.0008801292102148292 -0.0001178284755716251 
-6.18235724697764e-08 -0.000159249790567081 4.82455530491545e-06 -4.474984644874527e-06 -0.0002309006277872578 -1.287571794818393e-06 -3.628611069055409e-07 0.0003707205639050373 -1.678204506465229e-06 -0.0005106988367784893 
-6.791558624969364e-07 3.141690818027654e-05 -0.00175305469285391 -0.000878787612002463 -0.0002720664600703805 1.653467337120798e-06 -3.694665012289112e-07 8.842109203780793e-05 -0.0005837690416827484 -0.0001105198437275549 
4.901830926117898e-05 7.712850268565584e-06 -0.0003135825966789217 -0.002225452300814412 -1.199579998622688e-05 -2.060946043970265e-05 -3.155494031653669e-06 -2.206504689688867e-05 -0.0007131435335209287 -0.0006249283877450161 
-0.002296571887806224 -9.652534199755884e-05 -0.00130871345579743 0.00139380502772874 0.0008065881104762084 -0.001675416134095181 -0.001575057049133902 0.0002846611319853484 -0.003137143347901872 -0.001008158796499061 
-0.0009673258926748128 -0.0001269441471436137 -0.00719833393909208 0.001920469788991802 0.001363656806165204 -0.001079357439098006 -0.001589083133332564 0.000486931161926287 0.002019603349399654 0.003505289246096387 
0.00254292359370408 -0.0007835343559426766 0.002286504746966362 0.0005801564965763951 0.001433377421272259 0.001452677976660382 -0.0001794326214043537 0.0005172013265011348 -1.318074122481089e-05 -0.00482130214836012 
-0.002553260626996999 -0.001295680266969921 -0.0007820972122998932 0.0009229668906640217 -0.003658249355415409 0.00158598224747952 0.0001557686881739652 0.0004696416616125207 -0.001340981783202614 0.001180570862167294 
0.001442213862916977 -0.0009512928084679097 0.001137175141621702 -0.0005089187951064026 0.0004072197607668325 0.0006785271909329273 -0.0002527793393712587 0.001037473509158094 -0.0003738727824817469 0.000217579067244523 
-0.001393074001487356 -0.0004281847529039091 -0.002691722367845682 0.002079551966625756 0.001125638816655482 0.0006457490811039608 9.305373815517517e-05 -0.001161887604589775 -0.001083728003912903 0.0007698143559670618 
-0.003286524476247502 -0.0001217751463345119 -7.683310446539602e-05 -0.0008957936740903298 -0.000282444046718704 0.001098810141580282 -0.0008828029777849226 0.001221892675368784 0.0003533222220406398 -0.0009020270288166367 
0.001284024635377178 -0.0005252959374685249 -0.001735074502209459 -0.001696910330370898 -0.00167078142397218 0.0001749662096190524 -0.0005292597535149781 0.001093426833579656 0.0002922726108464245 0.001404227824135545 
0.001736681954804315 0.0003351492499214932 0.0005767212801215765 -0.0006931790065118601 0.001484456442906434 0.0006412396959551342 -0.001302889116345274 -0.001767759386974635 2.45441218148136e-05 -0.0004571763851426253 
0.002585477077336507 0.0001302620708860771 0.00205480887242991 -0.0005563427083916687 -0.0006400567655266032 0.0003667319350658737 -0.0005542145068703781 -1.670905683340767e-05 0.0005696693264165208 1.74346407458046e-05 
-0.001156165079241009 0.001209149438432578 0.0006281836105663414 -0.0003998533222719031 -0.001066407928556317 -6.540827894703947e-05 -0.0007662006714969369 0.002335909612459315 -0.0007846348837187939 -0.0005455468623152321 
-0.002143717738914459 0.000444931875092611 0.00106275435102973 -0.0007029938939127896 -0.0022576902506265 0.0002394704524020904 -0.0008245230951087278 0.0001563770692800887 -0.0005021413284410894 0.000102300405565829 
-0.0008010658340769526 0.001971973932676264 -0.001618073885963935 0.0009126200324679204 -0.001609169563908071 0.0001104647316809972 -0.00199088882111944 0.00135305209613035 -0.001665317421663448 -0.0001214987682782488 
0.001827356012926874 -0.0007571103695429079 0.0004550276652685895 0.001420663256482612 -0.0003813560684389942 -0.0008963321110506409 0.0005353112654927126 0.001856014996493257 0.0001800970374496006 -0.0004943073248908877 
0.001125799679711253 -0.0006406707829371105 -0.0003618987569805488 -0.0001063325835632236 0.00115162685050758 -0.0009051793338334858 -0.001592790098077285 -0.0002251215858103675 0.00021525678488556 0.0001978255500970993 
0.001650875184617877 -0.0003525142286384176 -0.0004722051020969201 2.031336174958165e-05 0.0003084436866402727 -0.001250334667805323 -0.0002925784807306292 0.0005096442049724522 -0.0004404759499848618 -0.001866937968310674 
-0.003273909244414128 -0.0008015256356314156 0.0009234292006672945 0.0008109023088849999 -0.0007685265129902536 -0.001487606546835513 0.001121213517952103 -6.47648439952285e-05 0.0002007719698517565 0.0002970731185657743 
-5.238085039382159e-05 -0.0007243558704957806 -0.001097221437802442 0.0002604914462335315 0.0006604547011368422 -2.818468416541993e-05 -0.001433584111832498 0.002012923903454969 0.00048976386953875 0.0001718947465959709 
-0.001034263093678389 -0.0008204604546872768 0.0001752039292236016 0.001728496445242822 0.002979353367940203 -0.0003267679088412978 -0.0002980975980300656 0.0004316850705648467 -0.0001206087063992709 -0.002738262786062525 
0.004368564212032308 -0.0008447552379234936 -0.0005734743937625077 0.002711070635965371 -0.001648886347205448 -0.0009511440592704519 -0.0001109476314790036 0.0007885986998675225 0.001239015678666205 -0.0001395988273880898 
0.002129820838463099 -0.001283477672103953 -0.00294899714907174 -0.001842144658180987 0.002419781873200266 0.0001277323695405591 0.001028861498276387 -0.001364745848468832 0.001317956458524734 -0.002349876679952751 
-0.001981742591363392 -0.00122278196913731 -0.003221628077151819 -0.008197780587662226 -0.003074828456602903 0.006397447505384564 -0.002003297519583662 0.00109420040141629 -0.001546276520815305 -0.002664492268083775 
-0.00309988479852814 -0.0003584816298933934 -0.0001626689533008875 -0.0004696008478812016 -0.001742324234900034 0.002220609862943292 -0.003115326306714977 0.0008648276853553913 -0.00218105203979172 -0.002335254936813721 
-0.002040036530784168 -0.0003608429374137923 0.0009504649826405344 -6.801632488222994e-05 -0.006071122373310728 0.005168068178991936 -0.002351916553301366 0.000364358524879396 -0.00202633407171708 -0.0007025614234496291 
1.020599171737274e-07 -4.6517677134663e-05 -0.0002161067778913248 -1.543418276676097e-08 -1.137092606488144e-07 -0.0009935685142925044 -2.584752413500746e-05 0.0007504781542370853 -0.0001775308825374263 -3.301169869266837e-05 
-2.419886177633421e-06 -1.477519689380547e-05 1.681079484513811e-06 -1.599307883007172e-06 -2.449496940929976e-05 -2.728601889266571e-05 -3.59920878602677e-07 4.44687434664031e-05 -2.715460795076997e-06 -7.601264441298495e-05 
-4.607058776637832e-06 3.675607410231676e-06 3.286627433112422e-06 -2.628488045591047e-05 -1.047830243275821e-06 -3.143947868338464e-05 -5.505887069750183e-07 2.084764045761527e-05 -6.457565755436602e-06 -3.885225677686269e-05 
6.611714918059385e-05 1.435605535482964e-05 -0.001624261419027535 -0.0003521059551823519 -4.571642289909816e-06 -2.719911214312597e-05 -4.917101259738875e-07 0.0002535378723873711 -0.0002992803643389898 -0.002240076425636708 
-0.001882457285008694 8.915135215615192e-06 -0.001280350526330343 0.0006209393874707143 -0.0003976519731179814 -0.0007220811672887082 -0.00146216737309107 0.00156599925830703 -0.003929224212797532 -0.003504364777755851 
-0.001933213532821666 -8.90985583912042e-05 0.004368551644382086 -0.002065334429376012 -0.004404465877494072 -0.001823829018168554 -0.00283926592561713 0.0008462145091513365 0.001031523073453034 4.306280601345422e-05 
0.002267157043253968 -0.0005714483588067936 0.001428449748034433 1.310060809719089e-05 -0.00116416094266289 -0.00491608981361819 0.0008466951063588613 0.001030963656038098 -0.0004445544982920129 -0.002849764730211501 
-0.002913697119406647 -0.0007228076437619895 0.002659263564918463 0.001684560482216189 -0.0008194524476381127 -0.0004964203875662556 0.000741918033976576 -0.001712973294558615 0.0003398209552197571 0.001145800691492414 
0.002836216459291341 -0.0007271583287172979 -0.003669644704376025 0.0005431337033419124 0.0001636061712713532 6.461483323337382e-05 5.733041809074592e-05 -0.0002801095634367412 0.003492737261668983 -0.0006713823895873696 
0.0004575489924596937 -0.001185127052289021 0.002321199539226833 -0.004479878030674613 -0.003630479679095789 0.001023482964652725 -0.001044542696394084 -0.0009546114226154013 0.001634207975871411 0.001706676769443484 
0.002844086455767828 -0.0006646954138505714 -0.002459412254486422 -0.0002538139282269163 0.002710480506113647 0.0004666261360204057 -1.330314048630626e-05 -0.0003690751999448386 0.0005991789425996371 -0.000531916374808725 
-0.001901596386781732 -0.0006723454520482777 0.001194632599962268 -0.0007382657080190864 0.0004843659876193585 0.0003076294246552261 -0.0005049547389542135 -0.001150943327424997 0.0002103901433303939 0.001315321303897123 
-0.00112572822279752 0.001346610202881775 -0.003413137418659187 -0.001323202545453722 -0.002057807709084453 0.001006653813675864 0.0006464920530527673 0.001273816701550291 0.000916206274652555 0.0001752607842684841 
-0.0009502176767286436 -0.0009453822491528518 -0.004226062573331887 -0.0002083311391712887 0.002684922530071813 0.0003305217528000813 -0.0009768630790992182 -0.001861585739324522 0.0001289478086800798 -0.0001954780460242418 
0.002902077646814373 0.0001498910111320385 -0.003681432465721655 0.0008940280418006576 -0.002167207120512547 0.0001727736730033505 -5.238148103911181e-05 0.0004435973822280748 0.0005284256936042516 -0.0001375926979913449 
-9.368433759291875e-05 0.001448720985927501 -0.000655790784999388 0.001259280324185409 -0.0005666030622204864 -0.0002196593723078388 -0.0002664262116437267 0.0008215003775572957 0.0002224086054312532 -0.002706539953252747 
-0.00218763500591056 0.001112496129503361 -0.0008239609654735381 -5.36035500646338e-05 0.001400451170871685 0.0001328800018404638 -0.0002315399499769925 0.001003384319243345 -0.0001993589106141228 0.0005967260846591033 
-0.001662102078186465 0.0009447129124220013 -0.001742736319537662 -0.001177583476344535 -0.0002251604769399622 0.0003845087643134932 -0.0003636048505081427 -0.001116204205782866 -0.0007277007443830784 0.001008885843474309 
0.0007887742607120618 0.0005752404722417141 -0.0001717761103762267 0.0009884125636256628 -0.002080165011711879 0.0002350569386348346 0.0002494740284369558 0.0001302515830666249 -0.0005115526573033072 0.0003084302212215614 
-0.0008543614034908509 -0.0003765961058397233 -0.001434045352839016 -0.0001077389573806183 0.0009536412717920574 -0.0003729638896362796 -0.001606371591248909 -0.0009630618196092349 0.0003932649215753667 0.00164196720232895 
0.003741855095348839 -0.0005272695463788384 0.001814512090365968 -0.001470570283679335 0.0005630026774564396 -0.001299588253106515 0.000215873288672998 0.0001839697945577214 -1.167183356007135e-05 0.0008582206306770851 
0.001025415161164544 -0.0004804335988976784 -0.0009255988146330653 0.0007003496647465513 -0.003169567440881038 -0.003561959843810521 -0.0001960308821823656 0.0007950083712745433 -0.0006349300817031107 0.00023410739693933 
-0.001091996599740959 -0.0007053995423727624 0.00218820380013906 -0.002519230968464248 0.0006559284099909259 0.0002359016071128847 0.001236460537331939 -0.002410599393255672 -0.001095279024840643 0.003883103437562868 
-0.001532743643635692 -0.0008490594444522705 0.004131673890570248 0.001598168649413269 -0.00326939989359477 -0.001944530233977109 -0.001470431516132157 0.002104569195943823 0.0003868494606881312 -0.001777299548917047 
-0.001369384143007269 -0.0006663547653240503 -0.003292211205906618 -0.004234079392824558 0.001905108894469357 -0.002362325118149673 0.000393286518791158 0.0008121832744603674 0.0007100498508394561 -0.002932998947367307 
-0.003671585172562743 -0.0004783861512083058 0.003157188270561695 -0.001035022800112882 -0.002641421074809882 0.006499896996666052 0.0001562687178286985 -0.0008813933777310079 0.00224775603895484 -0.00732912609915744 
-0.001919028197434904 -0.0002617738091364392 -0.00149033797630725 -4.499359596552828e-05 0.003599320490144504 0.0064274332132337 -0.0001325501524066039 -0.001078170394926878 -0.001125603662303871 -0.0006698140081228526 
-0.003286933120908199 -0.000258796243831863 -0.0001989997117390025 -1.103883764817464e-05 -0.002624901105937444 -0.0004236255532209759 -0.003279013322313168 -0.0007836917931400439 0.001066939148071063 -0.0001964618035198739 
-4.593608280918224e-06 -2.035924184048667e-08 -0.003623252023107761 -6.610166414310298e-08 -6.270956186817748e-07 -3.672599460608554e-06 2.001403241637574e-05 2.375959187700436e-07 -3.324388954425436e-08 -4.811524007250305e-07 
0 0 0 0 0 0 0 0 0 0 
-0.0009833216121206113 -6.337407554917131e-10 -1.028689831298812e-07 -7.096063953537739e-07 -1.872612248162282e-05 -9.177761643809159e-06 -2.917012398857287e-07 1.580893658432288e-05 -0.0003333216056600718 -0.0001664814805255441 
-0.0006287298006267545 1.853950447574862e-05 -0.0003548311084230472 -0.0008249567343244211 -1.151439254630067e-05 2.028482134521782e-06 -4.639391472161473e-07 3.600041549876625e-05 -0.0003911302253380571 -0.0001951148142228238 
-0.001045454787681186 0.0002153108747448949 0.0004581125331917802 -0.002270971028681965 -0.002965988597771377 0.0009162279074147961 -0.001114922101678249 0.001698685224872678 -0.0006684696054118538 -0.005690564831856939 
-0.002369834315696304 -1.660542757595197e-05 0.003709981551893108 -0.003082330946579369 0.0007581119759941597 0.0008676608908949812 -0.002679435952770781 0.0006051518794770254 -0.0003070850187190892 -8.5331529473858e-05 
0.002428910054549087 -3.828831642615819e-05 -0.001974007997115857 -0.0005811623442109539 0.0009866572571961903 0.003662382756673042 -0.0008510334646109148 -0.000542108558206234 0.002596934863797541 0.005910005718352335 
-0.0007335927069027486 0.0001397911989610526 -0.002415587214867699 0.00179284344990215 0.0009839938697533022 0.001897373044891232 0.0007424021404352931 -0.0005534614240968553 0.001007465698475524 -0.0007143634171396197 
0.001756122919025798 0.0004203367388195707 -0.0003558624571802471 -0.00157462047513848 0.0005574585762952965 8.024445778729253e-05 -0.0008366333407038748 0.0006853489028531791 -0.00224520322567464 0.001156934373342418 
-0.0004435162981452233 -0.0006598192740624206 -0.001813833782020631 0.001216871080918987 0.0004645091090143247 -0.001204456953023895 0.000659351279169929 0.001732035681886239 -0.0005483119261270132 -0.0003656940195057946 
-0.0001764941878970216 0.0005598278751348885 0.0002780866971134827 -0.001259768285713275 -0.001852344316737513 -0.0003207721149246345 0.0004997429515065164 -0.0006305057944006785 -0.00070926083175575 0.0004415807466387217 
-0.0008109798143042063 -0.0003338351950600551 -0.003539428476653259 -4.050010438826478e-05 0.001787975658369241 0.0008153161542303433 -6.971258392861457e-05 0.0007838616516252618 7.585933143435879e-05 -0.0004333013498923367 
0.002240731511540156 -0.0006657287991392896 1.034688808319905e-05 -1.547333521835009e-05 -0.001441945170895513 -0.0005925198483150643 0.0004256334492586302 1.465205547816748e-05 -0.0006483460563098942 0.0007072178877989244 
-0.00026569202330563 -0.0004279421139586853 0.0002826221602131451 0.0002833237081922637 0.00396840639146036 0.0003375944611388841 0.001576159694725708 -0.001238455263533709 0.001064645704048167 -0.000753520766809709 
-0.002488957825179195 0.0002708966091561421 -0.001016486786864001 -0.0004505406532752916 -0.001849824720460005 0.001212094460309747 0.001218659606128739 -0.00123340157569952 0.0004647234604049272 -0.0001260358812678827 
-0.001606807461689072 0.0007811836658272198 -0.0008229788254670608 0.0002461230490260146 -0.0007890260696307399 -0.00083719011428385 -0.0003932500186020154 -0.0008151121502065796 -0.000554687240367452 0.001465993529422797 
-0.000933113716336886 0.001618387954351889 -0.0007107729381458142 9.318837178368648e-05 -0.000993505039227107 -0.0001127974249202225 0.0005162954686090498 0.0001680043470433195 0.0007038487375444101 0.0002739919999369131 
-0.0003101397125220984 0.0002069282364298588 0.0003720153113016878 0.001468107637736181 0.001299458099047603 -0.001084687474258298 -0.001034335509308451 0.001980356935702563 -1.001355615954696e-05 -0.0004547815304853447 
0.0008103074096274441 -0.0001888107303578623 0.0004222194405308099 -0.0006162882469669859 0.0008864267545620291 0.0001023495074377928 0.000543244168878039 0.0007763594050116736 0.0003976942550613882 0.0008384671674486056 
-0.001146859236462185 0.0002863359923531326 -0.0009559218405653585 0.001555739479136431 -0.002703072498796465 -0.001400025213632205 0.0003035154303121049 0.002515980370372 -3.854725307859335e-05 -0.0009095483077040654 
-0.003474423214364783 -0.0009981534176935155 0.0004619815982494187 0.0002478420313350589 0.002307021925300145 0.0007074448769506581 -0.001870070426240202 -0.0003631598802759456 -5.231419432499483e-05 0.0004850602549921283 
0.003955681297602348 -0.001520512576335808 0.0002427687904997577 0.0007599428904205267 -0.001290701544654246 -7.496349220994567e-05 -0.0009512979236998771 0.00132561657016604 0.001391433518244841 -0.0006108226809201721 
0.0006011224347274631 -0.000464335282705497 -0.001243499603001992 -0.0002751103476866813 0.0007803660368763467 -0.002701452920424695 0.0005512748134837651 0.0001538907274234736 0.0003589875630252284 -0.001542179160582566 
0.00250423394736347 -0.0002436860386021653 -0.004535336728451765 -0.000940273180264647 -0.001139142493428501 0.0003714954860503473 0.0004472370399254312 -0.0008486104682416298 0.0003847568493990909 0.008189071060389618 
0.0004566702271546014 -3.697585901214903e-05 -0.006385347018533178 -0.0006572633231554036 -4.887121502949543e-06 -0.007331018957653837 -0.0006251506335984932 -0.001733004547957409 0.0004433513474238792 -0.001900680207414744 
0.00152972811062461 -0.0001202813653360227 -8.713278978758919e-05 -0.006636035399812341 -0.001020056555484881 -0.0157965020819834 0.003149683348993998 -0.002191386924077807 0.002179582829620605 -0.001915913791336049 
0.000433440905166435 -0.0003438125705041055 0.0008356561068191298 -0.001719404416368714 -0.0003600340069050112 -0.003882763796654791 0.0008035253967316579 0.0001847563145812127 0.0003267530619242337 -0.000440189513570421 
-0.002208118787794603 -0.0002535656117434834 0.003154676622257968 -1.696228744729084e-07 -0.003114699503046053 0.0004928847855220448 -0.002005398986609357 -0.0001028285011038977 0.001088677862905711 -0.0003316801187794347 
-5.336336484758305e-06 -5.342803247904846e-08 -0.004204098300467321 -8.391251655524746e-08 -7.32517786600742e-07 -4.264473746085876e-06 2.09686724871313e-05 2.711683588465375e-07 2.79294588724476e-06 -1.614446234817441e-05 
0 0 0 0 0 0 0 0 0 0 
-0.0004845888240661358 3.915108213489371e-09 -4.410410785609457e-08 -4.850903473621477e-05 -9.253762915130881e-06 -1.714900290596745e-05 -1.788211356181478e-07 1.429621749601185e-05 -0.0001643095362027479 -0.0003053674369194562 
-0.001146633491539415 7.086742808755401e-06 2.228039676246139e-07 -0.0006370685993721095 -2.175000299642709e-05 -0.0001131603472904892 -6.125978874324089e-07 7.944094665901715e-05 -0.0003966635888566492 -0.002027058477115819 
-0.001661453311298689 0.0001210564534860095 -0.0003265196429707792 0.002378108095628041 -0.001256553633108082 0.001210825225313093 -0.0004459250622257815 0.002101221591963891 -0.0004486796908805754 -0.00608419047291482 
0.005109631984227011 3.775507818456112e-06 -0.008470589469429893 -0.003340192636675798 -0.003458824760953576 -0.001013217720558531 -0.00125673140608941 0.002300264347088779 -0.001092810722272404 0.004133246546563221 
0.0005871944798327827 5.087041001298729e-05 -0.004612222537361695 -0.004616405420060527 -0.0008858143247449644 0.003754815374407843 -0.001711089312638361 -0.0008726679786018139 -0.0001069513923972417 0.0003342800061476456 
0.002530640198977569 8.821945575506118e-05 -0.0001088218678164936 -0.00479702546779851 -0.004193719738821615 -0.001270407467353964 0.002399041687804838 0.0009352242200520614 -0.0009206855797168055 -0.0002184532077569712 
0.0007912430123615089 -0.0004128662651841153 -0.002581198371589228 -0.001982401705624593 0.0009692434234201803 0.001944246875336233 -0.000123005302432108 0.0004156054533887661 8.94142732263986e-05 0.0002370370516692419 
-0.0001703959235875425 -0.0003295235131014676 -0.002050958071338267 -0.0006170464318160375 0.0006506673857095125 0.0006164825548686557 0.0002217491876532477 -0.001552599783292856 0.001170001220121825 0.001194151664035836 
0.0004723520276764079 9.810462468469049e-05 -0.002899924898745992 0.001521110442997786 0.002026876252948781 0.0003635625806200858 0.0002234077732466304 -4.687881933010648e-05 0.001256707053463506 0.0001382338644078462 
-0.001386601509693909 -0.0007722606205229855 -0.0002610723745888593 -0.0007001654206510605 -0.0001372698351145068 -0.0006958520015660375 0.0004976065763330859 -0.0005677580829312335 -0.0008099305034372419 0.001913208535416959 
-0.0005131927274130922 -0.001058972025036375 -0.0007825533299986642 0.0001647761111857237 0.003174324987054305 0.00088680444056801 -0.0006407973104506832 -0.000550151773843742 -0.0005184207474675912 -0.0003683353718393328 
0.00222581362921769 0.0002770137274475863 -0.0007020688428682936 0.0005803125021175755 -5.389659343700548e-05 0.0009701538514799716 -0.0005258687761643098 -0.0004633753512173183 0.001251754786551893 0.0007636697012009643 
-0.004338771630062608 3.064554095210954e-06 0.0008406004522770138 0.001020117541972445 -0.0007247826505100972 -0.0005212049014041105 -0.0002828231260230423 -0.003350298638102107 0.0004988449499341175 9.930741526865632e-05 
-0.0009633911129315404 0.0002172309445585368 -0.001978040493684912 0.001118312186855355 0.001191062596117769 -0.0008645858559634569 -0.0009303089883363783 -0.000752082101578554 -0.0007683431856104159 0.0001974118312616821 
-4.163501050755636e-05 5.450014786282964e-05 0.0002943140751468735 -0.001343628252232397 -0.0004956229145540241 0.001572197640188303 -1.136256042421655e-05 -0.0005554270770300178 0.0002444666448277922 0.0005171307566395414 
-0.003516063704134857 2.308470253295806e-05 -0.001637636970471617 0.00157208922749341 0.002200341399113851 -0.001239913634400398 -0.0008350678167849512 -0.0006421190719049985 0.0003574252738400195 -0.0006173742026700442 
0.001107333351934899 7.942925856287796e-05 0.000187460121608479 -0.001270362066173208 -0.001123076624515339 -0.0004629763525402936 -0.0006235827921500484 -0.001481191409274532 -0.0007336890770020255 0.000913407540733076 
-0.001672420802812368 0.0007889330498947723 0.0003159924355177965 -9.068525589084897e-06 0.001669735870614895 -0.0002374320857984753 0.001067461919914465 -0.0006976204210664495 0.000281221582756503 0.00135160673592163 
0.001857620180277701 -0.001900924073426773 -0.002546862839349746 -0.001018486622774402 -0.002325242347743926 0.0006370728724843536 -0.0006122138962997843 -0.001056081572649841 0.0001710610033146903 0.0003563620383941239 
-0.001156980057244462 -0.0006977504911852067 -0.001322683159566639 0.0007155222840149028 0.003095930773555598 -0.0004546658197117526 0.0009595531860244196 -0.002936027311020772 0.0005520646025441894 0.002547171295149443 
-0.001575558482714217 -0.0002573475391356875 0.001253884696771934 1.715994288386319e-05 -0.002342095597079187 -0.001664016088336213 0.0008361378266428493 0.0003675619000815014 0.0001252048768262452 -0.0002952431814101387 
0.002802046284043185 -7.096034848155172e-06 0.0004585058686345242 -0.006245554901583247 -0.0001821687840669565 -0.001640197835455693 -0.0003774624359517939 -0.000540335185599711 0.0005689589275793148 -0.002940135268795419 
0.002837553592122675 -0.0001891083696727712 0.000426516130481456 -0.002187765565124686 0.001556642776915543 -0.003717788704743037 0.001549476411330238 -0.001324883435166088 -0.000251445053707423 -0.000778015807696336 
0.005952905204901995 -0.0005344328884456608 0.003961034653781678 0.002760493728670479 -0.005082195237272828 -0.008157794962504602 0.0001594776987570332 8.643477780836208e-05 -0.00156520428998475 -0.0005037471686488186 
5.665054805502263e-05 -0.0003438789648868425 0.004097698841620092 -0.002768446292525507 -0.003263571449318541 -0.004023065358407685 -0.0008984435352223472 -0.0004057242495549005 -0.002083530971586412 -0.004310626432113086 
-1.773361146230667e-05 -7.403083325399451e-05 0.0005750859878757371 -9.518853286787918e-06 -0.004159666115602796 -0.0004000811482188923 -0.002104601313900309 -0.0007360739813023857 -0.0006258745184087381 0.0001931759274944931 
-1.44096803852819e-06 -2.174270358922972e-08 -0.001134005024726032 -2.440883239273725e-08 -1.987911592960656e-07 -1.151057285110837e-06 5.101674223036514e-06 7.203342487340587e-08 1.449832494103141e-06 -8.18850722633285e-06 
0 0 0 0 0 0 0 0 0 0 
-5.315256130825908e-06 -2.139311154679009e-08 2.103938277452001e-08 -7.055243309695593e-05 -2.692048635979515e-08 -1.879227042054357e-05 -2.139286141148425e-08 1.05006390999381e-05 -1.790433093762011e-06 -0.00033200855945584 
-3.877460075277103e-05 -1.758624321095979e-07 3.391836514516712e-07 -0.0007004170045925796 9.930052558028654e-06 -0.0001384106911015735 -1.803854408782846e-07 7.730967971955995e-05 -1.367594379690748e-05 -0.002469955267754853 
-0.0006202264490254129 3.09158130266788e-06 -0.002774174351458748 0.008509582482570065 0.002468749258794826 0.0002909611887593738 -1.869126440019714e-05 0.001028077261732397 -9.379414133872025e-05 -0.005697603782846123 
-0.001898178668783523 5.183037310210885e-06 -3.331820815420742e-05 0.003258010947683893 -0.002475683831592936 -0.003442595498761834 -0.0006731671751651009 0.002627836987162708 -0.003294363584005851 -0.005513528385428652 
0.0003354317183680718 1.849576808359639e-05 -0.003628572371536601 0.001005744234571611 0.002844389760995153 -0.004149157908032021 -0.001615493954933844 0.0005706708271136964 -0.000760492146362039 -7.247087097357956e-05 
-0.001233523340456735 7.229751975039671e-07 -0.002700993868580633 0.001077549833144873 0.005209692978864435 -0.0006474536762420041 0.00065920036675127 0.0003873172217721914 -0.001245259938593119 0.0004777290822787138 
0.001506204907104119 -0.0002434370990206352 -2.37339378984864e-05 0.0009101405762270962 -0.0001581088500683304 -0.001902488536652752 -0.0001536898179688953 -0.001303196236915318 -0.001310243360993871 0.0007581159362373924 
-9.255724147131343e-05 -0.0009092879151806213 -0.0004485972279681452 1.627480230962882e-05 0.001963600064968121 1.949570241282589e-05 0.0004164734118538406 -0.0007124385964345247 -0.002191756032175615 -0.0007768817538927103 
0.002564845237486751 -0.001285056182845791 0.003532273581237366 -0.0007302926254763634 0.0002821293049022132 0.0001445136528698591 -0.0009418359938968478 -0.0009524851510816142 -0.001697664332845487 0.0003599977287054773 
2.11145961317711e-05 -0.0005305935988267039 2.243436154884158e-05 -0.0005550658965626233 0.000612791197021985 0.0004890488225923237 0.001082499166648433 0.0005941782275899971 -0.0007486414856378155 -0.001637038992679196 
0.0003298628228468272 -0.002028993980260869 0.0003984719927289451 -0.001098246487220793 0.0004278901589520009 -0.0002637055011963139 0.0008710351101247799 -0.001658188247806701 0.002093283411813016 -0.0007993426105844584 
-1.77177153060457e-05 -2.107134879723152e-05 0.00133244577630357 0.001654313088797392 0.0007492840143646127 0.0007392213735408532 0.001014381828957368 -0.001587208526163253 -0.001126944519141777 0.00168774212970744 
0.002869516244478157 -0.0004940709391872131 -0.0009533505707920065 -0.001496463398563449 -0.0007229990285578278 -0.0004805871489217096 -0.0008085938611299379 -0.0006832961460849169 0.0004553114537384547 -0.000424434676178179 
-0.008394767036671127 0.000590319650390698 0.0008228729416482248 -0.001174582120026741 -0.001216566417416812 0.00051864504001939 0.0004642288874273748 -0.0004692948772885732 -0.0002562090492182912 -0.0001825933192789603 
0.001364456794945656 0.001414733724169715 -0.000339666791038971 0.0006827407930550386 0.002188534591342113 -0.0008087957918620125 0.0004483368468758654 8.031754882245527e-05 0.0003553490576564833 0.001247306859062246 
-0.0005867410929075149 5.823878645869363e-05 -0.0003503116882406478 -0.0007682899799338699 -0.001706111850704763 -0.0002590830173730296 0.0008195545527540307 0.001671954609758017 -0.0001301472545496663 0.0001882878900240996 
-0.0009032062219393265 7.324754184645575e-06 -0.0007572643070722804 8.418648165418765e-05 0.002166097248982509 9.903944895472389e-05 -0.0007538909103690651 -6.533658387039708e-05 3.721698757732881e-05 -0.0003686397471333062 
0.0006924351753039892 -5.297283564865366e-05 2.163491716092853e-05 0.0003857757467289443 -0.0001283510083922242 -0.0006336857511355192 -0.0007722705469985899 -0.0006840626116381477 6.272611608022084e-05 0.0002930189723566984 
-8.827164516381829e-05 -0.00169138972845428 -0.0001375947732521193 -0.001162097501573282 0.0007932607138674194 -0.0006213814102201661 -0.0002942363320844634 0.002476400668882231 -0.0006704397647005846 6.893158636928392e-05 
0.001586625392044273 -0.0004470884942064373 0.002209361280385131 -0.000819109995939408 0.001221092369848612 -0.0001996653094135186 -0.0005549873428946472 0.000256369111665182 -0.001011479837118945 -0.0007661243799692886 
-0.0003640230442416658 -0.0003072038443832845 -0.001989265058955142 -0.003383123590049637 0.0008534414851415612 -0.001444581669124807 -0.0004744012696435159 0.0009602430414696272 -4.635686743949935e-05 -0.0001543709050044179 
-0.002465062316002328 -0.0004035099855837209 0.001759091003360313 0.00231663756487392 -0.002646399149204908 0.001363266925959029 0.0004509996778540565 0.0001120696467982724 -0.001546171824329298 -0.001727643487725534 
-0.002825348351918294 -0.0005863615303958356 -0.001007872163554952 0.002076015838038084 -0.001963337244192957 0.004265328705135433 0.0001945523155381979 0.0009009877832000613 0.000487910668510226 -0.00164414130931459 
0.002030730990464309 -0.0004845144953430379 -0.004481820850166171 0.004312236918239711 0.002820794994305846 0.001320836446961668 -0.0008156496968129301 -0.002080325935135489 -0.00180785505704901 -0.001077903926253819 
-0.0008556402572226634 -0.0001470091240992615 0.005385645493746664 -0.002192115157022458 -0.004007039510213548 0.002086739432056223 5.697330788426853e-05 -0.000769737274094898 -0.0008149001689713819 -0.0001984861239407848 
-0.0003144347655643963 -2.660936358298845e-05 0.007521124134335657 -0.0002840776553882077 -0.005333661010179013 -0.00133883654107876 -0.003409128721453342 -0.000347490689967908 -0.0007395022293014966 -0.0005482183477564446 
-6.970252202981955e-09 -4.739024127295018e-08 6.793866628949778e-06 -1.469987975777229e-07 4.553102967385886e-09 -7.00803764395616e-09 -7.602315959264644e-07 -8.783446537910606e-09 -2.137120100208374e-08 -1.364345074394763e-09 
-2.118628340058935e-08 3.320372113139434e-09 -2.121678783851031e-09 3.587775681347711e-09 -2.310904830614306e-08 -6.779588392971649e-05 -7.02060791182945e-09 2.263335830260726e-07 -1.174110686505396e-07 -4.096560186639901e-08 
0 0 0 0 0 0 0 0 0 0 
2.305530600178994e-07 -5.813338734920819e-09 -1.904855029552464e-08 -1.10877859932443e-08 0.0003870924959935317 -2.621995073190398e-08 4.715704184643261e-08 -2.128781276784518e-08 -2.487517312707938e-08 -0.000936059074172199 
-0.001170587521942625 8.143862528482414e-06 -0.003894071546365607 4.238423209764505e-05 -0.0006263118006678647 -0.001831130595914521 -2.311462766543557e-05 0.0007583690200359522 0.0002608386314161218 0.0004921498469218454 
-0.004322021507929777 -4.885004852888766e-05 0.00103083832677941 -0.0003473160031373409 0.006355071454899163 0.002537630532841611 -0.0007307651052493191 -0.00172769784575978 -0.001803418934082133 0.0004610146502886942 
0.002704742994698328 -0.0002971786946505355 0.003326233590369034 -0.000213176382711213 0.002046036205011765 -0.003057558931142183 -0.001054163417006378 -0.001856235200502142 -0.001704787605760023 -0.0007924290835888722 
-0.000984409933103727 -0.0005188897143499729 0.001226361667494293 -0.0007617675730007729 -0.003702990496251451 0.0009647114799884659 -0.0004215198216306132 -0.0004914399356653527 -0.0004261919387014601 -0.0003883070383642522 
0.0007179918469026314 -0.0006898156779194197 0.0006242965076997399 -0.002142517320036362 0.003749414294681336 0.0003916943275237074 0.0007362341425873819 -0.002305140582796537 0.000136178347663576 -0.001124139340351385 
-0.0004667472667785017 -0.0008799918799406723 -0.0007674359695324993 0.0009369883749982542 -0.0008760433193615481 -6.222808790058304e-05 -0.0003665928072034866 0.001295754673948838 5.738951366657309e-05 7.753107440922582e-05 
-0.00135869738754835 -0.001261660494105812 -0.002921055836604515 -0.0007433261250211877 0.001566876665660882 0.0002627235064123556 0.0002488464763251938 -0.0005926110241504415 0.0007506027065469463 -0.0006600063415549967 
0.003816365809345685 3.28583862454141e-05 0.0005394847332872695 -5.82933521378926e-05 0.0007395256444489503 0.0003533688741680498 0.0006161871123421063 -0.0001847091321153551 -8.899518350487039e-05 0.0002385477781164158 
-0.001052062603955847 -0.0009838180705062838 -0.0007090711985580543 0.0009797380686472014 0.0009257851416050271 0.0005814042028682337 -0.0003668292591109323 -0.0005256396793879379 -0.0003736549012520181 0.001455317956665401 
0.000789487159545848 0.00115170819961321 -0.0009407691796588744 -0.001441185314586966 0.0002598538548950008 -1.224390682174443e-05 0.0004050770870758636 0.000326852967965822 0.0009940272379013219 -0.0006935182703170932 
0.001248131756384894 0.001534603325566377 0.0004794538245217832 0.001152647816563622 -0.000896110159952009 -0.0003208396541221316 -0.0004787904422403436 -0.0007663268042128618 -0.0001013073217010444 0.0001994918459916477 
-0.009168424789205768 0.0003666314872476519 -0.0006606633266067401 -0.0002313507992594567 0.000607699406623878 -0.000923488729719769 0.0009044033450229787 -0.0008161395927210878 6.914024791562251e-07 -0.0012593316780755 
-0.0005221193213869812 4.264168353376526e-06 0.0002170885627373457 0.0001763471264321732 -0.0002042404699121414 0.0004734087359491335 0.0001971214003896127 -0.001144886416068587 -0.0003375561250382118 0.0003438700459888734 
-0.000543261858699505 0.0007659616135019319 0.001023825154765977 0.0006022859492009794 0.00244103368609704 -0.0003774850657070847 -0.00153979653121367 -0.0004737575501776847 0.0005898600869848189 -0.0001073020217259361 
-0.001145097940234865 -9.561666375418717e-05 -0.001343666080126062 0.0003511624260677328 -0.001672422883156516 -0.0006090700863168191 0.0008045136065334155 0.001793021556783262 -0.0006705266212496784 -0.0004933561118081157 
-5.93505399848314e-05 -0.0001141329165432115 9.898423075132702e-05 -0.0007667260743363576 -0.000252305039471318 4.640912657385267e-05 -0.001443197738102866 0.0006082125090900914 -0.001812070594086891 -1.728083100383832e-05 
-0.002998024512359212 -0.001184655847820533 0.001151904348028252 3.642126710897755e-05 -0.0007064841145481711 0.0001624801084666242 0.0005664457208225642 0.001719059342136368 0.001069861565220967 -0.0007410323199200841 
0.0009347782500813773 -0.001147582855644054 -0.002739939795836093 0.0006214338905600465 -0.0007673816791836989 -0.0002595424168003906 0.000712972429959391 -5.336274533167438e-05 -0.0008462515581052248 0.00254920414044517 
0.0005589828966947447 -0.0006901367772377673 0.0003870536759273484 0.0009011354642772639 -0.00140404374391709 0.001044165875092931 0.000863205920235075 4.057318620799983e-05 0.0006651034324322995 -0.001960555394757465 
-0.0001154115391183469 -0.000544934887335089 -0.001850613780767319 0.002371750933658875 0.002950940259966249 -0.001256822457893475 0.001082837740895655 0.00238713243922719 8.228192336956562e-05 0.002645407290254411 
-0.0007246282243073751 -0.0007232660694306255 0.001052215055783874 -0.002675326638543427 0.003562506225926591 -0.0006406336276353307 0.000607419565616241 -0.0008907150551843303 -0.003027198116138866 -0.003175042000626411 
0.002346931316978028 -0.0003590076461476597 0.001210944987550803 0.0003783737908694135 -0.007424211092224117 -0.0008039399384813784 -0.001457705959442985 -0.002823377832669561 0.000133622454265869 -0.001776456142496921 
-0.001934030338948573 -8.340490532382535e-05 -0.0008276957754000335 -0.001753349780225215 -0.003779923445033128 0.0009573523032076453 -0.0001554720149206308 0.0003416518097422901 0.0007233838578198743 -0.0007943639347621967 
-0.0001854730281066683 -3.068754622772704e-05 0.00647289852536898 -0.0002290809122890103 -0.0009866134106070908 -0.001980471388478699 -0.002154647931207145 3.669140869190251e-07 -0.0001294050765508788 0.0004687159739571436 
-2.596760624640336e-08 -1.765518792521673e-07 2.531048351961681e-05 -5.476425792111244e-07 1.696254046673172e-08 -2.610837553630727e-08 -2.832235357373102e-06 -3.272264396476498e-08 -7.961819981168454e-08 -5.082854198725575e-09 
-1.210644765747963e-07 1.897355493222534e-08 -1.212387876486304e-08 2.050157532198693e-08 -1.320517046065317e-07 -0.0003874050510269512 -4.011775949616826e-08 1.293334760148987e-06 -6.709203922887983e-07 -2.340891535222801e-07 
0 0 0 0 0 0 0 0 0 0 
-3.268146434391402e-07 -7.418744590815422e-10 1.334291231883799e-09 -1.032983797701954e-09 0.0002365996480252294 -1.940347817588267e-09 2.947347234713156e-09 4.595992634192183e-09 -2.198908865750458e-09 -3.079218683685964e-05 
-0.002144760401626439 5.509639686443309e-06 -0.001159643961336694 0.0006970945737508442 -0.002646263148670554 -0.003083884583115932 1.360528666639189e-05 -1.951230910428934e-05 0.0006899502251036158 -0.0005671320746051968 
-0.002670823580161052 -0.0002318726393836447 -0.0002312276439268437 0.001053415495815247 -0.002181711446351174 0.006041335155020502 -0.00117385712982176 0.0001001855933950337 0.0001099361835631851 0.001922580004192322 
0.002830460945127125 -0.0007619074964420229 -0.001147116959931368 0.002873141769029047 -0.003113844737410636 0.004684299991351466 -0.001802538539730083 -0.001722087210321768 -0.0006327003083972985 0.003020072678407942 
0.0004379570729056976 -0.0005127809401850665 0.00101037642186323 -0.0006291441248397982 0.002421214961070496 -0.003913179489107541 0.001426168049872198 0.0005864523375609638 0.0004605401279499748 0.0001957977765417975 
0.002069698793667293 -0.0001579064580595803 -0.002667148519814886 0.001839142178282031 -0.00159594009737994 -0.0003121475920319633 0.0008131135315509587 0.0004021089731005935 -0.000945307043658299 -0.001068217297438144 
0.001567035188014316 -0.001144135130809077 0.001143106883328794 -0.002759430299085531 0.0007635973256412202 -0.0006862245605850133 -0.0001615729455685651 -0.0001329965830011307 0.000722152913608252 0.0002669710733079743 
0.00108132745732661 0.0004533545853899737 0.001929421969091937 0.001300605554853947 2.630764163823288e-05 -0.0002639101624202701 0.001933038215999835 -0.001394077189770407 -0.001266954545729524 0.0003861455903909666 
-0.003269657056976627 -0.0002705324644389091 -0.001685243333247827 -0.0008254403558394864 0.0002165337936274854 0.0001670571410910872 -0.00155345951588274 -0.0006454109712984628 0.0005691824269808169 0.0005256463497620433 
-0.0003178241341067969 -0.0002862888454272302 0.0006395272350238155 -0.0007143604156725157 -0.000398213365462271 -0.0007572713086645266 0.0007417097370567693 -0.002742479082099879 0.0006919253101493135 0.001313502730737883 
0.001021850122391875 4.902223846859508e-05 0.001162547693454803 0.0009895765982998481 0.001241173593867409 0.0008145873352860265 -0.0006756092754405407 -0.0003594110577261451 -0.0002854962135103061 -0.0007963360044276114 
-0.003827173885313645 -7.049466226607098e-05 -0.0008033676786865339 -0.0007645177730082598 -0.001177991751879829 0.0001185780672641404 -0.000790471776723259 0.0004031627827731974 0.0005306454416520318 -1.255598077584447e-06 
-0.003352436571306784 -6.8437717139506e-05 -0.0002878704311532977 -0.0007297764720003653 0.000385925437899243 -0.001031984565183712 -0.0003924985748072028 -0.0001597582412146286 -0.0009554747960619813 -0.0001852694513143758 
0.0002099452860787398 -0.001077275636566889 0.0006714389097257794 -0.0002160057705941494 0.001469666629736298 -0.0003731321544273074 -0.0003048191579608611 -0.0001600527390578591 0.0007576207832430174 -0.0007696961881846008 
-0.001285094732689322 0.001526488839686417 -0.0007095551121267123 0.0004183097188733795 -0.0001971195028482768 -0.0005860504378571232 0.0007459443137532578 -0.0009964379561496002 -0.0009499018179535817 0.001127790057394564 
0.001318490923712297 -0.002089113275861493 0.000692486150102925 -0.001719419664225617 0.002766207408319788 -0.0001635150050277077 -0.001058731063706749 -0.0001794924708573206 -0.0007993498101778879 0.0001067122365925774 
-0.002330883973782751 -0.001950431136539518 8.794510465109302e-05 0.001263689340270056 0.000420614687495181 -0.001102262394902486 0.001136171195195834 -0.0004583529451992163 0.0007052129770706601 -0.0007505558730267292 
0.001652728311426842 -0.00116575783650928 -8.018465197794157e-05 -0.0003249933261088634 0.003551885537102751 5.604184535118915e-05 -0.000247197867163776 0.0007175219234665574 -0.001533755769218548 -0.001852140148935639 
0.001906689435052657 -0.0008500508556776524 0.0005468001713942951 0.0006220617027462444 0.0007993984650888474 -0.000583055222768681 -0.0009047942349808535 -0.0007033437895247394 -0.0003821814604734152 -0.002831854027422993 
-0.003378535165500615 -0.0006950505289283559 0.0008757400682550721 -0.001729216626199342 0.0008060976751403719 0.0002069622376665386 0.002203848407904367 0.001363183350335595 -0.002531163859117643 0.0007652351282943247 
0.002175425636221276 -0.0005814834740631677 0.0005214937119746804 0.0005752421144917445 -0.001346742850472689 0.001421397529947987 -0.001952688345979049 0.0003705500716218466 -0.001837677394148243 -0.002593113877309415 
-0.002018014267707133 -0.000811718967898204 -0.002904439171641248 -0.002091477220330241 -0.00109683069707149 0.00180793382502931 0.001123814604137831 -0.002070841343173415 0.001234097111695 0.000521849433283134 
-0.001256719003591484 -0.000340402040617947 0.002421238724066889 0.002936129888007297 -0.0004571445345195728 6.662011357659006e-05 -9.92865769144219e-05 -0.00306049758803989 -0.0003171709306702341 0.0006623955407653656 
-0.003185663636981583 -0.0004283048376668558 0.002762667967211987 -0.001586541998290311 -0.004076083523269687 -0.005074689337565759 -0.001183359658692837 -0.001386006332817143 -0.001807374030750968 -0.003820073480681638 
-0.002167098702893186 -0.0003201862403010892 0.003750070837083012 -0.0004200205985572952 0.0009598676462607281 -0.0003295164296069404 -0.0007485064344790945 -0.000109151391118909 -9.756256565582303e-05 -0.0001084270553579912 
1.390222973706879e-08 -3.581347928722421e-07 2.017553765039679e-05 -2.639277103740193e-07 1.783505360698534e-08 -1.923002255153707e-08 -4.573028239006582e-07 -6.801220667789565e-09 -1.460606854265278e-08 -6.803849346159391e-09 
0 0 0 0 0 0 0 0 0 0 
0 0 0 0 0 0 0 0 0 0 
-7.415116862939667e-06 -1.741993282226425e-06 -7.405734400007924e-06 0.0001798900715443625 0.00462660461285638 -0.0005023312524325338 4.751621429391301e-06 0.0001276797754878021 -1.162453471537835e-06 -0.001267088516645208 
-0.003175114261057559 -5.289651078274262e-05 0.002869683224780375 -0.00542269506904835 -0.0007239134156839372 0.002283058453975151 -3.135875258396618e-05 0.0005035602839473417 -0.0008137122264810451 0.0006273774476910643 
0.0004441691194733992 -0.0002278385716751859 0.001399541293881911 0.002164189621487639 0.002092652631400838 -0.004241092126717032 -0.0004934956733673446 -2.236672409211335e-05 -0.001403874293877282 -0.0005790732319691291 
8.575830790107328e-05 -0.0004446927892238818 0.001230640536178625 -0.003574691000419493 0.002724257807867553 -0.003086914169092114 -8.691829221445791e-05 -0.0001066615230246135 0.0003337334389953732 -0.003524990044300747 
0.001033204224345792 0.0004874410930122527 0.003867914424601556 -0.0008969434312498116 -0.000556477540438169 0.00312718381519157 -0.000742120940716141 6.172016484702568e-06 -0.0003235016090367542 0.000679865645168648 
-0.003263049805960346 0.0002482530630944658 -0.0002046358398372258 -6.251015934813374e-05 -0.0006600663932305829 -0.001745011842889134 -0.001359094383496911 0.0006188427933272186 0.001247520032580872 -0.0006706497397025341 
0.002156622750274261 0.0004854856945030767 -0.0003019687669702274 -0.0006845838520186681 0.003069156855442491 -0.0005271252949684617 0.001675580898909533 -0.0006410191798469652 7.01659350241831e-05 0.001327119028724092 
0.0002763015273028109 0.0008969633179287299 1.49846386880262e-05 -0.00206011115110073 0.0007509519936476211 -0.001259089575432815 -0.001514800001539374 -0.0001884082966955253 0.0005061094579042995 0.001790082014196627 
0.001290523080328846 -6.753913654748322e-06 0.001762901994008855 -0.0004106463386707672 0.0001279407510240486 -0.002112779464434329 0.002472097002415561 -0.0005627543480099841 0.0005677859956930635 -0.001461130452200789 
0.0005881265664075441 -0.0002839619204969034 0.000405130959488817 -0.0003267453924001997 -0.0003013698399602825 0.000680498531253188 0.001890552256064905 0.001179285544348533 -0.0006042703679537946 -0.0002131756185510181 
-0.002015385157510321 -0.001335614823304868 0.0004539752990622316 0.0002016953473282162 -0.001002519154575084 -0.002081092741860178 -0.0001086097652069272 -0.0002935420587178264 0.0009701008573413723 0.0001367629207150356 
0.001276181835736357 0.001231290545576619 0.001169855831840432 -0.0005733710936366138 0.001559397432846237 -0.0003915727305279539 0.001318885255410191 -0.0007934299767459146 -0.0003096919160585316 0.0009004987308087968 
-0.004540153199011309 0.0008483617687724409 0.001439060047135829 -0.001849194207598134 0.0008870863822774055 -0.000384554533398444 -0.0007351642377929722 1.657027013675998e-05 0.0003716313759870784 -0.001214261152256371 
-7.491816884418548e-05 0.0006872038333772077 9.680303981119553e-05 -0.001273551181761778 -0.0006385547344151253 0.0001329807653228482 -0.0003096297979121855 0.0002270917205790568 -0.0004758596958535425 0.0005833000370508111 
0.001240610033699941 -0.0006161518429738109 0.0004954772669571055 -0.001629361980884366 0.001100727899300587 -0.0009729146455450534 -0.0008755390704242927 0.002451301654992761 0.0007192787445837874 -0.001099209431055935 
0.0009723400808276413 -0.001116761489278017 -0.0001668190998120577 0.00162990908669519 -0.001734405433178552 -0.0001743129697163367 -7.734157329551214e-05 -1.435345601135899e-05 0.001143264230278278 -0.00180987818468722 
0.001961725299476726 -0.0009982305875265393 -0.0005917511429986194 -7.226654894581627e-05 -0.001944389765083859 0.002150198306901383 -0.0001875628867165242 0.001271576446453298 -0.001701614466996781 0.0004608525988589749 
0.0007157937089106183 -0.000771135311250941 -0.0002391212742892532 0.000692527883632363 0.0001566657468066233 -0.000550992731308713 0.0006094093109004334 -0.0006551400898971783 0.0003559309594655059 0.002035073255916669 
0.001661498968225488 -0.0008703598967672325 -0.002885155451356309 -0.0002764867851413537 -0.00252442734043042 0.002743714071575229 0.0004781274710716261 0.001123801338742798 -0.001108078921117456 0.001680095026001735 
-0.001664445724078265 -0.0006676009064706567 0.001302436434346164 0.002242164080909247 0.00280991432939415 -0.001086109679920267 -0.0009568208931584611 -5.406947918207554e-05 0.000760781504080639 -0.004294053672296374 
0.004326540302391188 -0.0008671344833670364 -0.0008820456113332012 0.001956789908354421 -0.00412840905776869 -0.003763009904283059 -3.481720179183346e-05 -0.001109335793535003 -0.001052967848482359 0.005325347151289898 
-0.003692054866747559 -0.0008526989776081512 0.002574563400208534 0.0005758875902589067 0.006579984431536544 0.0007548456060431983 0.001306518861208412 0.0004298997371659084 -0.0003442681548180196 -0.00440458524368048 
-0.0009459032836716874 0.001184459052523929 -0.006147281463302462 -0.00636386724344365 -0.003254695122641375 0.001265223793156758 0.0007835265675173529 0.001805639287250612 -0.0005597984544270936 0.001733562939878208 
-0.001745753786847613 -0.0003329729618834913 0.004508048721122679 -0.0006537129906153194 -0.003740934537624024 -0.002236664813528623 -0.0008212380357966245 0.0003726204371948611 -0.003556494228809829 -0.0007691428250564026 
-0.000538518630702727 -0.0001145813755303443 0.002511063946092028 -0.0001948895982934723 -2.525289049608851e-06 -2.723005308919006e-05 -0.0004929134576917963 0.001559825009236027 -1.446573834515827e-05 -0.0006447816065289324 
2.233814532732941e-08 -5.044743840117402e-07 2.712978110813908e-05 -3.367220266822363e-07 2.443686709621098e-08 -2.569180327970718e-08 -4.253303896554218e-07 -7.114790119673809e-09 -1.449506103423407e-08 -9.438889317880201e-09 
-5.273959568868965e-05 -1.416911720718107e-07 -4.904753726447321e-08 -0.0009241012129580521 -0.002360696920042609 -1.242092252770129e-06 2.549808433337337e-07 0.0001831768772781845 -8.857308701934192e-08 -2.414903227709164e-07 
0 0 0 0 0 0 0 0 0 0 
-1.077197620808842e-05 -2.613839815656987e-06 -0.0003022795069902052 0.001238865906014176 8.727317883445533e-05 -0.002597750075001322 1.558435370230197e-05 0.0004309734887491179 -5.569253835302564e-06 -0.002265143210619773 
