solver_type L2R_L2LOSS_SVC
nr_class 10
label 0 1 2 3 4 5 6 7 8 9
nr_feature 780
bias 10000
w
0 0 0 0 0 0 0 0 0 0 
0 0 0 0 0 0 0 0 0 0 
0 0 0 0 0 0 0 0 0 0 
0 0 0 0 0 0 0 0 0 0 
0 0 0 0 0 0 0 0 0 0 
0 0 0 0 0 0 0 0 0 0 
0 0 0 0 0 0 0 0 0 0 
0 0 0 0 0 0 0 0 0 0 
0 0 0 0 0 0 0 0 0 0 
0 0 0 0 0 0 0 0 0 0 
0 0 0 0 0 0 0 0 0 0 
0 0 0 0 0 0 0 0 0 0 
0 0 0 0 0 0 0 0 0 0 
0 0 0 0 0 0 0 0 0 0 
0 0 0 0 0 0 0 0 0 0 
0 0 0 0 0 0 0 0 0 0 
0 0 0 0 0 0 0 0 0 0 
0 0 0 0 0 0 0 0 0 0 
0 0 0 0 0 0 0 0 0 0 
0 0 0 0 0 0 0 0 0 0 
0 0 0 0 0 0 0 0 0 0 
0 0 0 0 0 0 0 0 0 0 
0 0 0 0 0 0 0 0 0 0 
0 0 0 0 0 0 0 0 0 0 
0 0 0 0 0 0 0 0 0 0 
0 0 0 0 0 0 0 0 0 0 
0 0 0 0 0 0 0 0 0 0 
0 0 0 0 0 0 0 0 0 0 
0 0 0 0 0 0 0 0 0 0 
0 0 0 0 0 0 0 0 0 0 
0 0 0 0 0 0 0 0 0 0 
0 0 0 0 0 0 0 0 0 0 
0 0 0 0 0 0 0 0 0 0 
0 0 0 0 0 0 0 0 0 0 
-3.343520846457366e-09 -5.269213926076833e-09 -3.759389472892273e-07 -5.080236349996666e-09 -1.661018823397368e-05 -7.745055404857943e-09 3.554367977148725e-06 -1.154530264587626e-08 -5.808428956339574e-09 -9.255637145883692e-08 
-5.75822196054251e-08 -1.8646940336324e-08 -1.59411492210995e-06 -1.387639530528794e-08 -2.49042146870489e-05 -1.891688740524186e-08 9.434347787491179e-06 -1.485290961118568e-07 -1.68091684652905e-08 -1.658079459473832e-07 
-2.928706253660106e-07 -4.427008986795345e-08 -2.97593077467713e-06 -2.867357668964265e-08 -7.348455791481819e-06 -3.055799537647434e-08 1.848091024549026e-05 -1.111584341514939e-06 -3.158716523278887e-08 -1.484109782845095e-07 
-3.032525419384624e-07 -8.445546281614624e-08 -4.280450597255919e-06 -5.070384148948874e-08 -4.680875281932677e-06 -4.682416153171931e-06 2.113061221997724e-05 -2.125234844150935e-06 -4.820237712472364e-08 -3.492871163388473e-07 
-1.781502935450376e-06 -1.957753453764253e-07 -5.850784072230672e-06 -1.688746616629903e-07 -2.082615228888855e-05 -2.267244881139836e-05 1.96415664180072e-05 -9.754259642139478e-07 -1.407850198737927e-07 -1.956277460798826e-06 
-3.85826502628453e-07 -1.148400979396413e-06 -7.800671705762431e-06 -2.062802022449496e-07 -4.143821278305957e-05 -2.101058906727924e-05 2.79496756513858e-05 -1.523934012707279e-06 -2.791694789833425e-07 -2.607507328874998e-06 
-9.474929451263435e-08 -1.712080207426649e-07 -9.425556448211754e-06 -1.362609156147462e-07 -9.382045434174594e-05 -3.76932181167276e-05 3.854582384445865e-05 -7.580612423314384e-06 -6.067460897546464e-07 -1.862461174768899e-06 
-7.284560003330446e-08 -5.904520933907989e-09 -6.588418700143822e-06 -9.518456397557625e-08 -7.92531710316652e-05 -2.353182656818257e-05 2.77210913403114e-05 -3.23369126294223e-06 -4.913614690039352e-07 -9.978706792637623e-07 
-7.802199468018972e-08 -4.712696788941743e-08 -5.610342198391358e-06 -6.528267103236692e-08 -4.514795236367573e-05 -5.34066863444166e-07 1.802027562208003e-05 -4.621723284014524e-07 -1.284082818502022e-07 -7.318578791909436e-07 
-5.389749076790426e-07 -1.232598588738718e-06 -4.094579925806857e-06 -6.899949309284013e-08 -3.265220637371696e-05 -2.560343919670509e-07 1.689927889202156e-05 -1.483374617669535e-06 -1.745021570320469e-07 -1.360872133987098e-06 
-6.31188217063664e-07 -3.600930402083258e-06 -9.639040277050184e-07 -7.832867860345594e-08 -4.996944834665137e-05 -1.544223033955952e-07 1.116921719075073e-05 -2.548013062464353e-06 -1.077944231412475e-06 -4.673957648487396e-06 
-3.995656714409726e-07 8.334496262789553e-07 -3.326730846714329e-06 -4.2762657045557e-08 -1.424031515707554e-05 -1.586882730161031e-07 9.427766037592344e-06 -4.060823605483417e-07 -5.433925745296051e-07 -1.923169663274573e-06 
-1.348381358937923e-06 1.13720924087744e-06 -2.858736331713768e-06 -3.472060288366049e-08 -2.990869890876697e-06 -1.487724510101203e-07 6.439873328931232e-06 -8.863854257185359e-08 -2.389749727173939e-07 -9.273399230661073e-07 
-3.368981303679354e-07 3.747894588005673e-07 -1.016303088004046e-06 -4.743901563570109e-08 -1.747909128761598e-06 6.990146416010888e-07 6.302804393103862e-06 -2.417701869266537e-08 -1.86461521097063e-07 -7.416343264715003e-07 
-1.360243655555756e-07 3.71978190372056e-07 -1.521848776997152e-06 -8.904601848455062e-08 -1.351525496330015e-05 1.739090302169301e-06 1.495377484051715e-05 -4.3801550808758e-08 -1.157965855629791e-06 -3.127300273316265e-06 
-3.740524041784811e-08 -2.987105676014218e-08 -1.203709286627292e-07 -1.395526524427296e-08 -1.094312308351891e-06 3.538308707049342e-07 2.26591810264671e-06 -6.709097568855084e-09 -8.958747623468297e-08 -5.827491880717339e-07 
0 0 0 0 0 0 0 0 0 0 
0 0 0 0 0 0 0 0 0 0 
0 0 0 0 0 0 0 0 0 0 
0 0 0 0 0 0 0 0 0 0 
0 0 0 0 0 0 0 0 0 0 
0 0 0 0 0 0 0 0 0 0 
0 0 0 0 0 0 0 0 0 0 
0 0 0 0 0 0 0 0 0 0 
-4.924560528067049e-09 -1.348863329429729e-09 1.342581541506859e-08 -5.669358258778017e-09 -4.503957995784413e-08 -1.491896770345126e-08 -1.217757294444786e-08 -2.311820397064658e-09 -1.29679034978774e-08 -9.040704915360777e-07 
0 0 0 0 0 0 0 0 0 0 
0 0 0 0 0 0 0 0 0 0 
-4.401622505803177e-07 -1.593219989371903e-09 -1.325294864578505e-07 -1.326109145669976e-09 -1.600908147663368e-07 -2.759311944589568e-09 1.231482039008415e-06 -3.708494545664835e-08 -2.275651878760406e-09 -8.68176892239259e-09 
-2.961407833829364e-06 -1.952544102005021e-08 -1.367513892229122e-06 -1.844189346300224e-08 -8.051161786763653e-06 -2.582094681730504e-08 1.07190885040907e-05 -1.398209951794205e-07 -2.113488661766806e-08 -1.174104598510253e-07 
-3.668010738041215e-06 -9.904695569553542e-08 -4.68969385733024e-06 -1.412633916150054e-07 -4.8430543166568e-05 -1.17719431062859e-07 3.847284057145727e-05 -8.237778310340564e-07 -1.225096829924972e-07 -5.382284555967118e-07 
-3.323325014829849e-06 -2.026659848645066e-07 -6.897127132913053e-06 -3.422397361895426e-07 -5.81290849712799e-05 -1.429955531997541e-05 4.71634089334685e-05 -3.862012854473579e-06 -2.736211915185882e-07 -7.655285886375974e-07 
-8.270793933234241e-06 -1.387231112881888e-06 -8.202019168923663e-06 -2.879520760465652e-06 -0.0001055220050211732 -5.769608563733468e-05 3.94032149709634e-05 -6.02872866555131e-06 -1.041007339010677e-06 -2.954147310545733e-06 
-9.739396231407505e-06 -3.653717821946619e-06 -1.15736660901493e-05 -6.319798209011253e-06 -0.000189943271468331 -6.567531329111924e-05 5.434577854442532e-05 -5.31094125199351e-06 -2.632244892357021e-06 -5.679230453290832e-06 
-9.806157654189026e-06 -6.873260818445305e-06 -1.954970445376826e-05 -8.990710564882294e-06 -0.0002413238607034291 -7.014338124998114e-05 9.720031265343068e-05 -7.182856997992024e-06 -4.725112654935795e-06 -8.060641827965893e-06 
-2.056681121767251e-05 -8.58377991949948e-06 -3.007989143370309e-05 -7.90886817795496e-06 -0.0002742906815133573 -0.0001720592870774809 0.000149780592861689 -9.600050764060694e-06 -8.163373434758908e-06 -8.772689316419223e-06 
-2.5427905882554e-05 -9.332418001049711e-06 -5.589299081891597e-05 -1.247874941769956e-05 -0.0003698958497609513 -0.0002924502380010993 0.0002112263240467816 -6.805729742427325e-06 -1.259903244882905e-05 -1.278410397882087e-05 
-2.248550271272628e-05 -7.057410561357052e-06 -6.494837152172989e-05 -1.357714243462463e-05 -0.0003856020921560101 -0.0003142500090195232 0.0001669766278313466 -4.84985257943548e-06 -1.899868782463103e-05 -1.776513953143342e-05 
-3.061115793822782e-05 -7.747760510896954e-06 -7.180593454910663e-05 -1.705090126032354e-05 -0.000295783894873396 -0.0002742522210056738 0.0001361610910950838 -5.65506005265983e-06 -2.35082341758777e-05 -2.456594569383289e-05 
-4.330314482876212e-05 -1.376875395626292e-05 -9.40214464504667e-05 -1.380683092887286e-05 -0.0002335768106957811 -0.0001730103285061639 0.0001655346854897907 -6.239553380827189e-06 -2.366586804506001e-05 -3.525202614110615e-05 
-3.943554984043078e-05 -8.086317999495438e-06 -9.839035485914155e-05 -7.216377679089466e-06 -0.0001382416564905058 0.0001088847619834685 9.949047108262736e-05 -3.959904272629992e-06 -2.429538700805994e-05 -3.643145432058552e-05 
-3.181628401321852e-05 2.362257593395171e-06 -8.314517816390983e-05 -6.863023736633048e-06 -9.203330276034959e-05 0.0001554676459253213 9.799156846442204e-05 -2.575377275873857e-06 -1.939998143328327e-05 -3.782047970761226e-05 
-2.633187395704043e-05 7.60390307446363e-06 -5.178556111072668e-05 -2.703875193876268e-06 -4.515127300402522e-05 -0.0002909225599135929 0.000114506445266135 -1.631831244446701e-06 -1.204312740504797e-05 -2.81222085482632e-05 
-1.876799959143992e-05 -2.692605982706202e-06 -3.1197896222501e-05 -9.595746922088067e-07 -3.255642714017285e-05 -0.0002109691346725081 0.0001108892180389255 -9.308338532534426e-07 -6.30866689669121e-06 -1.505788709723199e-05 
-1.113332424083247e-05 -2.874742546511135e-06 -1.935499533141281e-05 -4.835190371328242e-07 -2.994624349189952e-05 -0.0001644902821924352 8.34369437401792e-05 -5.765510136732322e-07 -3.962437988042576e-06 -9.575267846309115e-06 
-7.443560165004067e-06 -3.710588504669305e-06 -1.258975779330338e-05 -2.04247322610385e-07 -1.351562054890335e-05 -9.256686197653844e-05 6.488242687290464e-05 -2.690667151242046e-07 -3.445907056827371e-06 -3.919708352142142e-06 
-3.925167406873968e-06 -1.202688785085805e-06 -1.890970892469452e-06 -8.413324104561471e-08 -1.287817824781614e-06 -7.646640449641706e-05 2.798653424782596e-05 -1.036638850631684e-07 -2.417328833223239e-06 -4.963167749085824e-07 
-3.425688067802639e-07 1.522083545611526e-08 7.012529773870098e-07 -9.20136659864412e-09 -5.55523067817566e-08 -8.413977751862856e-06 1.008824155741036e-06 -1.617993748205768e-08 -8.175751963585617e-07 -1.989820975447677e-08 
0 0 0 0 0 0 0 0 0 0 
0 0 0 0 0 0 0 0 0 0 
0 0 0 0 0 0 0 0 0 0 
0 0 0 0 0 0 0 0 0 0 
0 0 0 0 0 0 0 0 0 0 
-1.084942241339772e-08 -2.971714522649873e-09 2.957874958632293e-08 -1.249030491387032e-08 -9.922782459462536e-08 -3.286835072166606e-08 -2.682871539323657e-08 -5.093229312283078e-09 -2.856991239376116e-08 -1.991780301665421e-06 
-3.913088798855293e-07 -6.970701683090885e-09 -1.211896890286788e-07 -2.115519439912748e-09 5.387982352071712e-08 -1.231581239479043e-06 1.576493645516213e-06 -8.546806767295163e-09 -4.979804987285692e-09 -1.07503384515863e-07 
-3.126162048622176e-07 -5.458535805147607e-09 -9.812651007176153e-08 -1.196346704287122e-09 4.704482206288504e-08 -9.839595819091821e-07 1.26226045404561e-06 -6.635161129092975e-09 -2.849152433764281e-09 -6.89653960328363e-09 
-3.655610178979749e-06 -3.139475661657404e-08 -6.002323289735023e-08 1.435377884978353e-06 -1.055782702183416e-06 -1.983705926163107e-05 1.077820439392781e-05 -2.132020594255841e-07 -1.108419442723844e-07 -8.664855932377165e-08 
-7.649183641280748e-06 2.28625874949169e-07 1.816259439743973e-06 1.451768269603276e-06 -1.069243811696182e-05 -7.841392636033375e-05 2.491483970862211e-05 -4.168576727991413e-07 -1.057736610013483e-06 -2.591353860549666e-07 
-1.034570189698769e-05 -2.700168230191026e-06 1.532674795276527e-05 -4.128129308496524e-06 -5.96957708338342e-05 -7.968617998228832e-05 2.615858428086653e-05 -6.368230699506018e-06 -3.635523295730893e-06 -1.338801887103923e-06 
-1.689485058286324e-05 -1.629993892322122e-05 3.307984155320817e-05 1.302579927665589e-05 -8.535630441314755e-05 -3.419277099072856e-05 -1.187125172428187e-05 -9.536231577028869e-06 -6.753969740215465e-06 -5.471892372035613e-06 
-3.200668119540207e-05 -3.009919881129593e-05 6.674088316753204e-05 -3.749679817753119e-05 -0.0002052586234789412 -0.0001708414553391373 -5.566746806722552e-06 -1.649907447360562e-05 -1.115958488963313e-05 -8.654920546576375e-06 
-4.354885221829091e-05 -4.345557014188378e-05 9.040944020144418e-05 -0.0001158037379413245 -0.0003301169850551695 -0.0003930817494471373 2.82718315220259e-05 -1.936521494477632e-05 -1.52941812963292e-05 -1.50214834344234e-05 
-5.2320626016627e-05 -6.395769278888943e-05 7.528671565592178e-05 4.100410469611005e-05 -0.0003901942850453448 -0.000590015645851422 2.935239946994135e-05 -2.32303643974156e-05 -2.493555121180778e-05 -1.9235882416886e-05 
-6.588207809157988e-05 -6.673615551743502e-05 7.578687001194195e-05 0.0002105888183596457 -0.0005541716155348342 -0.0007874687243924207 7.251568192898055e-05 -2.418021292977776e-05 -4.712071314226984e-05 -2.383164049336326e-05 
-6.0835841071652e-05 -7.38143444894423e-05 5.77161380776323e-05 0.0003002162690052773 -0.0007836457810014842 -0.0008825593979578547 0.0001089489883646152 -2.794669707571637e-05 -7.165606520017118e-05 -3.757078854368302e-05 
-7.937306643668249e-05 -7.582237934856579e-05 3.090382891192291e-05 0.0002582247983099673 -0.0007000320049602092 -0.0006974569352504837 0.0001419333718958224 -2.994004798482546e-05 -9.478444607636426e-05 -6.00893135615079e-05 
-9.114506127735134e-05 -6.64531953796298e-05 -2.487885582800684e-05 0.0003235248257418895 -0.0004295051215255685 -0.0007888933678044807 0.0001405442012469455 -3.599057058713131e-05 -9.272633794223274e-05 -7.767546185353079e-05 
-0.0001077809332837748 -6.622973530021882e-05 -8.026091690194557e-05 0.0003203553966601591 -0.0001902955491165796 -0.0005962430542435497 0.0002261253265307261 -3.287261189413645e-05 -0.0001112798012714332 -9.223244213162742e-05 
-0.0001299789503651255 -7.40394941951801e-05 -9.674434583742756e-05 0.0002027958298787788 -0.0001624213301269418 -0.0002666928273871326 0.0003283661424825539 -2.290167952498762e-05 -0.0001141680258692094 -8.850908051670214e-05 
-0.000141823319733492 -6.231286647433148e-05 -8.934498317999974e-05 0.0002559401531365127 -0.0001968294787175976 -0.0001374815517471062 0.0003588322897433184 -2.18778323912922e-05 -9.543349745253619e-05 -7.505620589114228e-05 
-0.0001274230228553353 -3.847621334913871e-05 -7.507771892231327e-05 0.000276538742905534 -7.375339923970638e-05 -0.0003238923619066851 0.0003606345250757709 -1.74627780084926e-05 -6.565263030519554e-05 -6.085661976680088e-05 
-8.539864606439133e-05 -2.201151645252339e-05 -5.432906198113773e-05 0.0001224094576203606 -9.913796621433862e-06 0.0003161385216975101 0.0002434125974643007 -7.184357074085553e-06 -3.359136695133534e-05 -3.208201346346873e-05 
-5.581164464593145e-05 -2.107368171079307e-05 -3.713491165513569e-05 6.394233167895078e-05 -2.910328965077095e-05 8.706201732961162e-05 0.0001629688021890386 -3.45774289222289e-06 -7.044184106568025e-06 -1.702776359717023e-05 
-3.564855515231641e-05 -1.096840167370585e-05 -2.518296285250468e-05 4.055898226576423e-06 4.758968707163193e-05 -0.0005157934696063296 0.0001101173357085779 -3.368451307085634e-06 2.223077575755889e-07 -6.381457350206363e-06 
-1.815125739557596e-05 -1.094839088559746e-05 -1.191471834469581e-05 -4.734972278052226e-06 4.626604498960782e-05 -0.0006063245712306276 0.0001070148663384984 -3.681018138282681e-06 -3.802209981271352e-07 -2.353837249579087e-06 
-2.579261417540626e-06 -4.0658702127737e-06 -4.815447866880568e-06 -5.28535880673359e-07 -3.675070503416573e-06 -0.0002550548464804031 5.975897741223121e-05 -6.112403498354629e-07 -6.309531097212116e-07 -2.578186133302481e-07 
-2.833012316239809e-07 -2.215380162779255e-07 -7.597109802311975e-07 -6.555230915224646e-08 -6.209241984726757e-07 -5.5910235184678e-05 1.189843433235537e-05 -2.26035207638079e-08 -3.199507795324018e-08 -2.250626349319869e-08 
0 0 0 0 0 0 0 0 0 0 
0 0 0 0 0 0 0 0 0 0 
0 0 0 0 0 0 0 0 0 0 
0 0 0 0 0 0 0 0 0 0 
-5.582761490720745e-08 -1.317284669069078e-09 -2.502027981365474e-08 -9.060107785317196e-10 -1.333926444078835e-08 -1.33191069312234e-08 3.136550172971952e-07 -1.075666666468116e-09 -1.386903280260207e-09 -2.936982499458028e-09 
-4.760351122788121e-07 -8.073672131880268e-08 -1.104320821439143e-08 4.683720661328318e-06 -1.376870249835474e-07 -4.2995264319922e-05 2.561815926286261e-06 -3.264553960031065e-08 -7.628538735062705e-08 -2.804221331142632e-08 
-1.613219882112904e-06 -4.97869814244599e-07 -4.765379237930943e-07 2.887520870235603e-05 2.732704462587971e-06 -9.633909734535719e-05 2.80047090206647e-07 -6.404742344272132e-07 -2.640371859000625e-07 -2.972793668638522e-07 
-7.821244046577062e-06 -1.397060797719206e-06 6.410206955763457e-06 7.426965338591025e-05 1.813733796328036e-06 -0.0001814792469657086 1.96005297012092e-05 -1.353550753836546e-05 -1.866520667516386e-06 -1.23898371165481e-06 
-1.703602890785122e-05 -5.852434059007376e-06 2.718600765932202e-05 6.00503957434857e-05 -2.288331833504491e-05 -0.000341322379285364 3.789932633716687e-06 -1.12425557367016e-05 -2.73428273493312e-06 -5.810638541079763e-06 
-3.356561780130725e-05 -3.123941974984426e-05 6.34932208851317e-05 5.116436995267683e-05 -0.0001083055111282529 -0.0005351419220935345 -1.567730275185269e-05 -2.542615170528257e-05 -7.116786826976627e-06 -1.317133269267389e-05 
-4.978863444178487e-05 -7.157959110562128e-05 0.0001041798326942015 0.0001090904137143691 -0.0001590393335208742 -0.0004483826856454605 -7.511959391166735e-05 -4.132508273531692e-05 -1.105610659514868e-05 -1.8117849838913e-05 
-6.196256572861098e-05 -8.764236128861561e-05 0.0001444118072017222 0.0001784193301085916 -0.0003639742527330686 -0.0003504576201561448 -8.783415775011949e-05 -7.081265092515732e-05 -2.324014365786108e-05 -1.74828109943324e-05 
-0.0001097330768980404 -9.176953866652349e-05 0.0001706287323831785 0.0001192151176091151 -0.0004242084386208173 -1.069333035236619e-05 -1.259005938408332e-05 -8.383324055173574e-05 -6.008249774996443e-05 -2.796638074045982e-05 
-0.0001061114834588017 -0.000113320245158649 0.0002062147041589689 0.0002650025743484185 -0.0004104915267992532 -0.0005407157433110764 -0.0001202959187033943 -8.923538943488561e-05 -8.310237522046465e-05 -3.70635766610378e-05 
-6.331156049407924e-05 -2.654219049088334e-05 0.0002039036957977915 0.0004119546226564409 -0.0005283243988616241 -0.0001407831445289244 -0.0001280937450990282 -0.0001177285734922481 -0.0001060334376763734 -3.676822357859966e-05 
-2.101390235343068e-05 1.193008392342274e-05 0.0002014428598667641 0.0001133413979105719 -0.0006899734781394049 -5.570253508401276e-05 -6.46903170660511e-05 -0.0001337620448894525 -8.494995948622695e-05 -4.580686958968787e-05 
5.867456534759236e-06 -3.030002827155694e-05 0.0002238893958048461 -1.053183730083354e-05 -0.0004934761818193927 -0.0001001897898988188 -7.099680812303558e-05 -0.0001609910113010617 -4.685882441939604e-05 -0.0001072572230003851 
1.096190945353868e-05 -6.340489389005431e-05 0.0001874750898226457 0.0002669319987592264 -0.0004615011540096764 0.000101991839341049 -2.073695880147275e-05 -0.0001999254880472677 -1.519206249857451e-05 -0.000151882099336575 
-6.025224425861095e-05 -5.447576094329221e-05 0.0001395031681208911 0.0003124532318351281 -0.0003222477901301486 -0.0002525137246665173 7.712887990199354e-05 -0.0001926904340760288 -4.678538255663685e-05 -0.0001746584457812982 
-8.182652434753654e-05 -3.840988675908421e-05 3.574219415334774e-05 0.0001033500045026088 -0.0002610713532635492 -0.000308056788589886 0.0002038284983701833 -0.0001573107775970153 -0.000117254417495579 -0.0001601640406568394 
-7.718914583055668e-05 3.041282640324858e-05 -3.053174988917048e-05 0.0002166871785558623 -0.0001553015285831644 -2.127899870295729e-06 0.0002500457604611169 -0.0001069623423624843 -0.0001874121857966106 -0.00012319909997464 
-7.509373569585773e-05 0.0001173101861268458 -7.512852807915516e-05 0.0001659356185967605 -4.348824297108725e-05 0.0002223884247159829 0.0002536503657853384 -8.690954362447068e-05 -0.0001728279666970492 -0.0001006660635999597 
-7.566155648423519e-05 0.0001339049612454121 -8.119109900186022e-05 4.728641323401038e-05 8.610566905192918e-06 -2.882983715973087e-05 0.0002356682387612064 -5.254582206831421e-05 -0.0001063996782598703 -6.773114711761172e-05 
-6.288742304175542e-05 7.827494401742086e-05 -6.983760562070714e-05 -9.845068627285866e-05 4.30087063899298e-05 1.187624461132518e-05 0.0002211919260525287 -2.914974056957946e-05 -3.781274613748416e-05 -4.535524478456059e-05 
-6.065109941937554e-05 5.315056670789554e-05 -5.623927379073265e-05 -8.803426617123005e-05 0.0001631335210244224 -0.0003897756276768562 0.0001061786756809936 -1.842375769280007e-05 -1.032912858345758e-05 -3.316392936172095e-05 
-4.54476514223454e-05 1.340270374191334e-05 -2.886374829824679e-05 -0.0001431072195219912 0.0001085402467985638 -4.133822302341453e-05 6.450398469970401e-05 -1.179730432924522e-05 -1.310412530318965e-05 -1.541337401678524e-05 
-1.49872382155805e-05 4.461151161315399e-06 -1.884118128379435e-05 -3.338291697089008e-05 7.226391021497487e-05 0.0001572525881307927 3.098166689808524e-05 -8.583812613279123e-06 2.719092622267159e-06 -4.396200396152839e-06 
-4.15199923353107e-06 -2.5921399237571e-06 -2.872140626672536e-06 -1.010098144084549e-06 -1.166344384025995e-05 -0.0001766515300354861 1.510352460385014e-05 -7.900008602891143e-07 9.536276552774108e-06 -6.929150918894128e-07 
-2.187886916994422e-06 -1.371133668489588e-06 -5.430318899430824e-07 -6.011373365539971e-08 -1.323625030334013e-05 -2.717905339962535e-05 5.431275026117008e-06 -5.755905438253307e-08 9.689765102299488e-07 -5.306740531384091e-08 
-2.261485134068116e-09 -1.28146490366654e-06 -5.05389146780855e-07 -9.253815698155189e-09 1.902689252707793e-07 -2.958874286585307e-05 5.835267128364234e-06 -8.115965567990797e-09 -3.644916485072867e-07 -3.519365553445044e-09 
0 0 0 0 0 0 0 0 0 0 
0 0 0 0 0 0 0 0 0 0 
-3.309826709907693e-07 -1.478398985568984e-07 -2.004602715347233e-07 7.467589205688692e-06 -2.268536375234252e-06 -2.764133584481231e-05 2.148793084145108e-06 -2.532024148725259e-08 -2.173231648660039e-08 -2.455495105539595e-08 
-7.910223544293985e-07 -4.889132538263267e-07 9.848356070974762e-08 2.803440500361012e-05 -2.642447487394403e-06 -8.494064058201858e-05 -7.611022105199193e-07 -9.861482663513362e-08 -2.735452895911087e-06 -2.311818186131122e-07 
-3.005340399565525e-06 -8.760454941773557e-07 -2.001266693922659e-06 0.0001287259613957336 2.97088032058808e-05 -0.0002192047281512824 -1.51520213783295e-05 -1.433649254415237e-05 -7.706894371463915e-06 -3.336600786102929e-06 
-1.515954654649822e-05 -5.197558070622998e-06 1.057991021835372e-05 0.0002339592058879043 4.44591773772076e-05 -0.0002888186223643411 -4.160663215451635e-06 -4.08619905069612e-05 -1.526236844415853e-05 -2.168348364293668e-05 
-3.81222316262235e-05 -2.392843562135708e-05 6.660361615934509e-05 9.329107182581515e-05 5.430046455109828e-05 -0.0003627524087393081 -3.786014663884789e-05 -5.965858133952368e-05 -2.514036095694875e-05 -5.350818134649827e-05 
-6.798405229897864e-05 -6.50496376659915e-05 0.0001010629474215645 0.0001084789936641766 8.854635315326344e-05 -0.0001478257279265298 -7.87264035888245e-05 -9.217538489226405e-05 -6.713139692292193e-05 -8.880509012407353e-05 
-0.0001012485888130551 -9.798532275718788e-05 0.0001350690268946009 9.714571433904677e-05 -9.977710389435379e-05 -0.0004048045495097414 -7.654358545070185e-05 -0.000117928943534899 -9.117393249133196e-05 -9.785266306688698e-05 
-0.0001302305250103946 -0.0001281011771240422 0.0001847149048932344 4.009576899518264e-05 -0.0001758777428865575 -0.0001178655904048316 -0.0001284981790401739 -0.0001265619410427403 -0.0001430426356184916 -0.0001094918857471553 
-0.0001503360110917821 -0.0001651942233198735 0.0002054766471094393 6.177942635155877e-05 -0.0002294080742547893 6.043774165224011e-05 -7.676486409348666e-05 -0.000127611450034766 -0.0001371778480159319 -0.0001387448890256786 
-9.078510685887583e-05 -0.0001258966477708312 0.0002304898444655247 0.0001487333172482738 -0.0003101098498940664 5.611542841930462e-05 -0.0002333935585225597 -0.0001921196262210567 -3.468829226123773e-05 -0.0001220861422150529 
-2.271037483586803e-05 -6.435353121476582e-05 0.0002438870569994021 0.000337107550810236 -0.0001468806200010252 -0.0001899568546370047 -0.0001888787516826182 -0.0002808918186243254 5.193635764111567e-05 -0.0001343561906339103 
9.472888044667233e-05 -4.38937990139501e-05 0.0002675738624644671 7.685254431318356e-05 -0.0002786384436048225 -0.0005368196362389156 -0.0001890760772345883 -0.0002592169178101702 0.0001330670280259424 -0.0001718226652785186 
0.0001308384329451314 -5.242486179634464e-05 0.0002601107481556194 -0.0003349606493445262 -0.0002753413776201053 -4.167763079314056e-05 -0.0001414965226117627 -0.0002594955157684721 0.0002044044961727938 -0.0003024934374707357 
0.0001811094448031079 -5.579600089131161e-05 0.0002534119623945954 -0.0003071810647050547 -1.607046096209645e-05 -0.0003019997866117164 -0.0001915401287646552 -0.0003586174054034366 0.0002394040126509836 -0.0004191068967289588 
0.0001405398375601448 -7.458918227519616e-05 0.0002279199231195453 -1.259183644497005e-05 0.000168012964325002 -0.0001801910068821211 -0.0001718349952373801 -0.0004144298143829218 0.0002823457844228062 -0.0004710151499373747 
8.217461000353969e-05 -2.613676663470091e-05 0.0001450248614413131 -0.0001149889079606699 -7.688503206934476e-05 0.0005519589468988775 -6.134548797080436e-05 -0.0004147483039784684 0.0002140087018626129 -0.0003854708921474621 
2.815695038845929e-05 8.843725869737218e-05 3.891460481790726e-05 -8.169517039593464e-05 -1.884185925690144e-05 0.0001919207826382946 9.964088181418899e-05 -0.0004240766133705966 5.906128264497053e-05 -0.0003355356212138743 
2.467657341312676e-05 0.0002031910534568837 -5.173193234615075e-05 -0.000145825624703422 0.0001814046956838328 -5.398595121112322e-05 0.000104097032832752 -0.0003711412582637128 -4.779092667913028e-05 -0.0003228025590645174 
-4.371569189921989e-05 0.0002199035695783205 -7.519015017502613e-05 -0.0003251433201271323 0.0002404410689876852 0.000425000174695219 0.0001097706637440405 -0.0002600343748920682 -3.055498355415148e-05 -0.0002703947987228957 
-7.220977514659764e-05 0.0001571035420275397 -7.193037618479149e-05 -0.0003636023580113066 6.448927065628781e-05 -4.038729792415012e-05 7.337570003023157e-05 -0.0001703434792673441 -4.497142317422585e-05 -0.0001967957330611759 
-7.200379330824014e-05 6.578295265045923e-05 -7.017882579171994e-05 -0.0003001602214842532 0.0001198018236707694 0.0006041237615617085 -1.490158931916267e-06 -0.0001276229130672545 -3.962423544623867e-05 -0.0001619428708615304 
-8.988303826569474e-05 1.378729761395217e-05 -4.467402348693292e-05 -0.0004120414510000277 0.0002153673009591021 0.0007108468851854599 2.992195274404937e-05 -8.675260502655991e-05 -3.563440172487678e-05 -0.0001206636777367035 
-6.237363510855174e-05 -1.130621273338825e-05 -2.880118552966921e-05 -0.0001057655513496377 7.397627490161678e-05 0.0002836049376861845 4.951904792367353e-05 -4.409452479395107e-05 -2.125122251381552e-05 -5.746253367741994e-05 
-1.496484082261642e-05 -1.411787828534014e-05 -7.992313375878028e-06 -1.010567708278855e-05 -4.326572214952968e-05 0.0001163153124596356 3.757508049891327e-05 -1.217840004485616e-05 2.930940567135024e-08 -1.299100762657653e-05 
-3.399977272798924e-06 -8.504018396615291e-06 -2.176874485838095e-06 -2.833845519345914e-07 -3.298029145345838e-06 6.109083922652546e-05 1.878299218248025e-05 -6.248982813898452e-06 -2.658262422049428e-06 -2.600901166743931e-06 
-3.338382816957693e-09 -1.891686286364892e-06 -7.460506452479289e-07 -1.366039460203861e-08 2.808731753997215e-07 -4.36786204210212e-05 8.613965760918631e-06 -1.198071107655784e-08 -5.380591001774232e-07 -5.1952539122284e-09 
0 0 0 0 0 0 0 0 0 0 
0 0 0 0 0 0 0 0 0 0 
-1.1900087768931e-09 -1.886614799038923e-08 -9.524445424758629e-10 8.189716072595102e-07 -2.809462777451203e-08 -2.986227149325912e-06 5.362646426847048e-10 -1.506015805388666e-09 -1.858194171263145e-09 -6.964830783544737e-10 
-5.961333872173911e-07 9.626657808710517e-07 -3.406098024924247e-06 0.0001167731318061659 -1.452678914444355e-05 -7.088875338043095e-05 -1.406765936288453e-05 -5.118153945735364e-06 -3.773742591110041e-06 -2.110378080920804e-06 
-6.280060941576029e-06 3.637183313012108e-06 2.637224634870154e-06 0.0001271887750109935 5.056114961619025e-05 3.455096988519102e-05 -3.003203060720157e-05 -3.612402967215411e-05 -1.923775853084964e-05 -1.664990900051247e-05 
-2.528048933401557e-05 -1.765145869348417e-05 3.467341051796388e-05 0.0001947614261575784 2.164686348691457e-05 5.130954816425229e-06 -3.76600657583717e-05 -2.135024849046974e-05 -3.468083392337392e-05 -5.426769508875237e-05 
-5.008086554455877e-05 -5.068571194469023e-05 9.924010506889681e-05 0.0001294787790560363 0.0001195069492426453 -0.0001035406767134726 -7.248145543107176e-05 -2.357934817082259e-05 -6.892917190354814e-05 -0.0001289330796076922 
-8.089767078655309e-05 -9.920999389773158e-05 0.000128839522799741 0.0001050964770207426 0.0001766468172545027 0.0001034683092798195 -0.0001179315628225367 -5.361616924523443e-05 -8.132281064909412e-05 -0.0002160718308750074 
-0.0001173253482519656 -0.0001545445521797584 0.0001575489978228516 0.0001733716275806584 -4.306844181444679e-05 -5.006800325135944e-05 -0.0001113450703294678 -5.781306127908828e-05 -8.600153321634344e-05 -0.0002006782839485671 
-0.0001468454555433048 -0.0002075389622782671 0.0001703163858292165 0.0002485090866606754 -0.0001133089909708317 -6.723354357212476e-05 -8.047260601398437e-05 -8.675915580523951e-05 -0.0001137674004352801 -0.0001768040811534264 
-0.0001398322155390996 -0.0001961393865469312 0.0001685533516447306 0.0002693864654083317 -1.455844292809467e-05 -0.0007624421025695065 -0.0001344135710301691 -6.976097066042717e-05 -7.008065239637913e-05 -8.689785572540882e-05 
-6.098016960319126e-05 -0.0001578170827608051 0.0001671167538212463 0.0002811605699244021 -0.0003044779291702005 0.00031922387986224 -0.0001906857151897899 -0.000101142534434566 -2.818289911066812e-05 1.591379898371824e-05 
2.366860828520699e-05 -9.375148038097422e-05 0.0001735639325744401 0.0002171832211351477 -0.0001371976691785646 -0.0001895984043635683 -0.0001709841244850247 -6.339949261057816e-05 2.729502029040964e-05 0.0001419102924787252 
6.134344853151464e-05 -4.774309582785254e-05 0.0001771810029087027 0.0003474983904966264 -0.0004513855617936685 -0.0001534045210805142 -0.0001905009400270797 -0.0001094112496179881 7.869780884022426e-05 0.0002736050798267369 
0.0001128751427159115 -0.0001000224290236855 0.0001730463005103564 0.0002781354564717709 -0.0006440021632509279 0.0006925004709238154 -0.0002333086775388903 -0.0001767414401246307 7.812054638009262e-05 0.0003485162321526572 
0.0001716266227977728 -0.0001565926458377955 0.0001819150683125582 0.0003311998572984314 -0.0005975845832496166 0.0001784967246661874 -0.0002146651228315515 -0.0002404758642989806 0.0001887261742540019 0.0003588549333308526 
0.0002354027310559647 -0.0001507199869899517 0.0001442369743278137 0.0001988215275899798 -0.0002439101081788596 6.945536334887932e-05 -0.0002492230968395258 -0.0002313759450159607 0.0002866831287821649 0.0002648333501283912 
0.0002011177576848945 -0.0001150511401060956 8.133367759089995e-05 4.594113752868877e-05 -3.451832295899772e-05 -0.0005355742014462503 -0.0001227973203707708 -0.0001311413215599105 0.000239461093626062 0.0001672037903072648 
0.0001240831791226666 8.718504804247579e-05 -4.888915881110396e-07 2.999572379375721e-05 -0.0002841759868310238 -0.0001356130452478942 -5.429490246266097e-05 -0.0001769552993242875 1.872258369541644e-05 7.315283578203483e-05 
8.950471774498733e-05 0.0001284523156398989 -4.450790121040244e-05 -0.0002116179950908097 4.709419404361265e-05 6.794714443891831e-05 -0.000114296582135349 -8.726009750101396e-05 -8.575408220426117e-05 -5.920821574666616e-05 
1.454188758833084e-05 8.70514155517425e-05 -5.170387523589723e-05 -0.0001270774403469206 0.0001150405953571141 0.0004041933677743905 -0.0001439744933505318 -3.628326785282068e-05 -4.881179936499152e-05 -0.0001447591282125127 
-2.199603003370358e-05 6.970580457108037e-05 -5.198125270583669e-05 -0.0001331233774735638 6.992713272325354e-05 0.0002014038317325653 -0.0001398354028539075 -4.938659262281894e-05 -6.936766643560035e-05 -0.0002725849878826165 
-5.549290520756215e-05 -9.525855469902137e-07 -6.671928002880049e-05 -0.0003597289862648608 0.0002123578523585605 0.0006609740006707381 -0.0001038261534250153 -6.893338901254491e-05 -6.941471832615273e-05 -0.0003178940592484234 
-7.86231360638126e-05 -4.028721044536163e-05 -6.605415628642525e-05 -0.0005431685687703897 0.0002626626017280805 0.0006986927584279116 -5.114220512785815e-05 -0.0001461129109333956 -2.010052406447572e-05 -0.0002504107089974312 
-8.425748261207784e-05 -4.563645653915038e-05 -4.060892848024416e-05 -0.0002626945194865404 -1.71798234991763e-06 0.0008695202672030002 -9.390935445626315e-06 -9.130995965182609e-05 -2.659542489679676e-05 -0.0001286267800071799 
-2.951612376668373e-05 -1.989564131368494e-05 -1.36542557980843e-05 -1.92033114119993e-05 -7.019330309948218e-05 0.000175171858211298 1.116928361492092e-05 -3.939552698915122e-05 -9.138216575130806e-06 -3.493585618698539e-05 
-5.61495020567219e-06 -6.753222812579099e-06 -3.620048668145157e-06 -2.575542415614611e-07 -1.192098133031843e-05 0.0001017559494109906 -1.047491839806984e-05 -1.670244703990647e-05 4.482807115678267e-07 -7.029430903397853e-06 
-3.091326977254657e-07 -3.815149282475533e-09 -1.711980165027345e-09 -3.201376155783924e-09 -3.508774768256754e-08 1.053283510291578e-06 1.050299435774337e-09 2.661907640006517e-08 -4.443812371064138e-07 -2.936594821417199e-08 
3.555501704320637e-09 -3.273628575896285e-09 -3.648045568107088e-09 -4.020779406968159e-07 -4.801774957329416e-08 -6.204269110371504e-09 3.296344081574652e-09 6.593157233290434e-08 -2.744682206415937e-09 -1.471864611900644e-07 
1.45511818499248e-08 -1.338320013147825e-08 -1.496745174463292e-08 -1.696348548755529e-06 -1.957313417334496e-07 -2.537387136982213e-08 1.349635109413884e-08 2.681968071573715e-07 -1.122179839237915e-08 -6.097553838461515e-07 
-2.562950754810825e-08 -1.181941807690464e-07 -7.171129312583634e-07 -9.917488107514917e-06 -9.10406215926988e-07 -9.647053848024261e-06 1.203444922624237e-07 6.946011171672769e-06 -1.409545310274668e-07 -3.1163284096163e-06 
-3.199782273286231e-06 1.894199362488806e-06 -7.104548710724151e-06 6.059045179129783e-05 -1.738264761898232e-05 -0.0001610173022214474 -1.036717501406646e-05 3.913009445535898e-05 -3.354521144325601e-06 -2.142370874911515e-05 
-1.587903335539325e-05 -3.933800609823554e-06 9.178220238761596e-06 0.0001101942464347868 2.022946438471424e-05 -8.551516475762814e-05 -2.697482188507529e-05 2.792627619040579e-05 -2.000333373218567e-05 -5.372083800015259e-05 
-4.161906005709211e-05 -3.115747823228122e-05 5.978886135811839e-05 8.97298740887132e-05 2.048556488033874e-05 -0.0001832803537063379 -5.090881966708833e-05 7.663964839231736e-05 -4.503763045963264e-05 -0.0001215202886287449 
-7.159653537567704e-05 -7.230536104860358e-05 0.0001056344436884194 -2.277275298389894e-06 0.0001324130035210864 -0.0006197929441926665 -8.919368015702969e-05 0.000141635938837976 -3.055568156289271e-05 -0.0002443867839185796 
-0.0001109058170305918 -0.0001372861711735867 0.0001230937361430635 -3.901918972254173e-05 0.000125223276060332 -0.0003464044620013149 -0.000141668546307933 0.0001107177394398622 -7.207284455301648e-06 -0.0002719963177679339 
-0.0001186920585889023 -0.0002157518107214607 9.515244631315737e-05 0.0001590813335333942 -8.373231299129349e-05 0.0001659453605689727 -8.40755801357983e-05 0.0002161230572761177 -2.692999186606006e-05 -0.0003183117419027391 
-0.0001300006507866619 -0.0002498272689786242 7.674128020568108e-05 -6.827622156473269e-06 8.081679404737328e-06 -0.0004267089126665191 -4.382972083623837e-05 0.000254227330797647 4.046878675080123e-07 -0.0002330966815962789 
-8.152041866066535e-05 -0.0002356413005520388 7.188071068792653e-05 -0.0001263069064603726 -0.0001609015587124733 0.0003604832285225912 -9.139158252990466e-05 0.0002658006641156913 9.294305236879712e-06 -0.0001459506235837551 
-3.26300796563795e-05 -0.0002080120338432715 8.585744565553202e-05 -8.418793221560191e-05 -0.0004640931602072713 0.0003682270258173808 -0.0001160081292048769 0.0001561231294876896 3.386477499745078e-05 3.287638052897902e-05 
1.824237664336407e-05 -0.0001307522860590489 6.983889725171789e-05 -6.165764268166748e-05 -0.0003535427726152815 -0.0001636870820543314 -0.0001501435825863201 0.0001500432655031795 5.964336146959381e-06 0.0002845974653189451 
2.465791361394418e-05 -8.594160605077826e-05 0.0001094578437276486 9.8036454633014e-05 -0.0003305692881941422 5.631025305127414e-06 -0.0002106529698693021 -5.119968869896269e-05 -5.864271615998274e-05 0.0004996466562443892 
4.449925204192306e-05 -0.00012177552170753 7.158616375431417e-05 0.0001220998507398562 -0.0008206864301556333 -0.0001752489143079071 -0.0001624548347907835 -0.0001938112033833302 -5.168948892376869e-05 0.0008053070896596577 
0.0001045368539345425 -0.0001975332663612043 5.261342926529667e-05 0.0001878297125926465 -0.0009297565744172398 -0.0008004852768272669 -0.0001079757676878655 -0.0002412359492398649 -6.017004069977138e-05 0.0009759965111946548 
0.000204326230545383 -0.0002371408522036194 2.464953621092743e-05 -1.902354500975704e-05 -0.0007636042182203816 -0.0001801632018090265 -0.0001839585287352081 5.21209070356828e-06 -9.585417150682834e-06 0.0007431189504401 
0.0003177416683901487 -0.0001163381306600344 -4.98503168930102e-05 0.0001646534039215294 -0.0004263940416593677 0.0002221714378718353 -0.0002195586807384665 -3.814321572511264e-06 9.594404795151066e-06 0.0003723013948414737 
0.000193379046466153 5.118883403518587e-05 -9.088093062782576e-05 2.259177379663098e-05 -0.0003404489608234034 0.0004693769190267752 -0.0002648430915924405 2.040283536511328e-05 -3.440029168662007e-06 8.080664543385096e-05 
9.26457687511455e-05 -4.602481848347416e-07 -7.875263527557556e-05 6.693962782004165e-05 -0.000173889446105794 -6.214898992338273e-05 -0.0003048979776364027 6.153615762836871e-05 -5.135294385241592e-05 1.191086432097753e-05 
3.683539866081376e-05 -2.756229896680733e-05 -4.606857906586096e-05 2.722173819780956e-05 2.035650053680884e-06 9.514600195604027e-05 -0.0003065540284887396 0.0001187113548318519 -8.296462271920636e-06 -0.0001241419464936079 
2.387404272628675e-05 -1.540020340638839e-05 -1.809690511109795e-05 -9.492299944324915e-05 3.522678506611877e-05 -0.0003544296122796574 -0.0002517813157433517 3.444653938044344e-05 -1.636131423491159e-05 -0.0002798241789550516 
-9.003500890993269e-06 -7.220689118042789e-05 -3.339595666558314e-05 -0.0003302533563281218 0.0002099306772465566 -0.0002092022151042454 -0.0002118876316260702 -9.674926733073784e-06 1.034502501534021e-05 -0.0003629272129641488 
-6.938188754636001e-05 -7.857188113241733e-05 -7.998546655862507e-05 -0.000454974370002127 0.0001124691205461952 0.0006230337450855883 -0.000142861218223132 -0.0001366648253516758 6.066741918983459e-05 -0.0002729672479678766 
-0.0001060231189506107 -6.168297048506876e-05 -4.573995281667839e-05 -0.0003927692106054913 -0.0001938056507108104 0.0006523628645189505 -5.483104699872405e-05 -0.0001532314169086186 3.926307088322191e-05 -0.0001426334493788718 
-6.312704884295263e-05 -3.28556586381685e-05 -1.259244362516434e-05 -6.072249112826567e-05 -0.0001629957257452603 0.001327123004486587 -4.907551809441304e-05 -8.296378840335565e-05 5.048514695525735e-06 -7.606672088823683e-05 
-1.643766159733245e-05 -2.9736915280172e-06 -5.628774906962829e-06 -6.908419524615739e-07 3.250611217505466e-05 -1.915500716869245e-05 -1.821365361184883e-05 -1.362253530197715e-05 8.133265386404884e-06 -2.294922059945515e-05 
-2.054143530207437e-06 -2.454487408919996e-06 -7.023451842076591e-08 -3.590847338441896e-08 -3.80717008731197e-06 4.63068268177993e-05 -1.393233232832736e-06 1.557805363229742e-07 -3.721903882137899e-06 -2.081152795363133e-07 
1.444895373457961e-08 -1.330346931906789e-08 -1.482503624486072e-08 -1.633976312193443e-06 -1.951359610318976e-07 -2.521309361874377e-08 1.339578126767571e-08 2.679346875656326e-07 -1.115392130692434e-08 -5.98140725261751e-07 
-1.197136583507616e-08 -1.919983832046055e-08 -2.345494688779158e-08 -2.952327652462349e-06 -2.921637418247993e-07 -4.684883494607352e-08 1.966086697434434e-08 4.445363074914384e-07 -1.601905663922595e-08 -1.004365379334e-06 
-6.566846335827173e-07 -3.957494763898498e-07 -2.610800522050524e-07 -2.351966871289676e-05 -3.507694474195657e-06 -4.060255306069147e-05 3.946982045657675e-07 1.009883767942697e-05 -6.611264243852142e-07 -8.531080839293445e-06 
-8.236578527741416e-06 2.773184221305139e-06 -5.857932154731948e-06 3.16425573733217e-05 -2.810232245527227e-05 -0.0002319663841976742 -2.075948566317145e-06 4.301784380403248e-05 -7.246693184187886e-07 -3.28468842879972e-05 
-3.123056490735229e-05 -1.078937696111979e-05 2.050757584544856e-05 0.0001415080129081263 -2.828188707922055e-06 -0.0002780262246391629 -2.285501030948862e-05 0.000105614162762002 -2.185702846691745e-05 -8.544844467323942e-05 
-6.005249394428691e-05 -4.267647239986895e-05 5.739637851521067e-05 0.0001569505949915425 -5.173665805457272e-06 -0.0005153515056994099 -8.06678935114326e-05 0.00014055473725332 4.429825809738595e-06 -0.0001608809048095272 
-9.162585210099852e-05 -8.13441357555078e-05 6.522973738256963e-05 3.764493330344128e-05 -4.849886169688949e-05 -0.0009536595700626378 -0.0001169983457171669 0.0002568666391314925 7.854900592781479e-05 -0.0002747035473707893 
-9.999924354129092e-05 -0.0001266969397211832 4.235548768948992e-05 -8.680493345635804e-05 3.094023902246088e-05 -0.0004049015311091949 -9.246120306106729e-05 0.0003029183904640028 0.000112061902432116 -0.0003971228784851683 
-0.0001006407933742153 -0.0001943615659816452 4.541290522216719e-05 -0.0003127180542572032 -0.0001735629479827359 0.0003825685217224366 -3.311011446070298e-05 0.0003314406709147678 4.2542932716066e-05 -0.0003383134348915795 
-9.424879167049763e-05 -0.0002636832851793684 4.237457840998809e-05 -0.0001921266914925328 0.0001143823913844833 7.821463757553664e-05 -2.500243395000748e-05 0.000178169825133153 5.022605649269644e-05 -0.0002179913041514767 
-8.673836914975258e-05 -0.0002818686340243704 8.30755790212622e-05 -0.0001661158958653426 -0.0002092223605651976 0.0001090601442587797 -0.0001161992965112667 0.0002774325156556961 0.0001210416929466005 -0.00022496737077466 
-1.005312641406141e-05 -0.0002982493337840197 4.496202832630723e-05 -0.0001457691381017486 -0.0002242669564193045 -3.35068510669664e-06 -2.576202246309425e-05 0.0004120060378848761 3.545950000303724e-05 -6.40393726173699e-05 
3.134673549707118e-05 -0.0002205087289994709 2.976230194467212e-05 0.000194725068657092 5.777023042644038e-05 -0.0003975365897558727 -0.0001048901969932194 0.000292472022203468 -1.304817964958701e-05 0.0001100980553221199 
3.078510093409314e-05 -3.128943839924996e-05 2.060303571069963e-05 1.309736253480533e-05 -0.0001456254094853743 2.48700703033963e-05 -0.0001950687714123535 0.0001008491544469733 -8.254285191753971e-05 0.0002659763063135649 
2.372046266974554e-05 -2.854856461918397e-05 3.762619403894239e-05 5.614043220530632e-05 -0.0007251788455018723 0.0001169323333950193 -0.0001427298740391235 -5.226907923918869e-05 -0.0002273963217317597 0.0004593450326168937 
4.83979678160553e-05 -9.672963314624832e-05 5.741367533638295e-05 0.0001311205240623154 -0.0008178536514666323 8.326569305127898e-06 -0.0001984050541781782 -4.617232206774378e-05 -0.0002230497698916917 0.0005186533298326759 
0.0001577073649615349 -0.0001044100426124096 -1.925527982648243e-05 0.0001291677992777101 -0.0004393213520475087 3.150521311020989e-05 -0.0002421524010782469 0.0001371218344557377 -0.0002153330048221038 0.0003772469021970033 
0.0002860697804312171 -3.427275916663799e-05 -4.456429764856006e-05 0.0001528779510485883 -0.000153097243093866 -0.0002499729999537376 -0.0003137228480259869 0.0001145650935026541 -0.0001458838655384254 4.868878985601687e-05 
0.0002252801974140139 -3.230254483838675e-05 -7.073764177785614e-05 0.0001739222233565282 8.403198083245343e-05 -0.0001422216758762421 -0.0003862673709195122 0.0001839249871222983 -6.639475639898033e-05 -0.0001601646491457412 
0.0001272607380343755 -7.493200167382069e-05 -6.928971556011612e-05 0.0003109058259576756 -6.467226952290345e-05 -0.0003003096444049494 -0.0003815727973253233 0.0001497628499416254 -1.130712730851009e-06 -0.0001260839699100489 
8.206758679072384e-05 -9.733249307737935e-05 -4.170820544411435e-05 4.913588677146932e-05 -0.0002030483459072644 0.000458300861301844 -0.000365444317735231 0.0001116334260635793 -2.412123342345123e-05 -8.191746302019885e-05 
6.208268057559418e-05 -9.657332789424648e-05 -2.90028741910882e-05 -3.739200763164874e-05 5.029678656205473e-05 0.000322228350815246 -0.0003254292417638914 3.611459973348333e-05 3.48637793532749e-05 -0.0002139619609627434 
5.257253234123548e-05 -0.0001187022399017324 -3.855735198362096e-05 -2.671179132203607e-05 8.304310065488725e-05 -7.717047845465375e-05 -0.0003008245883133211 8.419267093191941e-05 0.0001078858212996772 -0.0002983298740966668 
-2.556739494440819e-05 -0.0001100467829399146 -6.431387224809915e-05 -0.0003270666040999835 -0.0001354190477301352 0.0007512055095162857 -0.0002213362592432582 -7.526877364586181e-05 0.0001541700592574381 -0.0002241230842917712 
-9.666419929210311e-05 -7.925075395309119e-05 -4.407165451356948e-05 -0.000355540465775252 -0.0002114124123233781 0.0009557604012616447 -0.0001300060112320636 -0.0001207688385618249 0.0001052040022769183 -0.0001224177043072167 
-6.340256200293181e-05 -5.273185676256266e-05 -1.585304993092255e-05 -9.522612222293614e-05 -0.0002281175824451747 0.001377417082429778 -6.094437184405546e-05 -6.124325380898351e-05 3.913026258239893e-05 -7.182835045042017e-05 
-1.483496198303531e-05 -8.848254181313629e-06 -4.81635486932038e-06 -6.523913684185491e-06 -6.239453366766396e-05 0.000483532369247756 -2.984210423146403e-05 -9.714970852752307e-06 1.328624417320412e-05 -1.710267483749052e-05 
-1.132350206761084e-06 -1.734498141739018e-06 -1.413150718223316e-07 -4.855704095730758e-08 -2.74626926407371e-06 -6.169767369480283e-05 -1.04162060076496e-06 3.660231254072769e-08 2.68695510881346e-07 -9.858492363489564e-07 
3.909685890670951e-08 -1.792659560785638e-07 -1.845820993461979e-08 -3.081620039861504e-07 -7.409466082823608e-06 -2.16748332896946e-07 3.533817408743688e-08 7.438682409362026e-06 -8.685559615224732e-09 -1.009776606217899e-06 
-1.220469200808121e-07 1.437525799570338e-06 -5.811224156620588e-07 -1.382231691211263e-06 -7.875149918909333e-06 -4.924758280153331e-07 8.887281222567114e-09 9.263615680718709e-06 -4.642452589463828e-07 -2.241850529363659e-06 
-1.174952584514769e-06 -4.323413869951165e-07 4.16829298324739e-06 -5.941516646568787e-05 -2.258274867521336e-05 -2.122280552951134e-05 -3.059881841742763e-07 2.215374600753605e-05 -4.731319658210999e-07 -1.071121488839616e-05 
-1.74517625274862e-05 3.003887013802126e-07 3.964594911584413e-06 5.515083108432258e-05 -5.364185341593006e-05 -0.0002068638905686912 -1.340050020608471e-05 3.608772111091226e-05 -4.936916607032894e-06 -3.543957773023391e-05 
-3.843566203765065e-05 -1.637604420008916e-05 3.441769903453501e-05 0.0001765067632980835 -0.0001069252058675596 -0.000339497821360625 -4.782820110441143e-05 8.348919924327006e-05 -6.664500574494404e-06 -0.0001208279280973801 
-5.689743240964528e-05 -4.204512878729476e-05 3.450911314881328e-05 0.0002377718983512892 -0.0001376641763789194 -0.0005715669941214357 -0.0001017186255549754 0.0001661147332599838 6.561420637660134e-05 -0.0001664123651775048 
-8.164443610341203e-05 -8.62205544610728e-05 8.561229876671367e-06 -1.042437429614857e-05 -0.0001170681002902561 -0.0001615551584888846 -0.0001206615395849275 0.0001635471321973502 0.0001713935299213758 -0.0002489347260606172 
-6.835758473262522e-05 -0.0001057607314396936 -6.635239009236113e-05 -3.917966732101648e-05 -0.0001577820760498117 -9.498997810936813e-05 -2.936331532307163e-05 0.0002262357043664982 0.0001886540743389624 -0.0002664087160236137 
-7.907292185435725e-05 -0.0001650813095049206 -5.937095135217072e-05 -0.000240724704440187 -7.179640589062886e-05 0.0001792981674544264 7.057779789657975e-05 0.0002123223538560453 0.0001800152185392224 -0.0001754770622934098 
-8.423137980795734e-05 -0.0002012229610519849 -1.205441221177476e-05 -9.759797009338273e-05 0.0001347884824700426 -0.0002567103713974709 -1.196805507248118e-05 1.901498202319644e-05 0.0002201370215243896 -0.0001483724076679909 
-6.960123474254426e-05 -0.0002439028588097714 2.184933303733709e-05 -0.0002004375868011384 -0.0002920362552269033 0.0002859499075674196 -7.778658483860421e-05 5.653865935549853e-05 0.0001938882581034211 -7.352835948832359e-05 
-2.521803385688944e-05 -0.0002576687262833708 -5.418116841610532e-06 -0.000438960875056793 -0.0001221349616255077 0.0004262385447375895 -3.521788428084101e-05 0.0001504923352468568 8.293445167186271e-05 -2.188504401040492e-05 
-1.019272033328889e-06 -0.0001310374347379334 -5.51005704268887e-05 -0.0002239204968889972 -0.0001296219318846716 -8.483635931248586e-05 -8.620910483418655e-05 0.0002669383405569452 2.656343675232659e-05 0.0001007907925077831 
4.335532278083317e-05 8.453126805552077e-05 -4.205938156202355e-05 -0.0002229824062132302 -0.0002764090948703704 -0.0006276448628948975 -7.204840281523799e-05 0.0002318370960763262 -0.0001046088454517084 3.155847750375381e-05 
1.958720757617058e-05 0.0001315513869293458 -4.405951707625781e-05 9.317539509207376e-05 -0.0007780662159342803 -5.234218869526169e-05 -0.0001222673151355605 0.000259397876607556 -0.0001879551338949459 -2.81386346373819e-05 
2.55424736380608e-05 0.0001234974961754951 3.21933154931343e-05 0.000149403814997201 -0.000520238707187925 -0.0004209490091975926 -0.0003540884034396397 0.0002984847043037301 -0.0002741691984497902 -8.422152451503886e-05 
7.343088488130702e-05 5.219725942016155e-05 1.154592608939752e-05 9.3376738991339e-05 2.117000395070604e-05 -0.0005914489846456855 -0.0003911600093580936 0.0004742155401520172 -0.0002397086860869862 -0.0002214873267329769 
0.0001735726640435846 -7.54325118434242e-05 7.364775989771449e-06 -2.306292320499734e-05 -0.0001113951205170223 4.864512931330076e-05 -0.0004256513007211422 0.0003676640727745546 -8.441527054226162e-05 -0.0002014389374322653 
0.0002677267689383513 -9.76716982079442e-05 -9.804320552054259e-06 8.845088295440501e-05 -2.911015134326984e-05 0.00010452922055141 -0.0004599533110539515 0.0001775750294131566 -7.273480573576768e-06 -0.0002307238200342749 
0.0001875726581990063 -0.0001186522643032054 -1.922653796844115e-05 0.0002235915028991262 8.825356073694175e-05 5.687756605908175e-05 -0.0004064860083829967 0.0002277555628767414 2.786494998948158e-05 -0.0002161279404410155 
0.0001253315550620533 -0.0001517906593067254 -5.42774312327301e-05 0.0001948302477636355 -1.414561715624519e-05 -0.0002094066574445252 -0.0003549055662753713 0.0001691110728982451 5.836648915538229e-05 -0.0001027387835349878 
0.0001386619755531027 -0.0001748212857571815 -7.351825325766206e-05 4.462726365253856e-05 1.381770034595442e-05 0.0002951776745422387 -0.0003460457837193302 0.000148175088413578 0.0001565100463556147 -0.0001555303167327465 
0.0001373521238050553 -0.000160736281668045 -4.976708226769537e-05 0.0001168227198856607 -0.0001100096165408711 -0.0001591404409831919 -0.000311838531301704 5.626665343143385e-05 0.0002018747695456939 -0.0001719931400590349 
9.75467654902219e-05 -0.0001444916559297145 -7.12489915227697e-05 -4.078337742796107e-05 -0.0002843866223614739 6.668742977964093e-05 -0.0001879058067712009 -4.846354712952337e-05 0.0002097674081614212 -0.0001849092383162504 
-1.934134067302572e-05 -9.908383296588385e-05 -4.631481976867548e-05 -0.0001878637308761199 -0.0003228157364713216 0.001583218930145232 -0.0001547423007207828 -7.528680336041867e-05 0.0001233053935525461 -0.0001059792291791951 
-3.743592824854976e-05 -4.851220044429393e-05 -1.469017517887075e-05 -6.360917790473229e-05 -0.0001969290275928535 0.001979723053499386 -8.888824331133329e-05 -1.10323729654028e-05 5.207630511294949e-05 -5.739272862441631e-05 
-8.320722332411128e-06 -7.944931188570966e-06 -2.655519007067929e-06 -3.507577136348509e-06 -5.630897230666595e-05 0.0007106906665382211 -5.31398503069217e-05 1.523276918986622e-05 1.857090909030281e-05 -1.779256930021381e-05 
-2.343505574566616e-08 -3.474391122742368e-06 -1.278729282221388e-07 -4.47580634523169e-08 -1.219792459204868e-07 -7.195554037581191e-05 -6.305238340450295e-06 3.490373705142533e-05 1.660449609310864e-06 -4.482316545675547e-06 
6.923209400241958e-08 -2.150400459146103e-07 -2.669942993782205e-08 -6.943786845620133e-08 -8.679629320761951e-06 -4.684279530724776e-07 2.714232423266412e-08 1.104800028084858e-05 -1.328833303384988e-08 -2.050267524587719e-06 
-3.579704169382075e-07 2.536181362987517e-06 -9.433677097351682e-07 -9.998910015582824e-07 -4.047451762313814e-06 -3.187733495765134e-06 1.037504184839403e-07 1.749707460632278e-05 -7.738590793859322e-07 -3.493721860654668e-06 
-3.329301978287018e-06 -8.120872745295913e-07 2.067219909952942e-06 -4.301733030129135e-05 -2.631283916183463e-05 -2.015808925361987e-05 -4.115598990940131e-07 4.763222117436041e-05 -5.150039258397024e-07 -1.6457897397988e-05 
-2.764223200928552e-05 -3.299238196332144e-06 4.440315510972382e-06 0.0001116923500100757 -8.34688436333774e-05 -0.0001761846241257477 -2.650366681099536e-05 8.407642959259529e-05 -1.190239286420762e-05 -5.145771374407169e-05 
-4.135768677803742e-05 -1.152904730905697e-05 -1.141338251576494e-05 0.0001191061947948355 -0.0001552152192881712 -0.0002409658008507543 -5.28455795226617e-05 0.0001374260876137891 2.138458936028545e-05 -8.277112676210172e-05 
-5.179993814023698e-05 -3.527748259667558e-05 -1.335624085458115e-05 8.103984197139108e-05 -0.0001536409593367363 -0.000205419963619164 -9.824844218204217e-05 0.0001883553422830024 0.0001076132315612247 -0.0001377459750189794 
-6.644787522730568e-05 -6.807257335189907e-05 -8.161818654150956e-05 8.732394510069478e-05 -0.0002617481148545433 0.0003588148917289032 -4.697182528769424e-05 7.17466671306972e-05 0.0001846939494306031 -6.552639022941303e-05 
-5.37820256993841e-05 -8.092123929901773e-05 -0.0001810854557163011 6.68428048273587e-05 -0.0003005048728325269 0.0003459188053535745 6.616472910503641e-05 0.000137345131926329 0.0002172373850434957 -1.088660603906705e-06 
-2.70450187601438e-05 -0.0001051738102717968 -0.0001938530766527734 -0.0001979448509646658 -0.000137768979709777 0.0001178130997712346 0.0001108854529404804 4.956305583943283e-05 0.0002120428163969119 0.0001165920886959331 
-4.65968519339107e-05 -0.0001376352954377464 -0.0001518644151091761 -0.0003850859582336614 0.0001151052044936855 0.0004689887974935802 -2.391880244343544e-05 2.251090932313395e-05 0.0002581635474974696 1.34885969320017e-05 
-6.856982134914121e-05 -0.0001695280716571615 -0.000141372232100939 -0.0008286555026703996 -0.0001573680918928359 0.0003644056634692836 -5.371319592001267e-05 1.298263249810691e-05 0.0002422021844730826 0.0001740107031876101 
5.426163883435423e-06 -0.0002012320145101296 -0.0001973957874380954 -0.0007754174763686363 -5.036641098332716e-05 0.0005401394302670756 1.28520857295739e-05 1.473356531740444e-05 0.0002417667468880423 0.0001626059508945143 
6.178474300806537e-05 -7.350431102609184e-05 -0.00020718235687849 -0.0004354865317965553 -7.586095039642735e-05 0.0004196775906891562 -6.373285387487085e-06 0.0001461429855927037 0.0001984970104138416 6.366772945709014e-05 
4.345076769263691e-05 0.0001425663244707632 -0.0002216170265744075 -0.0001407206958447796 -0.0002818868096591103 -0.0001315446028008176 9.376609057740432e-06 0.0003908393637297563 -3.448338764879555e-05 -0.0001873843895608474 
-2.592037118106519e-05 0.0002960694434506257 -0.0001542937456922722 0.0002170255426689733 -0.0008755603386136593 0.0002884918028402619 -0.0001694224665932484 0.0004123215912519902 -0.0001448018212337916 -0.0002393672678904534 
-9.264958593107859e-05 0.0003532964400533 -0.0001070409745812078 0.000545711235159555 -0.0004267459079375134 -0.0002025012335225261 -0.0003934407605974066 0.0004666778039425921 -0.0002474087834292502 -0.0001772239762724201 
-8.995418572068955e-05 8.099018160322846e-05 -3.272828145911696e-05 0.0003341108966480851 -4.894795794896812e-05 -0.000671790636946732 -0.0003845071096496875 0.000605516208874397 -0.0001628084225227713 -0.0001271971167994881 
7.394957776165663e-05 -0.0001150565003603361 1.924661083851392e-05 -2.957109856562695e-05 6.898189626281305e-07 -0.0008888434102441944 -0.0003597493062651631 0.0004457400862589195 -3.043582857342676e-05 -7.814641814395542e-05 
0.0002686907268885622 -0.0001547376098967656 3.304866410011733e-05 9.506962895665123e-05 9.005192228616223e-06 -0.0007527296944133857 -0.0002887601018764444 0.0001970571134633447 4.338530695159167e-05 -6.204089396478698e-05 
0.0002092390393754791 -0.0001748178102465075 7.076601114772714e-06 0.000342281672353788 4.695755899001029e-05 -0.0008959638301257073 -0.000195539407189078 0.0002207380107598497 9.748955796262961e-05 2.273143460281805e-05 
0.0001736748759073826 -0.0001982099258145515 -4.08960543675062e-05 0.0002304637644799273 -7.886508933180873e-05 -0.0004587394561178268 -0.0002042847871935559 0.0003085719980588895 0.0001184474389848275 9.340270453952978e-05 
0.0001729695607937819 -0.0001726459745205934 -6.771898029945925e-05 0.0001977953086659206 6.943670552545356e-05 0.0001132023505678384 -0.0002169086051299426 0.0001419662996998607 0.0001823861031145327 -1.490532326239056e-08 
0.0001961883371420141 -0.0001470053245235581 -8.039738445353328e-05 0.000237252050802848 -0.0001913285590598528 0.0001376895571688417 -0.0001639403870248275 2.504154925556075e-05 0.0002478855368272879 -7.821389515111682e-05 
0.0001671007653108818 -0.0001352900515565143 -7.65429015699445e-05 -1.833500845964425e-05 -0.0001849528121850826 0.0006786436886891321 -8.033786602845916e-05 -4.034817009240437e-05 0.0002324279418437594 -0.0001542921275843631 
2.678684853871335e-05 -9.468173098461222e-05 -3.640216092186384e-05 -8.588283800099526e-05 -0.0001621536290562278 0.00241740776481057 -0.0001149779515809161 -1.989422886366884e-05 0.0001396392235987326 -0.0001112382784608214 
-2.666358205266816e-05 -2.974580320128998e-05 -7.416644935362707e-06 -2.078796582032946e-05 -9.535653852502714e-05 0.002579329049194322 -8.7316245390309e-05 1.44942510138213e-05 4.817312589493916e-05 -4.521792970161859e-05 
-5.109049486382313e-06 -1.127986405993651e-05 2.331046087945206e-06 -5.32832734301105e-06 -9.332321787953391e-05 0.001073564293652154 -4.047046370258697e-05 8.086489305572344e-06 2.481711508574956e-06 -1.016792346676974e-05 
-1.501201985254079e-08 -9.551165131516344e-07 -2.510419284739731e-08 -1.15029449959284e-08 -4.67345895861463e-08 -2.932587657879229e-06 -1.676023660972699e-06 9.410540417565412e-06 5.829114512731725e-07 -1.64709361320813e-06 
3.954684722150015e-08 -1.587534117857172e-08 -1.209149526860649e-08 -3.885657337219806e-08 -1.078054059336148e-06 -1.739166652719614e-05 -1.8049302865751e-08 5.321257864738426e-06 -1.038618498756996e-08 -1.208332716897944e-06 
-4.459857456221517e-07 -2.621679664362763e-08 -5.275131702136428e-08 -3.848688191775277e-07 -5.327386714065318e-07 -2.483108949369331e-05 9.626477153118738e-08 1.695675761709632e-05 -5.820611866623191e-08 -3.903466267323651e-06 
-5.992668663630446e-06 -8.746235475111051e-07 -8.48445506731895e-07 -1.927306452566641e-05 -1.366441285011177e-05 -2.833296455757256e-05 -2.857592362055391e-08 5.537892880949039e-05 -5.180351152911436e-07 -1.742895739228749e-05 
-2.398922526091544e-05 -1.256308687064996e-06 7.414121454460077e-07 7.176591523494048e-05 -9.149034282844259e-05 -9.63843040300329e-05 -2.150941789641495e-05 0.0001233051703488185 -7.870930108262738e-06 -4.672346736501388e-05 
-3.822909046532378e-05 -5.868788432671644e-06 -1.252876432411089e-05 -5.98017080957814e-05 -0.0002013088786350546 -0.0002162254918552471 -7.126843012948786e-05 0.0001735293139039204 3.893894888590461e-05 -3.076934008485049e-05 
-1.963002177131666e-05 -1.821584388663054e-05 -8.573113342784123e-05 -0.0001203435434303698 -0.000203967499862702 -9.85648156116314e-05 -8.178955571481296e-05 0.0001183030613373758 9.94124524800547e-05 2.499357702354554e-05 
-2.166382704659628e-05 -4.230143467566082e-05 -0.000195922585633441 -0.0001399424703571935 -0.000206690733453399 0.0005110637392830278 3.351471989483967e-05 -4.488159458121976e-05 0.000145866709218477 0.0001401532422677693 
4.228630014613925e-05 -6.315189593649205e-05 -0.0003265608419987366 -0.0003609300131183464 -0.0002300017013127575 0.0001554132722307055 9.309846810784348e-05 -4.499741761636972e-05 0.0002370324385346324 0.0002481071614026147 
1.771275580878169e-05 -9.05362125454224e-05 -0.0003229082456747907 -0.0006891061370932331 -0.0001864065908832912 0.0004265327918559795 3.436215340493227e-05 -5.594104442076948e-06 0.000279625598315398 0.0002771091246787102 
-4.475145483677442e-05 -0.0001165513117379455 -0.0002880690385099863 -0.0005758086557309118 0.0001151154408960903 0.0004668448216936668 -6.978330164342803e-06 -7.763109743239234e-05 0.0002304577895661331 0.0001751581259947274 
-1.955290947824318e-05 -0.0001504444930582209 -0.0003142922326611567 -0.0007193404685779137 -6.491758747871695e-05 0.0003527260801963452 -1.583008485666421e-05 -0.0001475651415508104 0.0002055261961752368 0.000271635579298412 
4.215822645305723e-05 -0.0002017500440531107 -0.0003888021696642012 -0.0005142362218983666 6.94304581203695e-05 0.0006263252020139784 6.605679165088338e-05 -1.153312435621696e-05 0.0003266043492255882 0.0001480613013282212 
1.351804578250726e-05 -0.0001579243766270268 -0.0004393673460645808 -0.000100776624206032 0.0004568911925780184 0.0003583846909890726 0.0001150711491707817 6.072383726803414e-05 0.0003802750867545963 -0.0001423720232255247 
-3.279496541880885e-05 9.55888446653066e-05 -0.0004102032434769308 0.000224081110648871 -0.0003272459291764581 0.0003058116074613433 0.0001260640449385855 0.0001115285595214585 0.0002477682593894018 -0.0002369372738269665 
-0.0001784312086947078 0.0004727948769193267 -0.0003070157071398665 0.0006719570281462314 -0.0006954021698883722 -7.142433740771644e-05 -0.0001823241333466804 -1.467910648477941e-05 2.166008517851784e-05 -0.0001280362546843177 
-0.0002786361464009847 0.0004235299509382973 -0.0002037543410957858 0.0004098067750577847 -1.880209644573487e-05 -2.498702590561492e-05 -0.0003295717542823206 0.0001588685263742465 -6.132194256018576e-05 0.0001185379240054288 
-0.0002643455929861082 7.246910758705657e-05 -0.0001138374952352115 0.0001156706121378252 0.000280888998329545 0.000317340864511242 -0.0002185425568188523 0.0002791295047481983 -4.069066309089018e-05 0.0001908018234579622 
-7.419209770317568e-05 -0.0001273166130020314 -4.212452432493368e-06 0.0003023565951460217 2.099819522317339e-05 0.0002431146865586207 -0.0001487467522374926 0.000225720385852187 4.71742481993303e-07 0.000189039884418277 
0.0001172156566157789 -0.0001382925879246901 3.333892885515025e-05 8.484414081478518e-05 -6.701631399881264e-05 -0.0003980287964425781 -0.0001157642877406699 8.527094027418984e-05 6.385220125509225e-05 0.0002107234431158967 
0.000207003714272328 -0.0001583386405993539 3.433347600443664e-05 -1.968271462089635e-05 1.788887551721916e-05 -0.0009679394495884949 -4.580360878023922e-05 0.0001551872124309156 7.804847747627442e-05 0.0003132545600780213 
0.0001685369879500476 -0.000145274382976025 -3.583858583066403e-05 0.0001580577172529411 -0.0002287813254181826 -0.001356567715764077 3.991314801546495e-06 0.0002373086822140389 8.219981688865793e-05 0.0002808930889733597 
0.0001835392651487398 -0.0001116251792672177 -6.009458565243181e-05 -9.730027410363978e-05 -0.0001096432698577144 -0.0005455916893872514 2.760963032999571e-05 1.796344714911677e-06 0.000150636245759755 0.0001634028646637238 
0.0002245064063916441 -8.817654161076088e-05 -0.0001052889972879878 -3.49906861827905e-05 -0.0002068052516729933 -0.0007390363981828373 3.105642488753592e-05 -2.428009246966019e-05 0.0002491708998246849 -1.525854050321543e-05 
0.0002132879353392314 -7.080528565526509e-05 -0.0001139270586243861 -0.0001639333236417408 -0.0001411519864292615 -0.0008565136871978216 0.0001022769853135091 -4.8320999393664e-05 0.000203659109393569 -9.699222892325365e-05 
6.708732781007074e-05 -4.623265025288936e-05 -2.84989464248526e-05 -6.069738368966486e-05 -0.0001118858371897473 2.391144293522936e-05 2.881825570103561e-05 -5.845684892122101e-05 0.0001172519300471576 -6.150050512556104e-05 
-1.728456741048698e-05 -1.680229318830865e-05 -4.344401561454589e-06 -2.328679799405063e-06 -2.763577947400629e-05 0.001058341003771662 -1.322853252565815e-05 -1.648833441910907e-05 2.823940028453553e-05 -1.916854816057541e-05 
-7.038484281515641e-06 -8.095170417914843e-06 2.594705717105037e-06 -1.261036337980706e-06 -3.54025460151988e-05 0.0003370925788447287 -1.954314238480471e-05 -8.74887242698965e-06 1.241924180071047e-05 -5.346825117502409e-06 
-9.703522481651828e-08 -1.859370100884454e-08 -2.410073914456923e-07 -3.616080308248467e-09 -1.296701511029937e-07 -1.351668912546087e-06 8.63862764551706e-07 -2.358845602948441e-08 1.747073098508869e-08 -5.568373366301296e-08 
0 0 0 0 0 0 0 0 0 0 
-1.673626965923373e-07 -3.626664696538919e-08 -1.935148704100449e-08 -1.012237290059626e-07 -6.312513959602788e-06 -1.70837030707266e-06 -4.797907874964009e-08 6.762099997724487e-06 -1.930587259989147e-08 -1.942587864460403e-06 
-4.866210201993798e-06 -4.925587327674494e-07 -3.402989676131873e-07 -6.386294039564233e-06 -9.677214214787966e-06 -3.296400873231929e-06 -6.439711264166961e-08 3.1268089298727e-05 -2.312886572586141e-07 -6.136063698897815e-06 
-1.254808243112547e-05 4.015423333707477e-06 -3.938363873570228e-06 -2.509912164919316e-05 -0.000107115033729269 -2.586476536722712e-06 -1.284854197640156e-05 0.0001173850558701413 -4.521030191871624e-06 -3.081485816746507e-05 
-1.886696614110297e-05 -1.623434016241736e-06 -2.339711973688304e-05 -0.0001807844726785021 -0.0001324997600317586 -2.865755864564808e-05 -7.42382405429225e-05 0.0001477885817151604 3.213188163154032e-05 2.214282495903194e-05 
1.59423485967083e-05 -3.689178980161742e-06 -0.0001462025820641279 -0.0002758570805126455 -6.311273384953915e-05 0.0003896414320506063 -7.7273635862884e-05 -3.998800871756423e-06 7.791463131599335e-05 0.0001710233753079256 
6.481630953776402e-05 -2.041242113809362e-05 -0.0002986103007826378 -0.0003880999989913626 -0.0001076361764120972 0.000574948914351821 6.720609016667665e-05 -0.0001534114636600961 4.774370026103401e-05 0.0002694151030282049 
9.111810437099929e-05 -3.486561536388235e-05 -0.0003885710749659087 -0.0006108084828588528 -8.527163685321378e-05 6.186216683277083e-06 6.651351782585943e-05 -0.0001031977765400982 3.730285926367744e-05 0.0003421314563302198 
3.110087596544516e-05 -8.118224814512275e-05 -0.0003799284617367462 -0.0003630902607092145 9.922651613876082e-05 -6.211987736797327e-05 1.900302599549993e-05 -3.940020948863105e-06 0.0001130958810985578 0.0001913570622767678 
-7.928768021865954e-06 -0.0001287713996758617 -0.0003678525235437366 -0.0001739508829373518 0.0001506702340842584 -1.925992622542144e-05 -4.367571656508179e-06 -0.0001735262767115041 9.203937636468393e-05 0.0001978023154898955 
9.182385452585061e-05 -0.0001871648821038318 -0.0004256714500026521 -0.0002014155092514951 0.0003238034052007228 0.0001482434197507375 2.70272252363037e-05 -0.0002083685196167806 4.105729969215416e-05 0.0002418407778469704 
9.099075934387728e-05 -0.0002681344365575159 -0.0004552672725273411 -0.0001080479777826912 0.0007038442456696232 -8.836213208483552e-05 0.0001753116071554267 -0.0002295721552200791 0.0002462376402135888 6.124312580845816e-05 
-9.182751993766761e-06 -0.0002670053584159753 -0.0004422202623254611 0.0002266720392845917 0.0007587664836079742 0.0002215953340772638 0.0002543542808469785 -0.0003968381234661635 0.0005094785742698908 -0.0001457869167386045 
-0.0002117141609168553 0.0001169016552646403 -0.0004013441492645031 0.0002057286799437162 -0.0001181806003423919 0.0006508865889430527 0.0001088655840911844 -0.0004945043244078715 0.0003931469201279848 -3.947656261677121e-05 
-0.0003603252815593297 0.0005736691029266443 -0.0003314163940144875 0.0004613850799032161 -0.0003859539669786746 -0.0004479211358228899 -0.0001681778068170544 -0.000557231461457215 0.0001341287377732936 0.0002475394000622269 
-0.0004229300322895068 0.000420429845682305 -0.0002109320384200065 0.0002570490096667591 7.897314086140852e-05 -0.0002150909118546761 -0.0001271450691414112 -0.0001905800303318773 0.0001064269287386635 0.0003797355797978135 
-0.0003977378652833035 1.669460087311244e-05 -0.000134146717656418 0.0005088309384038661 0.0004539790450472698 -0.0006489767181106774 -1.753842817448901e-05 0.0001674407424838285 7.680922665324681e-05 0.0002345436540989499 
-0.0002473612320503913 -0.0001150703014157915 -6.27448202620588e-05 0.0002502837862279007 4.807717219041042e-05 -0.000326104763848603 -1.011937158353465e-05 8.443371776996174e-05 7.435032276072069e-05 0.0003467004674686842 
-6.32815628428109e-05 -0.0001340325985956966 -2.610219704595616e-05 0.0001661718445377185 -0.0002343564435934388 -0.0003498316906336381 -3.891384409480288e-05 9.40137285055365e-05 3.647639426454436e-05 0.0003780290716654878 
7.402109382865385e-05 -0.0001334365812262978 -5.121565350503583e-06 0.0001071602704147006 -1.640865812060673e-05 -5.859737676697569e-05 -0.0001038056305666038 3.972682254976486e-05 7.049263018023535e-05 0.0004364605419112226 
8.386599285339519e-05 -0.0001175430062231513 -6.179825945283218e-05 9.538031726301844e-05 -9.640522585864958e-05 -0.0009396179763817617 -5.056481848715238e-05 6.230924784670537e-05 0.000160308051531172 0.0003005822334279403 
0.0001435146002915878 -6.710883206083558e-05 -0.0001071220730767386 -0.0001784545877702274 -6.811584147504246e-05 -0.001576949351772691 8.901245866578951e-05 -6.633641082704958e-05 0.0002025692236462457 0.0001467589109020012 
0.0002525236053789875 -3.487016043580098e-05 -0.0001752202644045154 -0.0002793557058898745 -0.0001480797737169663 -0.001682187650040693 0.000148977055512231 -6.55632436819393e-05 0.0001640046372773834 4.990871558514229e-05 
0.0002587317993267235 -2.117257744240767e-05 -0.0001528555065245968 -0.0001678972825772704 -9.685608691053326e-05 -0.002429842939010519 0.0001973871685828718 -8.277029040519578e-05 0.0001085458156017632 -5.457953803770117e-05 
0.000106900069007602 -1.96201922082319e-05 -4.583646149042678e-05 -5.956795682249133e-05 -0.000101159636203238 -0.002262448337324431 0.0001516980444179323 -8.615466712757306e-05 4.955269846552081e-05 -3.56727222360767e-05 
-7.583993329608348e-06 -1.043077074444947e-05 7.644798536399981e-06 -4.058248134342697e-06 -3.250781772216506e-05 -0.0001597021530315234 6.087044279528209e-06 8.3618944899073e-06 1.033321776838239e-05 -1.609772358044234e-05 
-4.211089754059223e-06 -6.901309876353529e-06 1.233578627256593e-05 -4.162559637366533e-07 -3.799232289492069e-05 1.083034841841464e-05 -2.457751825303874e-05 -1.756503786148966e-06 9.607750646451657e-06 -1.187924476335448e-05 
-1.196326159611262e-07 2.925621892812651e-08 -3.927631163287107e-07 -2.0855491838227e-08 -1.622702442083657e-07 -1.582859852860085e-06 -4.049270751079152e-07 -3.43368123475376e-08 1.217359731473438e-06 -1.645262235241934e-06 
0 0 0 0 0 0 0 0 0 0 
-1.854493686652973e-08 -9.501253645068891e-09 -6.318084535378823e-09 -1.40160121419715e-08 -3.003853944989523e-06 -9.451735742797988e-07 -1.346404605201718e-08 3.513484683190491e-06 -3.88829188767404e-09 -4.811116682131632e-07 
-1.127962576976104e-06 1.257445925594238e-07 -1.030743049431909e-07 -2.047321009266374e-06 -7.444157237494119e-06 -4.814726585797983e-06 -6.853736892982232e-08 1.743849603762483e-05 -1.046729688060001e-07 -4.021686495737517e-06 
-8.180729524163204e-06 2.1872924136915e-06 -4.681650435955243e-06 -2.342611760579873e-06 -6.675142289876151e-05 5.159612967055799e-06 -7.016564225784012e-06 8.455682321166529e-05 -2.978070168359264e-06 -1.768576140594103e-05 
-1.487987567735531e-06 -7.218359578353177e-07 -3.927318071096843e-05 -0.000207238668582322 -5.443201899322798e-05 -6.131471551031959e-05 -6.033882143309731e-05 8.754987570362638e-05 8.21584084540291e-06 6.162067832742034e-05 
7.205273432986929e-05 -9.582151930097686e-07 -0.0001716887639370104 -0.0003497257048990075 0.0001003429681523002 0.0003040809708733784 -6.505847763768929e-05 -8.059952086026375e-05 6.918326232462755e-06 0.0001944843819339868 
0.0001365447666727855 -1.544190444548596e-05 -0.0003290571399532425 -0.0004933527626404766 0.0001702716031072374 0.0001258877317583663 9.006993625037346e-05 -0.0001275922882057818 -6.791650685197913e-05 0.0002499616027257955 
0.0001164551250110255 -4.219401754741693e-05 -0.0003808038081814199 -0.0004901915615568876 0.0002748392779651895 0.0006429631019817474 6.034908511843985e-05 -0.0001944269736411077 -0.0001420532344312293 0.0002538864606285104 
3.940253080948394e-05 -8.675077480444976e-05 -0.0003565019753062014 -0.0001944076312279033 0.0002746130435760431 0.0001387103297232581 3.067865499772777e-05 -0.0002174245235402598 -0.0001074639028108923 0.0001696249211982497 
8.157146235014743e-05 -0.0001612336643589165 -0.0003360259504749867 -4.078005622300464e-05 0.0003823497565216663 -1.861804753669843e-05 1.198138100885321e-05 -0.0002588472047588873 -0.0001187679359099273 0.0001357905035569382 
0.000148661864367897 -0.0002581008978348982 -0.0003308178035343734 -0.0001900528115112612 0.0005516857309780717 -8.545453575841058e-05 8.885011395127205e-05 -0.0003336395161638169 -0.0001056924876735327 0.0001594617232482423 
5.003105013096936e-05 -0.0003691528520997825 -0.0002909573809747078 0.0001410322654412932 0.0008328350751915712 0.0007040274588199591 0.0002308784100129281 -0.0005520631092555382 0.0001570537541484308 1.475985519162377e-05 
-0.0001147349181491849 -0.0003174337094363992 -0.0002299550776751648 0.0005141582440490423 0.0002874392764150619 0.0006586367557073771 0.0001750200198162363 -0.0007961377981353335 0.0004601138216404089 7.676777876606802e-05 
-0.0003264789429103008 0.0001844993674997737 -0.0002364187676593595 0.0002543506955059697 -0.0001388409621823179 -0.0002809922618695755 -5.070419952295377e-05 -0.0009351286344335682 0.0004144644009284261 0.0002215098206031484 
-0.0004381004305529277 0.000545398703911561 -0.0002302201395548106 0.0002355168911691324 -0.0003362978329845703 -0.0005374786769248827 -7.168845984055018e-05 -0.0007839591864158039 0.0001891934596362196 0.0003996454428424812 
-0.0004327633095189443 0.000341161739240292 -0.0001959901005943933 5.652263137158474e-05 8.067197509142057e-05 0.0005508623658339261 4.098525472920741e-05 -0.0002474881672274098 0.0001135667555664132 0.0003053140468610175 
-0.0004310863146455422 -4.579964832359785e-05 -0.0001768555450105545 0.0004776409165956973 0.0005137418116104012 -0.0007486432549633341 5.566464237617893e-05 8.916097301677714e-05 8.626046401244672e-05 0.0002349688105898732 
-0.0003165420565784431 -0.0001274842399792634 -0.000108745922905972 -1.688189886372125e-05 0.0002665050960950686 -0.0002881930536485142 3.777289430704853e-06 -6.197789534749181e-05 5.053447192166462e-05 0.000387381998268795 
-0.0001344384334243263 -0.0001311598795783841 -9.97720338615667e-05 -3.243539579647091e-05 4.315954706113401e-05 -0.0003488863385536832 -7.989550750580288e-05 -0.000102046293977579 2.294550870158819e-05 0.0003825855894012854 
-2.521793003302771e-05 -0.0001328882668795116 -0.000111311619519069 7.185284763322045e-06 8.517653203565028e-05 0.0002698223058208334 -0.0001445598905472436 -2.168266526374201e-05 4.810666294688782e-05 0.0003022878491744113 
-1.9110033012098e-05 -8.684817699250115e-05 -0.000128098585487271 3.870029118824043e-05 0.0002630857403356656 -8.093617771192994e-05 -5.548373486222353e-05 -6.57150540186306e-05 0.0001048056248011588 0.0002237914832264434 
7.37198414719718e-05 -5.532404244782902e-05 -0.0001587797973807283 -0.0002044415064907732 -4.830335747989055e-05 -0.0008044417693697751 0.0001286885341698956 1.468838214650459e-05 7.967935819833348e-05 5.523322763994103e-05 
0.0002325134824814535 -2.856896314760434e-05 -0.0002117835627263718 -0.000317097109951076 -8.610285614794428e-05 -0.0008707017948357996 0.0001826501512728817 -2.444463041893526e-05 1.864044865160208e-05 -4.622108597306118e-05 
0.0002548777913620543 -3.223097115472794e-05 -0.0001647152324717718 -0.0001148502713529626 -7.253180346092958e-05 -0.00171335105879226 0.0002553185392999846 -7.773948167517999e-05 1.568411943951784e-05 -7.828297079494433e-05 
0.0001113689561904397 -3.849733770781737e-05 -3.235379327484693e-05 6.400775181250205e-05 -0.0002025364816608987 -0.001822116392784498 0.0001426099910281797 -3.205333805080919e-05 -1.423904699236007e-06 -4.850072553359298e-05 
-1.209182549117484e-05 -1.603546418272375e-05 2.678012230635623e-05 -1.188380145392589e-05 -9.496395680746649e-05 -0.0001614548869664712 1.115367669233713e-05 1.845251628852639e-06 -4.979290252659462e-07 -1.901203129681866e-05 
-1.987009736454191e-07 -1.895787550228027e-06 1.388621153466023e-05 -6.642193420105751e-08 -3.616574156605874e-05 -4.18201256276737e-06 -1.8271637718665e-05 -1.27773104027738e-05 8.451154738076713e-07 -3.694361456951041e-06 
-3.400148419018031e-08 2.039434079329534e-08 -1.337671781098385e-07 -9.723309264984104e-09 -4.667598856696408e-08 -4.305249531420277e-07 -4.553720369474806e-07 -1.097558481257608e-08 6.22816017383219e-07 -8.325827207740074e-07 
0 0 0 0 0 0 0 0 0 0 
-1.733567902695043e-08 3.561525431972922e-09 -1.818891861755509e-09 -3.53761124442871e-09 -1.017457536773044e-08 -5.412486514754395e-07 -2.325462208838402e-10 1.095171951843366e-06 1.867750015342463e-10 -4.058878762957025e-07 
-1.375474276302362e-07 2.254929757027586e-08 -2.503504699380694e-08 -1.614250134149652e-06 -6.754425107206633e-08 -4.003027663961059e-06 -6.048232087603938e-09 8.298674706755388e-06 -6.463045425044648e-09 -3.251330121115074e-06 
-5.566452230593227e-06 -1.237466273487139e-07 -4.487342825738383e-06 4.474553200635721e-05 -5.356104064285881e-07 -2.597881297834442e-05 -8.941903770398125e-07 3.264155444388746e-05 -1.467972874454766e-06 -4.945507028575577e-06 
-1.10627785545899e-05 -1.250172429828734e-06 -2.822773732973111e-05 -9.08000330557125e-05 9.911053002591467e-05 -0.0001391327994288934 -5.841493336485593e-05 7.488940954174278e-05 -9.015479730287395e-06 9.858447249298765e-06 
0.000111477499507459 -5.691987575482114e-06 -0.0001586630760798981 -0.0002197782881249993 0.0003493166494336335 -0.0004053794833214027 -7.922544140117826e-05 -5.111093770027115e-05 -3.731987240493165e-05 8.454708372371874e-05 
0.0001485849111375425 -2.357967662568098e-05 -0.0002797723836303094 -0.0003527018467439065 0.0003245981760190922 -0.0005117926933517247 5.827084710614847e-05 -9.870932005531171e-05 -0.0001302171165770197 0.0001232229211058228 
0.0001446422875943891 -5.059541350745323e-05 -0.0002835466945547959 -0.0002396059089538731 0.0004105617668072882 -0.0004409628774520589 6.624582128097133e-05 -0.0002551185904440609 -0.000221498938567163 0.0001304541066911893 
0.0001252385079868027 -0.0001134581992070243 -0.0002272371393511427 -1.903626313784462e-05 0.0005417642057786607 -4.449729360155707e-06 6.899010526345584e-05 -0.0003000760846016488 -0.0002872137490179334 2.934127756890683e-05 
0.0002111484513736484 -0.0002117526948131655 -0.0001475021211249537 -1.233668898864702e-05 0.0003867220401911968 0.000218224225164392 7.674879878398864e-05 -0.0003329868573817891 -0.0003149664591531246 -8.769719265508115e-07 
0.0002139118847413988 -0.0003137725776435403 -7.671437445823307e-05 -0.0003391073291959171 0.0004406978069958577 0.0003129233992256166 0.0001684403202623882 -0.0003446713020080162 -0.0001667306329964851 -9.112111678480806e-06 
3.01776377395565e-05 -0.0004114885883649799 1.680851402726478e-05 -0.0001105754972187806 0.0004707791713577886 -5.54302713805811e-05 0.0002685994045363256 -0.0005618754132345177 0.0001725064889926736 -1.233318631710264e-05 
-0.0001945840503732067 -0.0002266984356297666 3.774828771880375e-05 0.0001529311972393242 0.000123657087704098 0.0004390165833993709 9.299978677955768e-05 -0.0006942389475123519 0.0002464429291843594 8.909448482665267e-05 
-0.000364301943470808 0.0002339232255764289 -3.790244927338557e-05 -0.0002205697373547747 -0.0001735797947134167 -0.0001722035420678325 -6.048481300881199e-05 -0.0007436055394092027 0.0003463921108503244 0.0001281908292859875 
-0.0004436250179461031 0.0004526422845468504 -6.267050397347108e-05 -0.0001296979040597114 -0.0001845665584436249 0.0001109643396040078 9.126917388933674e-05 -0.0005781634408415706 0.0002875016096566603 0.0001437420666761683 
-0.0004133370491436624 0.0002744911896309288 -0.000130505559025313 -4.878362631323117e-05 7.039290543390958e-05 -0.000154882574211007 0.0001853010856508406 -0.0001093559547473617 0.0001056443270294768 0.000118075166528365 
-0.0003928805154844528 -8.581738657478439e-05 -0.0001180900757891231 0.0001238025630827077 0.0002810622069335038 -0.0003026586026321621 0.0001029121846226121 0.0001517877081425086 1.327303191639319e-05 0.0002128124645589009 
-0.0003168616597573966 -0.0001791715942446154 -0.0001316140355603146 7.595050277345074e-05 0.000392302974212072 -0.0001487763805225884 -8.443470181625977e-05 1.542740426066e-05 -7.528919943689901e-05 0.0003081054135918323 
-0.0001352304235641922 -0.000193311284193373 -0.0001182040014449273 -7.633465803348776e-05 0.0001521786482104794 -0.0003122025240866907 -0.0001215706100960569 0.0001360143771532253 -0.0001107361355791345 0.0001808584798075638 
-3.622379619151694e-05 -0.0001634191028013923 -0.0001505867294425569 -0.0003240471534162566 0.0002598292176477715 5.798450070135398e-05 -0.0001070045041882503 0.0003494832978324097 -6.300221517052359e-05 6.018371583897266e-05 
-1.902341297097294e-05 -0.0001126707524368168 -0.000138361088714706 -0.0001075774897346602 0.0002148392049133399 -0.0002158813379506044 6.485004414889515e-06 0.0002264956087948345 -6.683210374735966e-05 -3.883192461150475e-05 
3.379640392013947e-05 -7.48115721496096e-05 -0.0001826713401502107 -0.0001038370980066155 -3.367486505601528e-05 4.506098364129805e-05 0.0001518394539696223 0.0001828188042972651 -7.044907028884517e-05 -0.0001486671105590592 
0.0001594296386501044 -5.899834537666916e-05 -0.0001918851659533017 -9.145410393298389e-05 -0.0002288666757935507 0.0001573100921137894 0.0002074819018541113 0.0001040778190387898 -7.178233330768421e-05 -0.0001501096395077653 
0.0002282181376849527 -5.359209613233168e-05 -0.0001422970051221529 -6.086587710965557e-05 -0.0001972810127631881 -0.000456124960478357 0.0001903907235292397 2.053492634196228e-05 -3.774965400043916e-05 -0.000121141271239689 
0.0001050141982003611 -4.179335704257416e-05 -3.376530899170638e-05 0.0001066945407923386 -0.0001597393806033134 -0.0009523750533927107 8.946571551026775e-05 -2.492896529041553e-05 -2.416863033833504e-05 -6.517775746183558e-05 
-1.709847015389401e-05 -1.767686646811395e-05 4.392468468833633e-05 -2.617113792361939e-05 -0.0001775432286440881 3.995730646365918e-05 1.416500091253028e-05 1.855825048947408e-05 -6.079008841770009e-06 -1.488123807435813e-05 
-2.213352892901572e-07 -4.94438057373279e-06 2.946710833297221e-05 -2.251626985833424e-07 -6.249319071907442e-05 -4.425684894865632e-05 -2.707888138061642e-05 -6.190836529140136e-06 -1.110239676087157e-06 -3.95227410948346e-06 
-1.560354283141086e-09 -5.000246023955208e-08 8.817736690817706e-07 -2.14476914589228e-07 -9.126116959335173e-09 -5.487080262707542e-09 -8.349809224797573e-07 -4.123603700879339e-09 -1.647810687492251e-08 -7.432442378612072e-09 
-1.374319547174834e-09 -7.901353164881945e-10 -3.015565820398389e-10 -1.267135411863316e-09 -1.544031755103037e-08 -1.908094631312621e-06 -1.379368323816792e-09 2.153783403696779e-07 -1.062202674846961e-10 -9.99552447284947e-09 
0 0 0 0 0 0 0 0 0 0 
2.929251798568554e-09 -1.320011228627732e-09 -6.768502578880949e-09 -4.635288890054076e-09 4.210401365667129e-06 -9.810750273624942e-09 -8.879470277889478e-09 3.201915717892081e-08 -3.744599351972165e-09 -9.926029933242228e-07 
-1.266569764783827e-05 6.323921526379071e-07 -2.822149479535642e-06 6.588929421840805e-05 2.52578075618941e-05 -0.0001330783760323121 -3.996185196693165e-06 2.751963074618238e-05 2.533303849820583e-06 1.130199188533703e-05 
-1.927712023001857e-05 -1.716947891184805e-06 -4.815220864214859e-06 5.845539153827542e-05 0.000219249169891173 0.0003578854552980667 -6.486376426662836e-05 -1.356273851435984e-05 -1.778194562643915e-05 -1.227009751794616e-07 
0.0001317966645702461 -1.719964610677126e-05 -8.071556481991083e-05 -0.0001151337647540428 0.0003383009334931731 -0.0003373917926194784 -0.0001160276845806667 -0.0001273468231681681 -7.409713650008922e-05 -2.234566148910814e-05 
0.0001623259477549119 -4.452120064001014e-05 -0.0001272100868284791 -0.0003278120074340969 0.0001397858036059879 -0.0006114211927864422 2.060578752976838e-05 -0.0001125031712505944 -0.00013368262190585 -3.995003931487337e-05 
0.0001722019491463105 -8.576115771824089e-05 -0.0001062628603370294 -0.0002899580942730489 0.000512959609279662 -0.0005056475669941161 9.714613505327054e-05 -0.0002159339718176505 -0.0002005938306489034 -8.059612360433044e-06 
0.0001915638016539418 -0.0001481019862995411 -7.283417607006622e-05 -0.0002873265204353972 0.000401964876335961 6.440534517831046e-05 9.340718338518594e-05 -0.0002319895751429376 -0.0002356565990037394 3.673341347199078e-06 
0.0002917959999772682 -0.0002314556072439495 -2.415242752654341e-05 -0.0002244207780667767 0.0004573027885497022 0.0003849085727268573 0.0001079659911943691 -0.0003332446873114959 -0.0001821356682254889 2.523537710159108e-05 
0.000225545263875643 -0.0002901696863539541 6.392553882648492e-05 -0.0001183411545859775 0.0003837533604941777 9.330712932987703e-05 0.0001705152987095952 -0.0003718913453579114 -7.906955549610328e-05 8.168473357299839e-05 
-6.636548822308812e-05 -0.0002970697414814016 0.0001486885561573275 0.0001277721042609255 0.0002717359771553285 0.0001750945871632631 0.000227883026414563 -0.0004005082373445012 0.0001143516684684253 0.0001203403175598564 
-0.0002888551164489639 -5.621211201538009e-05 0.0001329620958882748 7.620340810208014e-06 0.0001838743892079682 1.191436588750128e-05 5.541652743509717e-05 -0.0003825100667098198 0.0002371147991844672 1.694912102581788e-05 
-0.0004470002372853976 0.0003131185652797798 0.000115130920092337 0.0002608542966397968 -0.0001758897142669406 -0.0003823386022586652 -4.267739269477324e-05 -0.000472277238823031 0.0003322806739656562 -0.000116305170414874 
-0.0005150331024803686 0.0003577435998196238 4.943582390005842e-05 0.0002078718745265968 5.992071588229908e-06 -0.0002822096752739575 0.0001695008718636926 -0.0002794291511752962 0.0003071193835700441 -0.0001864533272147498 
-0.0004584719756444825 0.0001021639946686691 -1.050517283892469e-05 0.0001063162464798094 0.0002304519132398772 -6.607918266783141e-05 0.0001300280454472137 1.365009900011455e-05 0.0001652926158175811 -3.466284392403226e-05 
-0.0003881397248948611 -0.0001617971866567241 -9.342907517208295e-06 0.000286597881473242 0.0003832192854342951 4.439873433966974e-06 -9.613172659980883e-06 7.116564656289831e-05 4.954414498439524e-05 0.0001900816115814523 
-0.000270664438391957 -0.0002733675689401201 -5.816356209275872e-05 0.0002165762373150474 0.0003256306217909525 -0.0002849459116973448 -9.252634695926353e-05 0.0001738259150512372 -0.0001638352875008009 0.0001331088864974946 
-0.0001061946096629305 -0.0002413227010980896 -8.221306745615455e-05 0.0001820091949057541 0.00031320601759346 -6.844396808148773e-05 -9.413579546089399e-05 0.0003206505601288337 -0.0002642088901963475 -9.128380294472551e-05 
-5.102148301790367e-05 -0.0001840055245507098 -8.392407131282949e-05 -1.158511955510017e-06 0.0001793474548529496 -0.0001314050325645001 -2.812455382719927e-05 0.0004697813206653154 -0.0001726279635268144 -0.0001551049861147141 
3.107326193377424e-07 -0.0001257066779157496 -0.0001040086156850421 5.303090329288047e-05 9.101942795178094e-05 -0.0003129751532983022 5.816408852228348e-05 0.0003154486833857941 -0.0002032860007517758 -0.0001769933097760452 
-8.110057400111316e-06 -9.031637689629486e-05 -0.0001355437256868568 0.0001479189264791273 -1.944359352475127e-05 0.0001119791333490624 0.0001694115437646713 0.0002179788669734877 -0.0001598306335113623 -0.0002540341495335039 
0.0001128528873828683 -6.574978408846696e-05 -0.0001641397632969321 0.0001417228957082147 -6.567023996395153e-05 -6.755104537865489e-05 0.0001666173198566646 0.0001510385709631233 -0.0001177165177670994 -0.0002055930038390938 
0.0001635213272412418 -6.372460107137799e-05 -0.0001145557190655564 -3.035277826593912e-05 -0.0001333329936335128 0.0003992071064159636 0.0001081665968120023 2.135687041337676e-05 -7.626378346825777e-05 -0.0001400131220033724 
7.155916363373796e-05 -3.876300631567182e-05 -2.443499838923255e-06 0.0001126789981256077 -0.0002656334439222293 -0.0003685413514618227 2.760082249615276e-05 -4.440803783886118e-05 -2.886954927008618e-05 -5.679616486868955e-05 
-1.918341178529282e-05 -1.559181542689912e-05 6.10114541582351e-05 -4.053820079089565e-05 -0.0002021065664361925 -3.318490214746379e-05 -9.891415961447343e-06 2.655319521266106e-05 -1.744780375578423e-06 -1.880179635050676e-05 
-4.457372473768733e-07 -3.831217455346411e-06 2.99446913037938e-05 -9.342141207286606e-06 -2.186014494134253e-05 -9.59695312860465e-05 -2.839723416884149e-05 -2.246679840282362e-07 -5.456557091478958e-07 -1.292276808698305e-06 
-5.813084584251103e-09 -1.862836754022528e-07 3.285039159324244e-06 -7.990316425873199e-07 -3.399925926026831e-08 -2.044206372381242e-08 -3.11071324061086e-06 -1.536244516013871e-08 -6.138902561245642e-08 -2.768949121443714e-08 
-7.853254555284764e-09 -4.515058951361111e-09 -1.72318046879908e-09 -7.240773782076092e-09 -8.823038600588783e-08 -1.090339789321498e-05 -7.882104707524519e-09 1.230733373541016e-06 -6.069729570554067e-10 -5.711728270199698e-08 
0 0 0 0 0 0 0 0 0 0 
-3.775003700106483e-08 -2.969818571004788e-10 -7.064166904241035e-10 -3.598071430138238e-10 1.085191104366684e-06 -1.50297258171111e-09 -1.037375581416745e-09 -1.305027697440066e-09 -7.868406318724377e-10 -1.181397988726792e-07 
-3.100909187506052e-05 1.028457735759786e-06 1.101666621494313e-05 0.0001484977498057646 5.470553059760093e-06 -0.0001847763102034982 -9.987765693676553e-06 1.420657364064806e-05 6.160608271141475e-06 1.170640225227302e-05 
-2.272616831891926e-05 -3.270464995037463e-06 3.332792667136753e-05 0.0001313149028281119 9.774772682597439e-05 0.0009687785595318832 -9.279187068231744e-05 -1.339639263262479e-05 -2.931953610369222e-05 -1.073455273935516e-05 
0.0001457794820918097 -3.333261695717483e-05 1.969115512961298e-05 -7.370884450784537e-05 0.0001182859412082428 0.0003126657361925406 -0.0001529810130089427 -0.0001692486236911181 -8.225091573734658e-05 -4.834758331394821e-05 
0.0001822188608404522 -6.856179674282822e-05 4.791426258778318e-05 -0.0002705853592591174 0.0001780915271392316 -0.0009377452779645771 -3.506134977288382e-05 -0.0001194662724498755 -0.0001279914472349647 -0.0001307817601521351 
0.0001517185177856729 -0.000125157848962952 2.248703442554072e-05 -0.000187902704307387 0.0002616059319697299 -0.0005733924542514154 0.0001124213718075412 -0.0001164101481844798 -0.0001284272101071001 -6.983638086300509e-05 
0.0002364109716554279 -0.0001862384275247908 3.746885479589389e-05 -0.0004238494067607095 0.0003041105173501258 -0.0005256143460505324 0.000115430830702956 -0.0002618107038906268 -8.574994028153436e-05 9.247510722740321e-05 
0.0002857192307408567 -0.0002200798912492444 9.106563679090023e-05 -0.0003848749130251958 0.0001043894773713701 -0.0004025195969466665 0.0001371212985098544 -0.0003790989469444136 -4.406173420790673e-05 0.0001750776365513217 
0.0001496727055600651 -0.0002485177466909074 0.0001543995183707133 -0.0002615905629189672 2.399500923110776e-05 -0.0002534467974112362 0.0001845500141886325 -0.0004239685962105529 0.000137731929097061 0.0002248698422486113 
-0.0001013890265685141 -0.0001712002331633432 0.0001969791009665783 -0.0001323290375892332 3.647844726055087e-06 0.0003314175962643029 0.0001856211227886707 -0.0004582446655762157 0.0002545323242234835 0.000170192980253595 
-0.0003131305136412855 4.372311335090505e-05 0.0002046868380868521 -8.476682735123247e-05 0.0002426717670390832 0.000480541370794125 -4.908727628579484e-05 -0.0004013782527204632 0.0003020562417325993 -7.92897022145812e-07 
-0.0004516496072599725 0.0003065122953627661 0.0001693542778320785 7.960132577733551e-05 6.89093038681437e-05 6.097032734065641e-05 -9.398385366357903e-05 -0.0003211665167806604 0.0003052760462723532 -0.0001401942437598969 
-0.000518578168305 0.0003141819833788061 0.0001009050814414852 -4.988033360162019e-05 0.0003499562989154971 -0.0004055060415149352 7.04636801052175e-05 -5.620781694526543e-05 0.0001723499772220202 -0.000209454233020739 
-0.0004859035180917923 -1.018346710667784e-05 0.0001399210892620166 -0.0001369969777757246 0.0004944853320204191 -0.0003122160911973256 -6.339747997497876e-05 4.670491808797501e-05 0.0001671050099823573 1.032512834499182e-05 
-0.0003447342919264004 -0.0001664120611442732 0.000123606218078691 -3.678026616336082e-05 0.0004141869633344596 -0.0005135139810234748 -0.0001223013782427994 6.403814817587332e-05 8.645723569944986e-05 0.0001380139952367278 
-0.0001605305312531099 -0.0003086774434046774 8.341125165760404e-05 -3.40772109729323e-06 0.000180842150767233 -0.0002766152408299597 -9.733270529622634e-05 0.0001841326263664738 -0.0001261789013678415 -3.319055457997991e-05 
-4.441004641753561e-05 -0.0002536697891595501 -2.145068687426056e-05 0.0003297481677349794 0.0003320533700361568 -0.0002612324046503662 1.496447663881137e-05 0.0003122898331189435 -0.0002429410262055944 -0.000170363409841816 
1.985373665521748e-05 -0.0001599679867579017 -5.257040296414175e-05 0.0003532668922916487 0.0003732239623390101 -0.0002496360246284082 -2.15215807581157e-05 0.000260528205346425 -0.000261493369584047 -0.0001834938899323265 
1.495859991191547e-05 -0.0001086867306905764 -6.406917013530318e-05 0.0001008207991579143 0.0002420358188859012 6.214324531459159e-05 5.713188143067856e-05 0.0001466272339233491 -0.0002333654048124358 -0.0001880880697024055 
-1.247195073359391e-05 -8.207075688006325e-05 -6.579959530088847e-05 0.0002799811136671128 0.0001666213851674469 -0.0002777283441505152 0.0001444971989933796 0.0001397376767978265 -0.0001990567551714749 -0.0002428188224242445 
8.800324655262953e-05 -7.627477157710659e-05 -7.955664056690821e-05 0.0003628124826444238 5.808860217043483e-05 -0.000388938360590638 5.327970011172338e-05 5.056062351811979e-05 -0.0001275450092731429 -0.0001903163127204453 
8.35321464637755e-05 -7.354717439316287e-05 -3.849452081633921e-05 1.288873446716588e-05 2.761889175746139e-06 0.0005909294757634581 1.108646063180661e-05 -3.629106284749865e-05 -4.916704248510251e-05 -0.0001114903048959814 
3.57429807859836e-05 -4.716061507614353e-05 4.838096322876068e-05 1.200275222989021e-05 -0.0001447932724689375 8.477269217539189e-05 -3.223513398388085e-05 -8.16780689735788e-05 -2.281564886709412e-05 -3.704371582381792e-05 
-1.555476342686982e-05 -2.964738482331598e-05 0.0001041532559821268 -8.569842330071512e-05 -0.0001370067743075585 -0.0002036846329237592 -6.572277085225725e-05 -3.421093543842468e-05 -6.25954516275253e-06 -1.477265766241979e-05 
-1.698726728300236e-06 -8.722855298139213e-06 2.691916147567818e-05 -2.639290583787614e-05 1.509637156784952e-05 -5.695852431956034e-05 -2.201352230739508e-05 -1.129458095195478e-05 -9.083190827061603e-07 -4.389309023692805e-07 
4.313330253461476e-10 -2.428495179007945e-07 7.880698451162008e-07 -4.088265944889937e-07 -5.69220310210486e-09 -1.887099160410864e-08 -6.596719035756055e-07 -3.426986857174312e-09 -5.081583246269259e-09 6.534091882551222e-09 
0 0 0 0 0 0 0 0 0 0 
0 0 0 0 0 0 0 0 0 0 
-9.831961609401104e-07 -3.837844673280731e-07 -7.336512287304371e-07 5.61906516308311e-06 2.122342789137592e-05 -1.345194362264083e-05 -5.940699853265454e-08 1.087019700329555e-06 -3.052985607297365e-07 -3.028255471829593e-06 
-4.726708104713159e-05 -2.296159856160457e-06 3.332220268350821e-05 0.0001607897055013228 -0.000107496769041991 -9.832885027742845e-05 -1.855460721789775e-05 2.416779330259541e-05 -6.007822875732821e-06 3.327683770533024e-06 
-2.987067305114189e-05 -5.13724482376096e-06 8.068630926664409e-05 0.0003083846940857304 -5.044506318289254e-05 7.316638797287621e-05 -0.0001041278627069727 -1.859256427816942e-05 -4.61136650711e-05 -1.183873904186351e-05 
0.0001191139474261796 -5.272871443642265e-05 0.0001380908355547229 -5.518750944353277e-05 5.990005475172902e-05 -0.0003384745496760382 -0.0001911166381798727 -0.0001222298029478707 -8.367530009903248e-05 -6.594933646496528e-05 
0.0001806743379598476 -0.0001072349823917886 0.0001592433036312339 -0.0001728318407452248 0.0001222013771278292 0.0004959488179006837 -0.0001166658915283625 -0.000176561427069668 -0.0001055121243335899 -0.0001136059986460309 
0.0001440089926861625 -0.0001660317937972612 0.0001213626551729294 -0.0001701048952125128 0.0002625179629206014 -0.0006076809520107536 8.540212246508397e-05 -0.0001167094395011881 -2.644752594317351e-05 -0.0001314027369829363 
0.0002586651906219019 -0.0001868296555233342 0.0001335708573521455 -0.0005062543614519312 0.0004989902371241904 -0.0007407783880502076 0.0001508191981992957 -0.0002042039354551246 4.715330154515188e-05 2.555640458456691e-05 
0.0002541418502358493 -0.0002130761684152713 0.0001682996019234116 -0.0007587479571239134 0.000272952145318708 -0.0008453174121418325 9.718278840788e-05 -0.0002392504109511439 0.0001873397422436261 0.0001471508516228014 
0.0001509965032335538 -0.0001523907241883235 0.0001701425936303481 -0.0006220758456745567 -0.0001355131311824102 -0.00132265969301175 0.0003083542599581579 -0.000296045976432165 0.0002830212062871421 0.0001003388156258771 
-0.0001007134058282462 -6.607719970392301e-05 0.0001967788814584812 -0.0004255515815813977 -0.0002836205862723577 -0.0004630210904077651 0.000391890623318358 -0.0002644812195667868 0.0002909079062583454 5.913541238232675e-05 
-0.0003110759975400228 0.0001131709012579072 0.0002067295215131742 -0.0004298297869069917 0.0001074317861822249 -0.001052181507710397 0.000158919091680711 -0.0002466173627106487 0.0003834576579395269 2.952975994725546e-05 
-0.000438932699004042 0.0002963718378578985 0.0001793372285057156 -0.0006007459144028522 0.0004444112575853873 -0.0006465466326186837 7.931594210311206e-05 -7.473671499825658e-05 0.0002002622050077508 -3.929185235207397e-05 
-0.0004920873028866322 0.0002509124410394568 0.0002104459666664331 -0.0004919886071621614 0.0003654188878858147 -0.000434056961797571 -3.088102133990191e-05 3.257001977901954e-05 0.0001182999262233782 -4.315854335830804e-05 
-0.000375950924415299 -4.945218614484394e-06 0.0002530048504659884 -0.0003640693575914991 0.0004461086187747209 -1.755881265279634e-05 -0.0001644598695775738 6.55734883951942e-05 3.653872907628024e-05 0.0001233613021158917 
-0.0002153647060890421 -0.0001899749962128412 0.0002259896399925043 -0.0002005993566583093 0.0002966012566499186 -0.0003769352855265254 -0.0001282738005755031 0.000106616457322711 4.570659990840626e-05 -3.741057282810615e-05 
-6.924637016865249e-05 -0.0002702686823082567 0.0001287446085333517 3.815586576825119e-05 9.872632220816647e-05 5.153892243787431e-05 -1.865335232653202e-05 0.0001261914101012591 -2.589899835790399e-05 -0.0001268261117830055 
6.441015307512318e-06 -0.0002200314689204727 -9.757846245287862e-06 4.691539461873171e-05 0.0001697589715505411 0.0007058277763689589 0.0001225832258696324 0.0001547207885828341 -0.000140591277805326 -0.0001103605313782291 
9.020716237116564e-06 -0.000151176828823267 -7.129538459041044e-05 0.0003048001632503577 2.213811947045827e-05 -0.0002078636522434721 0.0001288848175323944 -4.993172100739452e-05 -0.0002043552663612951 -0.0001261758870431781 
-5.801813077327673e-05 -0.0001147522005980283 -1.52343335360028e-05 6.020090862382433e-05 -0.0001750058256731939 0.0005385281503786731 8.507676379558307e-05 -6.28837790864396e-05 -0.0001852270835375212 -0.0001364850893967655 
7.317595162276064e-06 -9.495094164923822e-05 1.866268317554527e-05 0.0003470326350593175 -0.0001490183443657149 -0.0001847211608332104 3.66520601778781e-05 -0.000105902622477861 -0.0001611107241634101 -0.0001860506304810983 
6.664131799137768e-05 -0.0001008405537873703 3.153549061391783e-05 0.000425868044795553 -0.0002202571155333171 -0.0006673564883662292 -5.105849219813984e-06 -0.000105218206298277 -0.000101077076350796 -0.0001397367251810769 
